layers 12
layer 0 Convolution2D
4 1 3 3 same
[ 0.13070539 -0.39329973 -0.05751799]
[-0.16294631  0.2730059   0.7071892 ]
[-0.03432116  0.91702414  0.72167963]
[ 0.41431159 -0.13658676 -0.55903113]
[ 0.06738153 -0.44097972  0.03789661]
[ 0.34295014  0.62788367  0.0769411 ]
[ 0.41530138 -0.13348012  0.71860319]
[ 0.28324309  0.10322031  0.50268   ]
[-0.14336099  0.33259895 -0.40091944]
[ 0.21436299 -0.6940378   0.45072755]
[ 0.6330623  -0.7597062  -0.61980408]
[-0.58798289 -0.21228206  0.64926815]
[ 0.03979144 -0.03008003 -0.00689951  0.07323179]
layer 1 Activation
relu
layer 2 Convolution2D
4 4 3 3 same
[-0.10776165 -0.03109343  0.37801623]
[ 0.28590187  0.15113097  0.04531151]
[-0.09913671 -0.3023636  -0.26255581]
[-0.00430224 -0.19708207 -0.39415851]
[ 0.05675012  0.13944095  0.2024093 ]
[ 0.00870555 -0.23481584  0.00233414]
[-0.06776221 -0.2000701   0.14938019]
[ 0.15276411  0.28632286  0.38102415]
[ 0.18505719 -0.37616515 -0.22366072]
[-0.03101746 -0.03809382 -0.27861297]
[-0.45994547 -0.19429983 -0.07102867]
[ 0.05301656  0.22513121 -0.37464786]
[-0.01577022  0.11436408 -0.61764765]
[-0.01360873  0.14132625 -0.40341026]
[ 0.37763774  0.19114786  0.0650297 ]
[ 0.58527082  0.29024056  0.20272422]
[ 0.09505861  0.51095372  0.27233046]
[-0.10326824 -0.17968795  0.43916956]
[ 0.08528759 -0.2111275  -0.6033051 ]
[ 0.26520672  0.08618843  0.01245531]
[-0.13712877 -0.17436124 -0.00816496]
[-0.59199142 -0.23292135 -0.02303101]
[-0.37018254 -0.43008092 -0.41938233]
[-0.4741559  -0.08111023 -0.24953021]
[-0.59833008 -0.47557485 -0.34804487]
[ 0.20355131  0.17815503 -0.02804962]
[ 0.45797944  0.49294659 -0.06348617]
[-0.28866106  0.10172533  0.24356905]
[-0.0663212   0.19741483  0.24410819]
[ 0.4531368  -0.08249106  0.35543057]
[ 0.11224449 -0.5657956   0.05057879]
[-0.17361246 -0.33382523 -0.68530256]
[-0.20020135  0.06344808 -0.37765554]
[ 0.13171293 -0.3111738   0.18132468]
[-0.13088682 -0.13728712 -0.39236367]
[-0.04126253  0.25404185  0.1499282 ]
[-0.06711587 -0.40820238 -0.23669754]
[ 0.19394629 -0.00736981 -0.32407907]
[-0.10163993 -0.36765873 -0.29953071]
[-0.2679438   0.43936902  0.41329855]
[-0.26500762  0.42504159  0.16963381]
[ 0.21882631  0.11226601 -0.22035074]
[ 0.30691633  0.04406095 -0.02598758]
[ 0.1104328   0.23935452 -0.0432688 ]
[ 0.14837129  0.25056264 -0.21763109]
[ 0.37875772  0.09662002  0.29734516]
[-0.04867135  0.12362479  0.32261696]
[ 0.35341462  0.37253854 -0.04123835]
[-0.1303584  -0.17941564  0.01247098 -0.06828228]
layer 3 Activation
relu
layer 4 MaxPooling2D
2 2
layer 5 Dropout
layer 6 Flatten
layer 7 Dense
784 6
[-0.03906742  0.06698083 -0.08050424 -0.00319093  0.01833774  0.00991163]
[-0.01495006  0.03293357  0.0197208  -0.04033855 -0.03371154 -0.04916967]
[-0.0560285  -0.06582659  0.00927044 -0.02810042 -0.04538313 -0.01811428]
[-0.04217183 -0.06203745  0.00786272 -0.08437641  0.06187302  0.02497161]
[ 0.04890194  0.0295016   0.09356618 -0.04511118  0.05265909 -0.08466195]
[ 0.01842302  0.04933204  0.12449483  0.01028187 -0.04982815  0.04180962]
[ 0.06262324  0.02154626  0.04031507 -0.06167277 -0.13278985  0.05864461]
[ 0.12989759  0.10185143  0.2134088  -0.08905312 -0.12427314 -0.03205323]
[ 0.07632001  0.05693473  0.07775105 -0.03052638 -0.14711149 -0.02171398]
[ 0.16956519  0.11156113  0.19539343  0.00446256 -0.0419441   0.04952506]
[ 0.0728809   0.06926513  0.07213864 -0.09781756 -0.11909251 -0.01886914]
[ 0.03699401  0.09758761 -0.0313387   0.02741486 -0.0123749  -0.07841587]
[ 0.04408762 -0.00896906  0.01655275 -0.04099787 -0.05034749 -0.07800028]
[ 0.00049162  0.03273972 -0.05187371 -0.03524671 -0.0487449   0.00142996]
[ 0.01925284  0.04327489  0.07676191 -0.06858168  0.05246273  0.08637736]
[-0.03913829  0.04089813 -0.04338769 -0.06227551  0.03502904 -0.00492453]
[-0.01340255  0.08925099 -0.04649143  0.00481261  0.08402187 -0.05001928]
[-0.00448664  0.00845629 -0.0489215   0.0620584   0.03275958  0.05374323]
[ 0.12004003 -0.08000023  0.0730262   0.10314086  0.01877654  0.02744147]
[ 0.19942535  0.0411974   0.10161193  0.00254138 -0.02836442 -0.03731104]
[ 0.07102924 -0.06615104 -0.02236511  0.08353193 -0.15551291  0.02568628]
[ 0.09691633  0.054517    0.04528238 -0.00495828 -0.1716422   0.03594233]
[ 0.00859076  0.07897397  0.06079712 -0.00462207 -0.08630342  0.02208039]
[ 0.08228622  0.16470629  0.11211686 -0.05070282 -0.06934575 -0.03905707]
[ 0.21601656  0.19872816  0.20417759 -0.03218383 -0.08128194 -0.09920242]
[ 0.10677686  0.1003903   0.05587953  0.00666288 -0.01672807 -0.02673148]
[ 0.07345857  0.07926622  0.00449972 -0.1349408   0.09065051 -0.06629333]
[-0.04121388  0.0840917  -0.02115238  0.04570684 -0.08396059  0.04721911]
[ 0.04340751 -0.04323348 -0.03977324  0.02982535 -0.03849278  0.09510034]
[-0.07096823  0.07336508  0.01099318  0.04059284  0.0737777  -0.00711125]
[ 0.07866778 -0.07076143 -0.0773019  -0.06243804  0.03261434  0.08511402]
[-0.03425268 -0.07873675 -0.07087145  0.04829987  0.06856386  0.1610066 ]
[ 0.06147597  0.00021012 -0.09024861  0.08149875  0.06858582  0.05596897]
[ 0.07302603  0.02965225  0.03287805  0.03037147 -0.06389426  0.03224513]
[ 0.02695631 -0.00258618 -0.0447547   0.0374903  -0.04409206  0.03044395]
[ 0.01096773 -0.02229327 -0.0596895   0.04676566 -0.06942448  0.05126356]
[ 0.01364471 -0.04149925 -0.01510928  0.00333609 -0.06225731  0.08552551]
[ 0.02774564  0.02623075  0.04588503  0.00331564 -0.11179918  0.03535194]
[-0.05298756  0.13110696 -0.04069187 -0.01483134 -0.0330766  -0.02400244]
[-0.07714593  0.08672556  0.06450103 -0.1164344   0.02019626  0.00622961]
[-0.05779476  0.10704395  0.08086774 -0.06950065  0.02335202 -0.17675187]
[-0.06500823  0.06364176  0.05779041 -0.02115164 -0.0021324  -0.03453136]
[-0.02145884  0.04702939  0.04046494 -0.03426298  0.0079218  -0.05758718]
[-0.12664676 -0.08049425 -0.08426952 -0.03343058  0.03809498  0.04313999]
[-0.0573354  -0.00229261 -0.04600204 -0.00105374  0.00275314  0.02496381]
[-0.06709183 -0.03299264 -0.05158778 -0.07568189 -0.0375688   0.03019597]
[-0.02601815 -0.0992222  -0.00600346  0.0403838  -0.0179663  -0.003907  ]
[-0.05173214 -0.07219439  0.02231883 -0.02716432  0.00333877 -0.00092983]
[-0.01066243 -0.12340088 -0.01341376  0.00800515 -0.0164174  -0.00248835]
[-0.05818203 -0.08865213 -0.03643415  0.06168837 -0.00408447 -0.02124374]
[-0.03469793 -0.10128687 -0.02140437  0.01882734  0.02456948  0.00310652]
[-0.02902653 -0.05880898 -0.01538569 -0.00517877  0.02846344  0.01621901]
[-0.10542129  0.00905224 -0.02338735 -0.04549651 -0.06562742  0.05586809]
[-0.12240848 -0.036578    0.04276381 -0.07692291 -0.01631521 -0.02678498]
[-0.11259823  0.00387638  0.05112876 -0.11617312  0.01020225  0.05299921]
[-0.10615123 -0.12470145  0.09549988 -0.09589949 -0.06367683 -0.00969489]
[-0.04523963 -0.05458192  0.00154347  0.05548373 -0.00168017 -0.05049323]
[-0.06044749 -0.05544351 -0.01243048 -0.01156056 -0.08794187  0.03365815]
[-0.13677293 -0.10454314 -0.00915094 -0.03989451 -0.14785308 -0.00983818]
[-0.03488604  0.00970539 -0.10484713  0.0113144  -0.04946778 -0.05192915]
[-0.04150798 -0.06260344  0.0402276  -0.01605849 -0.01793173 -0.01752251]
[-0.02416874 -0.0505565  -0.06421608 -0.07505735  0.02241531  0.01957732]
[-0.01972706 -0.06823122 -0.03029053 -0.00340789  0.03120469 -0.03062044]
[-0.04702945 -0.09963293 -0.08096874 -0.00251694 -0.04396877 -0.06271683]
[-0.0962356  -0.05272247 -0.06098998  0.01329881 -0.04652401 -0.00572702]
[-0.12420142 -0.07242237 -0.15705176 -0.11374982 -0.02437872  0.0284632 ]
[-0.10894972 -0.06904355 -0.07436448 -0.00061129  0.02700019  0.07369661]
[-0.01948356 -0.0522684   0.09322453  0.01515693 -0.09799397 -0.07443254]
[-0.08866365 -0.05929584  0.06785287  0.00703057 -0.09069226 -0.01836407]
[ 0.02201014 -0.0071459   0.13112043 -0.10231153 -0.10749725 -0.02898056]
[-0.0443329  -0.01091559 -0.08651186  0.05705123 -0.00603669  0.00902113]
[-0.12859577 -0.01335361 -0.11699404 -0.10904156 -0.07310068  0.06165236]
[-0.08119008  0.02576054 -0.01765799 -0.01809519 -0.10755768 -0.00864538]
[-0.0398902  -0.11817024  0.11286064 -0.07544626 -0.00122884 -0.06820085]
[-0.07119118 -0.05165729 -0.02864877 -0.00781517  0.04780973 -0.18918772]
[-0.034868    0.02375111 -0.0114065  -0.05033384  0.04755268 -0.12375446]
[-0.06279694 -0.04152545 -0.01342442 -0.02753275  0.04295552 -0.02992066]
[-0.13381115 -0.00859804 -0.03335877 -0.11811348 -0.08831866  0.06853834]
[-0.05840877  0.04816647 -0.11345755 -0.10335266  0.02579103  0.08023562]
[ 0.02364809 -0.00966304 -0.1307497  -0.096274    0.03922481  0.04828951]
[-0.01201588 -0.03808152 -0.11402317 -0.01793855  0.08424722  0.05096115]
[-0.04809156 -0.05563283  0.06727141  0.06024459  0.00620161 -0.09723718]
[-0.04815882 -0.00349666  0.18093701  0.1109619  -0.15602666 -0.18044613]
[ 0.05008323 -0.03975293  0.04961424  0.0882815  -0.07804124 -0.01616337]
[ 0.07371971  0.02128684  0.03979872 -0.04624471 -0.06523554 -0.04403581]
[-0.11739784  0.05388116 -0.11991288  0.03654148  0.01367503  0.04379876]
[-0.03488735  0.0480119  -0.03624758 -0.05638292  0.10651534 -0.11620718]
[-0.03098111  0.05270058  0.07932893 -0.02419389 -0.00223829 -0.19767441]
[-0.10039466  0.05663952  0.03382226  0.0434197   0.05248202 -0.13780183]
[ 0.00623966  0.02049103  0.09233221 -0.02978187  0.04170541  0.06598566]
[-0.00276216  0.06625898  0.03098415 -0.07559785  0.04297131  0.10708504]
[ 0.00689243  0.01620286 -0.08571051 -0.15423249  0.04450549  0.01652301]
[ 0.10222947  0.01154263  0.00356475 -0.02699046  0.05737659 -0.01539683]
[ 0.10384996 -0.0060318  -0.08604176 -0.11358462  0.10002637 -0.03621958]
[ 0.05866818  0.10993546 -0.07428093 -0.0389245   0.11842354 -0.13331306]
[ 0.07034944  0.10636422  0.03897443 -0.00878045  0.06446225 -0.15067647]
[ 0.00081769 -0.0263014   0.13157658  0.02607869 -0.11187616 -0.12592821]
[ 0.0550649   0.03245167  0.1282427  -0.02380801 -0.11690079 -0.07911514]
[-0.07478495 -0.01820272 -0.06269291  0.00665818 -0.02870332  0.07456841]
[ 0.05378092 -0.00633786 -0.01346912  0.03599613 -0.00216099 -0.06630544]
[-0.0387869   0.07705194  0.02308471  0.01879268  0.16575389 -0.07153638]
[ 0.02004961  0.06257091 -0.00260976  0.10282439  0.06431724 -0.13343811]
[ 0.06233189  0.05821915  0.04691885  0.14592053  0.04958099 -0.02005599]
[ 0.13300662 -0.0574935  -0.05731699  0.06660823 -0.00339701 -0.05066309]
[ 0.12064084  0.05105122 -0.06871818 -0.01402375  0.04212973 -0.02787965]
[ 0.14410542  0.10636713 -0.050026   -0.02189259  0.03791855 -0.05848651]
[ 0.14456318  0.058003    0.02239035 -0.06089853  0.04466635 -0.06882552]
[ 0.12947977  0.05469568 -0.0393866  -0.02279569  0.0870617   0.0065933 ]
[ 0.00305475  0.07577641  0.0047877   0.02525244  0.00309083 -0.03683132]
[-0.03508769  0.18263997  0.09428519  0.01384161 -0.04909267 -0.01606517]
[ 0.06899506  0.02494098  0.10384301  0.02932449 -0.09473865  0.06537746]
[ 0.07517871  0.00986026  0.09027697  0.01592802  0.02904011 -0.00464348]
[-0.06572042  0.02129021 -0.02434292 -0.07279999 -0.01966999 -0.05625463]
[-0.10346667  0.04855115 -0.07327472 -0.01777378  0.01280191  0.02174195]
[ 0.01099268 -0.04008197  0.01197191  0.04585462  0.07098198  0.09718982]
[ 0.01544628 -0.03578092 -0.0146135   0.12136935  0.104742    0.03022039]
[ 0.11721487 -0.04834173 -0.00625299  0.05562497  0.05779706 -0.10190018]
[ 0.13390532 -0.02285026 -0.16216552  0.02688562  0.04655525 -0.06547689]
[ 0.03361969  0.05898936 -0.10860559 -0.03123833  0.05902476 -0.06094205]
[ 0.15182632  0.06832383 -0.08178861 -0.04478832  0.1047236  -0.04795593]
[ 0.12517294 -0.00754807 -0.03390961 -0.06189475  0.0709592   0.01186   ]
[ 0.05215311  0.03236929  0.05209194  0.0254031  -0.07252359  0.01127115]
[-0.0092993   0.05221259  0.0231491   0.11227278 -0.12805617  0.03810495]
[ 0.01871308  0.12850365  0.02667091 -0.03126554 -0.10605173  0.05603862]
[ 0.044838   -0.11264879  0.05079987  0.07524277  0.00152993  0.07609396]
[ 0.1551643  -0.02222879 -0.12720665  0.04343478 -0.0033571   0.03538018]
[ 0.02905406  0.05066716  0.04698509 -0.05630012  0.05541127  0.03733676]
[-0.04357199  0.01936512 -0.02087741  0.03215198 -0.07363502  0.08774489]
[ 0.06804624 -0.08058169 -0.03056752  0.04887716  0.01596945  0.12645514]
[-0.03071576 -0.1034589  -0.01092129 -0.02803918 -0.01930314  0.1277584 ]
[ 0.02986921 -0.08474321 -0.01556617 -0.01378352 -0.10808601 -0.03383689]
[-0.04376594  0.0619574  -0.08966963  0.05536718 -0.00720353 -0.02403886]
[-0.0289361   0.09812566 -0.06336904  0.04826351 -0.00782864 -0.04162883]
[ 0.03472545 -0.05501594 -0.04505933  0.03982413  0.03915565  0.00111043]
[ 0.01207243 -0.02913043  0.05804972  0.06324458 -0.08200111  0.03085954]
[ 0.04603422  0.00384863  0.0808479   0.10104506 -0.19004379  0.05007421]
[ 0.06896473  0.04244872  0.04720215  0.08934784 -0.21397528 -0.02142988]
[ 0.02961636  0.01088299  0.02971653  0.0469478  -0.17943446  0.03393712]
[ 0.11040692 -0.08492445 -0.04163755  0.19172564  0.01023366  0.04176773]
[ 0.13008924 -0.1212942   0.0314901   0.14567007  0.05230414  0.03232304]
[ 0.05648564 -0.08446451 -0.0877511   0.06191198 -0.03236663  0.07165269]
[-0.03015905  0.03224101 -0.09356859  0.00821714 -0.02179508  0.13270944]
[ 0.0304433  -0.06106001  0.01741098 -0.02229178 -0.10277738  0.14858605]
[-0.01278069 -0.03614081  0.01046253  0.00296156 -0.04292632  0.14329767]
[-0.00728218 -0.02246221  0.01352667  0.03688846 -0.13058089  0.02880569]
[-0.06561352 -0.00186455  0.01788849  0.01276611 -0.0415118   0.00507921]
[-0.09440263  0.01164187  0.00185722  0.00323688 -0.00680585 -0.0378729 ]
[ 0.05407793 -0.08273566  0.04724759  0.07135511  0.02546962  0.00355198]
[ 0.0922354  -0.02054353  0.08037369  0.02379434 -0.09455951  0.05897214]
[-0.0553621  -0.03339072 -0.00487428  0.06089171 -0.17129442 -0.02254095]
[ 0.04369746 -0.06481665  0.10190351  0.11367707 -0.1986381   0.11217117]
[ 0.1517117   0.01550063  0.0199306   0.12724257  0.01024421  0.00633366]
[ 0.10970394 -0.00198287 -0.0942642   0.15014903  0.0812742  -0.01371201]
[ 0.02463154 -0.03103523 -0.00948261  0.11164109 -0.02155576  0.07036479]
[ 0.04600124  0.0668264  -0.06107894 -0.06301144  0.05020047  0.0110952 ]
[-0.02949553  0.04212086 -0.1176319  -0.03243552 -0.04534249  0.16380182]
[ 0.05000403 -0.09457899  0.01276516  0.06679961 -0.1167686   0.04866843]
[ -6.34924844e-02  -1.08865216e-01  -9.65091458e-05   1.45540312e-01
  -7.55080953e-02   1.00458458e-01]
[-0.02495885 -0.01661808 -0.0316963   0.04600329 -0.020572    0.09820317]
[-0.05108428 -0.01840363  0.00952854 -0.02077221 -0.05101484  0.04357142]
[-0.08741771 -0.11639959  0.05054187  0.01432463 -0.00442207  0.11072856]
[-0.08536652 -0.14078511  0.13814504  0.01959854 -0.14910658  0.07222748]
[-0.06213782 -0.1063249   0.10027074  0.05084147 -0.15883395  0.06786171]
[ 0.05180645 -0.09704819  0.13394381  0.04341862 -0.18030007  0.04409348]
[-0.02687182 -0.11740837  0.04752845  0.15729465 -0.10826854 -0.02879689]
[ 0.03496617  0.06548145  0.01905068  0.11671613  0.01645963 -0.11732063]
[ 0.13286449 -0.04483453  0.06075415  0.1241206   0.07711011  0.05807561]
[ 0.04150747 -0.07680073 -0.06237863  0.04571693  0.06257966 -0.06488719]
[ 0.03059248  0.03106824 -0.02559988  0.06763268 -0.0651234   0.05156871]
[ 0.04193901 -0.078591    0.0235756   0.03625648  0.03458198  0.05169051]
[ 0.01371782 -0.0072392   0.01081257 -0.07712869  0.05958347  0.13297403]
[-0.06937611  0.07136875 -0.10950581 -0.05933774 -0.05467723  0.03001627]
[-0.14416388  0.08321783  0.01443592 -0.04480686 -0.00555624 -0.01242323]
[-0.09717651  0.00939648 -0.09882971 -0.0541979  -0.06718877  0.04840084]
[-0.09347346 -0.01286593 -0.01154548 -0.05009276 -0.08205855  0.01322672]
[-0.17577085 -0.03943302  0.01149401 -0.01106786 -0.01052952 -0.04517252]
[-0.07025491  0.02461435  0.03853086 -0.11636726 -0.16792224  0.05211317]
[-0.07692622 -0.07125523  0.01309073 -0.12532908 -0.02010696 -0.02913213]
[ 0.04553639 -0.12029202 -0.09633719 -0.1377289   0.06235113 -0.12605701]
[-0.04013732  0.00550046 -0.07381614 -0.03169576  0.04153297 -0.09869719]
[ 0.03873396  0.04775626  0.06620855 -0.08053729 -0.07032475  0.02003137]
[-0.0144163  -0.04095831 -0.06106001  0.01797655 -0.02855544  0.0293809 ]
[-0.06306019 -0.0588049  -0.07670173 -0.02984815 -0.04393519 -0.01071882]
[-0.01691441 -0.03707276 -0.04219501 -0.03778722 -0.0007877   0.06881382]
[-0.07796181 -0.06866471  0.06572799 -0.00192846  0.03723939  0.02217229]
[ 0.02979843 -0.11515513 -0.14353447 -0.03951226 -0.08550823  0.03261137]
[-0.00039932 -0.05480747 -0.1693349  -0.09619956  0.07430986 -0.08628785]
[-0.03538093 -0.00904224 -0.06834805 -0.0190037   0.05654395  0.03711735]
[-0.10351564 -0.06708711 -0.18060085  0.0189241   0.05107822 -0.01009724]
[-0.00077886 -0.12140364 -0.1586459  -0.10253548  0.0748219  -0.10849893]
[ 0.00753583 -0.04848099 -0.07364402 -0.06969649  0.08972885 -0.10648054]
[-0.01780025  0.01787813 -0.10191907  0.04106921 -0.02561789 -0.05578571]
[-0.05392049  0.01017144  0.0617907  -0.02703491 -0.01556514 -0.03906799]
[ 0.04229082  0.017367   -0.04432377  0.02795104 -0.06702921  0.0220938 ]
[ 0.06377815 -0.01866848 -0.00872547  0.05797683  0.0544525   0.01202905]
[-0.02050604 -0.0856597  -0.07597944 -0.00963104 -0.04709589 -0.00769084]
[-0.00340328  0.07873099 -0.0219969  -0.05687838  0.06580792  0.00297902]
[ 0.04022289  0.00317212  0.04879058  0.03770782 -0.03577699 -0.03475757]
[-0.00706839  0.00817295 -0.03345953  0.08342326  0.06095733 -0.08682188]
[ 0.02722241  0.02426411 -0.03439478  0.08369356  0.0522751  -0.0449243 ]
[ 0.0099801  -0.01104544 -0.02329639 -0.02217771  0.03242119  0.06062712]
[ 0.08399585 -0.02400675  0.02455658  0.07060169 -0.03615051 -0.02931003]
[-0.03101281  0.02415211 -0.03012143  0.04266731  0.02002876  0.00579006]
[ 0.08879109  0.02279682 -0.0211412   0.04524592 -0.06163095 -0.06431939]
[ 0.08747323 -0.01549331  0.02253912  0.07246362 -0.00243468 -0.05321512]
[-0.02884641 -0.04605389  0.08200455  0.04800062  0.01582255 -0.01059281]
[-0.06646664  0.02130977 -0.02211557 -0.06502445  0.02839461 -0.00296204]
[-0.0063191   0.02129605 -0.03310223 -0.0723725  -0.01088557  0.02342578]
[ 0.03307475 -0.00205816 -0.06744242 -0.00648706  0.0194298   0.0109417 ]
[ 0.07308613 -0.04531072 -0.06914005 -0.02438866  0.03880366  0.0083587 ]
[ 0.02373182  0.04986393  0.0046019  -0.05207612 -0.00573088  0.07560703]
[-0.00279334 -0.00783953  0.08252763  0.07336356  0.00140709 -0.0343411 ]
[-0.04207593 -0.00875723 -0.03193431  0.0508767  -0.02291996  0.06465951]
[ 0.03113389  0.00323801  0.07343598  0.0130802  -0.03448491 -0.07498746]
[ 0.0588749   0.06433691 -0.06216944  0.0342691  -0.0034156   0.0266451 ]
[-0.03449099  0.06321817 -0.02859182  0.0831231  -0.03288101  0.02914312]
[ 0.01045273 -0.00929295 -0.01528651  0.08905878 -0.08724598 -0.02091521]
[ 0.07291564 -0.02524887  0.0677094   0.03089601 -0.11066602 -0.04420857]
[ 0.06328499  0.01238304  0.1401284   0.01932525  0.00875261 -0.07548752]
[ 0.04539411  0.01408557  0.12640463 -0.07758753 -0.11599313  0.01516973]
[ 0.11734974  0.0519678   0.02609917 -0.09596024  0.00760446 -0.01850368]
[-0.05513092 -0.0005425  -0.05468076 -0.05329437 -0.02897244 -0.03885645]
[-0.02990598  0.05032407 -0.02790986  0.01764167  0.07079449  0.06969906]
[ 0.07217807 -0.0403676   0.04199512 -0.04355459 -0.00424795  0.03450686]
[ 0.01203644 -0.07774626  0.05507603 -0.04055534 -0.07002122  0.01328743]
[-0.0481668  -0.01752881  0.05087928 -0.00735122  0.040618    0.1032773 ]
[ 0.06465386 -0.05758112  0.02381022  0.00321338  0.03128157  0.13716431]
[ 0.06783783  0.01544763 -0.0149171   0.04689595  0.00820966  0.00950362]
[ 0.07381979  0.01312065 -0.09736039  0.01865782  0.00792775  0.12177141]
[ 0.09135745 -0.06036264 -0.0446456   0.01279791 -0.10183311  0.13218282]
[ 0.00804703 -0.0883181  -0.16667442  0.01214905 -0.10056449  0.08144812]
[ 0.00605778 -0.12676349 -0.2353674   0.00633736 -0.05420572  0.20651759]
[ 0.04716679 -0.16177474 -0.12780043  0.01687378 -0.00228597  0.09565148]
[ 0.08591419 -0.04197698 -0.06426861 -0.01337303  0.05199495 -0.08891451]
[ 0.0531125   0.13757232  0.01047697 -0.03864362  0.02782924 -0.09235316]
[ 0.00068447  0.02367681  0.06316385 -0.07520843 -0.04162875 -0.10189153]
[ 0.05968004 -0.01739021  0.06326228  0.05606267 -0.07059325 -0.09028298]
[ 0.01108022 -0.03864975  0.02851808 -0.06720294 -0.0641618   0.0656224 ]
[ 0.02856216  0.07055982 -0.0516327   0.06126514 -0.06335178  0.06992489]
[-0.02274534  0.01895336 -0.08379271  0.016747   -0.02590398  0.08931   ]
[-0.10318176  0.01107232  0.02312925 -0.03665748  0.00095678 -0.0337357 ]
[-0.04375613 -0.0754312  -0.02909807 -0.00466084  0.01759901  0.03106197]
[ 0.00116251 -0.06716793 -0.1278947  -0.07724619 -0.10414111  0.0604531 ]
[-0.01541991  0.01094078 -0.09594882 -0.0182929   0.02122372  0.06785633]
[-0.03461634  0.06484822 -0.20892754 -0.03560704 -0.05055199  0.12315392]
[-0.00657353 -0.05613374 -0.10148261  0.05615091  0.02622598  0.08818526]
[ 0.0164944  -0.15390047 -0.07418198  0.00928011 -0.06441702  0.02137644]
[-0.06018726 -0.09525328 -0.0366458   0.05777948 -0.09441374  0.05553636]
[-0.0373932  -0.10206357 -0.09152859  0.07925733  0.00442862 -0.0195956 ]
[-0.00441259  0.04394315 -0.02716027  0.00481984 -0.0131458  -0.07464644]
[-0.0853048  -0.08578472  0.14624254 -0.1413165  -0.09014442 -0.01979152]
[ 0.02511594  0.03923353 -0.08180646 -0.00175885 -0.02927249 -0.06445828]
[ 0.04209926 -0.08868414  0.04163343 -0.02163641  0.02530746 -0.07373472]
[-0.10095525 -0.10008579  0.00131887  0.04311842 -0.06206283  0.03489906]
[ 0.00571431  0.01469386 -0.11206105 -0.07247999 -0.06737912  0.02385927]
[-0.01097872 -0.00562193 -0.02194824 -0.05683146 -0.11771472  0.00206037]
[ -1.15831383e-04  -1.08045913e-01   3.20281135e-03  -7.60966688e-02
  -1.24341138e-01  -1.00107208e-01]
[-0.10858494 -0.07668691 -0.10243502 -0.03487233 -0.16624731 -0.02954399]
[-0.0825576  -0.05670145 -0.13575262 -0.02827281 -0.1120479   0.026976  ]
[-0.04760169 -0.11146263 -0.08977763  0.06951195 -0.01889972 -0.04782258]
[-0.15189293 -0.17015208  0.01666569  0.05351889  0.09082456  0.00025641]
[-0.07552654 -0.1044834   0.03050669  0.08244133  0.10827003  0.01782744]
[-0.00942031 -0.12684217  0.08355205  0.10010161 -0.0361272  -0.00246131]
[-0.07830814 -0.07635061  0.1137226   0.0290374  -0.04944488  0.01956727]
[-0.0109731  -0.02426281  0.11800489 -0.07934095 -0.03696994 -0.08501267]
[ 0.01284711  0.0431909   0.09637013 -0.11432026  0.01232683 -0.00321833]
[ 0.01906602 -0.08105582 -0.05718938  0.03988577 -0.00495249 -0.07105312]
[-0.0122134   0.05805667 -0.00694293 -0.02315187 -0.04676246 -0.01856113]
[-0.04069596 -0.05782768  0.00547459 -0.01649872 -0.01829835  0.00848908]
[-0.1639061  -0.05442702  0.03583464 -0.08676317 -0.03838369 -0.10050523]
[-0.11564735 -0.08858791  0.05234538 -0.07318517 -0.00907222 -0.11835458]
[-0.11836162 -0.04765757  0.09523571 -0.16060868 -0.01093811 -0.15720908]
[-0.10804993 -0.03242492 -0.02262444 -0.10533246 -0.06760206 -0.12617558]
[-0.14328071 -0.08854072 -0.02679079  0.05915689 -0.11123201 -0.06258302]
[-0.12703876 -0.18267532 -0.01581138  0.10508039  0.01275245 -0.06243977]
[-0.07347121 -0.11571167  0.04213106  0.11091261  0.00097474 -0.0952222 ]
[-0.12800011 -0.10439649  0.12189028  0.17862253  0.04061839 -0.08160742]
[-0.01206847 -0.01754448  0.16279012  0.0099052  -0.02975101 -0.10437186]
[-0.12592392 -0.08098892  0.18772975 -0.17412317 -0.08647423  0.03438883]
[ 0.00875268 -0.10856817  0.06004445 -0.09786192  0.0015832  -0.02043122]
[ 0.06909539 -0.04950211 -0.00284876  0.02066973 -0.05381058 -0.07749933]
[-0.07448489 -0.03031927 -0.0491439  -0.05808948 -0.07166036 -0.00931027]
[-0.08666971 -0.05218007  0.00651386 -0.05961087  0.05160653 -0.03655472]
[-0.10002898  0.05801047  0.06540412 -0.08273446  0.09998398 -0.19112821]
[-0.11125443  0.00274319  0.07805646 -0.11125958  0.09151421 -0.12840191]
[-0.10683959 -0.11173424  0.08448141 -0.17114876  0.11357389 -0.10035803]
[-0.19848745  0.01883736  0.05626066 -0.21294095 -0.13125677 -0.00745793]
[-0.17691621  0.08200294 -0.15099965 -0.1341837  -0.02216862 -0.01123105]
[-0.10864204 -0.06190788 -0.03728655 -0.03608251  0.04030855 -0.04669677]
[-0.01601765 -0.08225658  0.04686236  0.01862072 -0.02768761 -0.13238588]
[ 0.01876354 -0.04906913  0.15312146  0.1583747  -0.00756732 -0.22023182]
[ 0.01204351  0.04608719  0.24717911  0.17930141 -0.02258165 -0.08916209]
[-0.04137192  0.02220822  0.11063026 -0.09143935 -0.1324756  -0.04175996]
[-0.03630529  0.01684017  0.00394779 -0.0079483   0.01052632  0.03271216]
[-0.04517175  0.06207937  0.03067431  0.06896498  0.01400325 -0.04428699]
[-0.0967899  -0.08438822 -0.05430615 -0.12411343  0.0835035  -0.03253276]
[-0.13349462  0.02219423  0.04814352 -0.01748923  0.06414689 -0.04833803]
[-0.07323651  0.04039209  0.06126493 -0.10592649  0.1390295  -0.12771696]
[-0.10651786  0.03283321  0.0461175  -0.10106798  0.08836827 -0.04543821]
[-0.1304169  -0.03934191  0.10808399 -0.19507189  0.14391069  0.02111096]
[-0.22751342  0.1204388  -0.03116086 -0.2071047   0.16410318  0.06207542]
[-0.06916177  0.10770586  0.02427565 -0.18217695  0.06792183  0.0246467 ]
[-0.03552118  0.02453963  0.03957538 -0.20345046  0.02310493 -0.04270098]
[-0.049164    0.02862549 -0.00362362 -0.08150662 -0.10237416 -0.06609906]
[-0.04566833  0.14701545  0.23262985  0.05136398 -0.024164   -0.14272812]
[ 0.11641677  0.11765226  0.35901263  0.00352461  0.05485948 -0.14989671]
[ 0.10874706  0.06219362 -0.00478726 -0.00691294  0.01492119 -0.01425096]
[ 0.07747075 -0.09594782  0.04438519 -0.01127195  0.03475452 -0.07501525]
[ 0.02419581 -0.05565973  0.00640889 -0.05774048 -0.08359794  0.02039129]
[-0.09864654 -0.02706584 -0.01464139 -0.10671621  0.01929871  0.0825734 ]
[-0.12903726  0.06060769  0.06091734  0.03679715  0.02723237 -0.03983058]
[ 0.00889403  0.07450614  0.04642372 -0.00807372  0.11905132 -0.09648652]
[ 0.00895092  0.05789085  0.09084326 -0.01420376  0.10141961 -0.00737511]
[ 0.05594495 -0.05619736  0.08691633 -0.01252452  0.12558223  0.02987513]
[ 0.06556539  0.14471771 -0.08355934 -0.16934574  0.06434385  0.08309951]
[ 0.05602571  0.14412925  0.00898225 -0.16967072  0.01690211  0.0605845 ]
[-0.08116364 -0.05655373  0.02985553 -0.10504539  0.05387735  0.07488924]
[-0.0472754   0.02381015  0.09008378 -0.09730949  0.00134906  0.09314095]
[-0.00687428  0.09923145  0.16775046 -0.05282652 -0.0725426  -0.00462941]
[-0.06490465  0.06328204  0.18809222 -0.01015826 -0.02889855  0.02884367]
[ 0.05737333 -0.03614923 -0.00361582  0.07309246  0.06504359 -0.04830642]
[  8.11085328e-02  -5.44144846e-02   5.30218035e-02  -5.37849590e-02
  -9.26319808e-02  -5.50388941e-05]
[-0.03528178  0.07348847 -0.02108878  0.00013564 -0.05337128  0.09645519]
[ 0.05595201 -0.07799516 -0.14793406  0.0491055   0.02940144  0.1246221 ]
[-0.02234162 -0.0562728   0.03526288  0.08952779 -0.02429438 -0.06109262]
[-0.00820177  0.04788082  0.0048524  -0.00322191  0.08318963 -0.01806781]
[ 0.0545541   0.02029429  0.07868868  0.0398392   0.08319042 -0.12722498]
[ 0.17047921 -0.02288071  0.11209282  0.04238752  0.08164708 -0.13981324]
[ 0.00466482  0.1660538  -0.07262052 -0.00832543 -0.01894046 -0.04848717]
[ 0.01513524  0.02098861 -0.09908869 -0.13416441  0.01579315 -0.03997024]
[-0.00312271 -0.09508158 -0.01186613 -0.11565296 -0.02977365  0.00928178]
[ 0.03729437 -0.04132262  0.06168678  0.01351239 -0.00853295  0.0637935 ]
[-0.00233835 -0.03212952  0.0438788   0.01994516 -0.11213902  0.06012726]
[ 0.06241088  0.03343459 -0.01658566  0.04910088 -0.10153344 -0.02956602]
[ 0.18054646  0.04457784  0.00266658  0.08035386 -0.06650768  0.00252987]
[ 0.06767963 -0.02409207  0.03694568  0.10137129  0.00571331  0.06489464]
[-0.08291952  0.00392416  0.03482429  0.04291628 -0.02507767  0.00144434]
[ 0.02491103 -0.04466007 -0.13494717  0.03273975 -0.02293782  0.23139757]
[-0.09715457 -0.12663984  0.00409987  0.05229484 -0.07751616  0.11574508]
[ 0.01381219 -0.04963699  0.05579986  0.05928363 -0.11303679  0.01311716]
[ 0.04673383 -0.03714068  0.09832087  0.07243122 -0.05695152  0.02520467]
[ 0.06905941  0.06103547  0.13825123  0.12901554 -0.08737744 -0.07819247]
[ 0.09147529  0.1104877   0.06887926  0.0358055  -0.08842751 -0.06017036]
[ 0.06536806  0.13147384 -0.02919225  0.04961482 -0.00611373 -0.06734547]
[ 0.10177693  0.01696531 -0.05197329  0.05370766 -0.01293762  0.09319567]
[ 0.09427326  0.02622236 -0.03434446  0.02116777 -0.03701993  0.06729245]
[ 0.1133219  -0.12398832 -0.04367247  0.03655697 -0.02591902  0.08040918]
[ 0.12728737 -0.04632762 -0.04945877  0.10861507 -0.02718423 -0.0457084 ]
[ 0.1499871  -0.06631487 -0.10451417  0.0755434  -0.06748929  0.02041965]
[-0.02766585 -0.03655818  0.0231626   0.0053321   0.08075526  0.02749973]
[-0.05099907 -0.01623904 -0.02911362  0.02831533 -0.00286221 -0.06061858]
[-0.01742517 -0.07118069 -0.05212213  0.06814828  0.05434906  0.09435526]
[-0.06159087 -0.06555133 -0.01441895  0.03042549  0.01396297  0.02732418]
[-0.00275294 -0.1154715   0.01745867  0.00323921 -0.05994754  0.08860463]
[-0.01695345 -0.02840781  0.05171783  0.04453968 -0.14561115  0.04886988]
[ 0.00085649 -0.0062364   0.0755253   0.04784553 -0.08346154  0.02838268]
[ 0.04804669  0.06411925 -0.00517791  0.00817578 -0.07184307 -0.01688218]
[ 0.04818923  0.1291319  -0.05449555  0.07998001 -0.04747139 -0.08467529]
[ 0.04828515  0.06974876 -0.05137984  0.03347055  0.00068297 -0.07995675]
[ 0.0910976   0.00935078 -0.15440427  0.03421373  0.08262391  0.04100616]
[ 0.0680755  -0.06444762 -0.14760777  0.09508833  0.078867    0.00462681]
[ 0.17059706 -0.09331001 -0.08620006  0.07750675  0.0013356  -0.02903177]
[-0.02433081  0.04171309  0.05263587  0.00535138  0.05679364 -0.03363255]
[ 0.0241158   0.06922956  0.00010243 -0.03331228 -0.01545451 -0.03078092]
[-0.07563546 -0.0329041  -0.03694381  0.01354204 -0.04418799  0.07538918]
[ 0.0600323  -0.01107984 -0.07601404 -0.05403072 -0.03597742  0.16250169]
[-0.01914354 -0.09587675  0.00946278 -0.00722912  0.00375732  0.0006796 ]
[-0.05717392 -0.08079307  0.01472287  0.12579787 -0.05150739  0.03197926]
[-0.06496072 -0.0449063   0.02073055  0.01519882 -0.06846554  0.06701903]
[-0.1215781  -0.04539818  0.05823139 -0.00235831 -0.02350283 -0.00416036]
[-0.07970669 -0.02704509  0.01208242 -0.02198171 -0.02084302 -0.01937953]
[-0.12609646 -0.00569845 -0.03698121 -0.08859907 -0.05652243 -0.08504139]
[-0.0803852   0.07658496 -0.01531402 -0.05971813  0.06208231 -0.12924542]
[ 0.02696161  0.07895637 -0.08274443 -0.03896499  0.1057324  -0.03487722]
[-0.00670366  0.03646946 -0.00624219  0.06315277  0.17404962 -0.04622745]
[ 0.0458047  -0.08507322 -0.08444709 -0.02120425  0.03899279 -0.02862916]
[-0.0364937  -0.07919227 -0.08860917  0.05808875  0.0268345  -0.04091415]
[-0.00682486 -0.08390704 -0.0186637  -0.06849681  0.00653963 -0.0746432 ]
[-0.01915402 -0.0474208   0.05034585 -0.03819183 -0.01545872  0.0060174 ]
[-0.00483732 -0.07371803  0.04443135  0.02383116 -0.01439601 -0.050795  ]
[-0.03035912  0.01707586  0.04228516 -0.09892064  0.03835543  0.10942864]
[-0.10512608 -0.09697876 -0.01144514 -0.10605712 -0.02922908  0.01368179]
[-0.05873137 -0.04754569 -0.02861666 -0.17374788 -0.02467772  0.01283185]
[-0.13973549 -0.11440513 -0.095158   -0.03992534 -0.05085511  0.02517213]
[-0.1538301  -0.06590379 -0.02813594 -0.02347354 -0.0295864   0.00432695]
[-0.13415553 -0.24373333 -0.00090779  0.01787854 -0.03444828 -0.06788412]
[-0.01112311 -0.13941826 -0.10832252 -0.11340182 -0.0389825   0.01288562]
[-0.0502027  -0.07170554 -0.09651695 -0.12291852  0.07942431 -0.05286281]
[-0.12547426 -0.06467709 -0.11403362  0.00785121  0.10944981 -0.04571285]
[ 0.00012028  0.05838052 -0.0763274  -0.05931687  0.04544165 -0.06419015]
[  3.80372368e-02   7.34318094e-03  -3.93703813e-05   4.96816486e-02
  -4.93600927e-02   2.73512211e-02]
[-0.03118901 -0.01200502 -0.01040418  0.03281386  0.07756227  0.0802449 ]
[ 0.01772277  0.04992392 -0.04761428  0.06036169 -0.07171714 -0.04608881]
[ 0.04434179  0.0011037  -0.07102206 -0.00090408 -0.02711719  0.06101942]
[ 0.04101349 -0.02128006 -0.00347576  0.02315955  0.04395969 -0.01511963]
[ 0.08135256 -0.02597147 -0.04686468 -0.07456645  0.06345619  0.02084455]
[-0.03101445 -0.08719791  0.0339371   0.07284594  0.01811405  0.06786964]
[-0.06233608  0.0109088  -0.05510778 -0.03001232 -0.07404365 -0.02720992]
[ 0.10216516 -0.02586252  0.04625572  0.06080001  0.0025434   0.05324237]
[-0.00600896 -0.01303477  0.0065638   0.07865275  0.00225267  0.03165912]
[ 0.08485188  0.04467492  0.00033264  0.01530457 -0.0300951  -0.00461491]
[ 0.08652813 -0.00655073  0.10639327 -0.04961162 -0.01924074 -0.08855887]
[ 0.05536198  0.04441192  0.0413847   0.0782316   0.04965478 -0.0673535 ]
[-0.02596074  0.04273294  0.04211704 -0.01277924  0.00221688 -0.04813733]
[-0.04585915 -0.06141643  0.00478471  0.01803451 -0.03663845 -0.0403488 ]
[ 0.01441642 -0.04549813 -0.06118237 -0.00716001 -0.07673746 -0.01563122]
[-0.08248195  0.04347258  0.076575   -0.07121826 -0.05715345 -0.08398055]
[ 0.07237466  0.03443266 -0.00899066  0.07072255  0.00499713  0.03811166]
[-0.00475779  0.04017419  0.04598092  0.0375697  -0.0710499  -0.06204008]
[-0.0240186   0.07486086 -0.07964475 -0.00419508  0.05029093 -0.04079768]
[-0.05596479  0.01486915 -0.12102692 -0.03642174 -0.03398503  0.00316819]
[-0.02469491  0.0763908   0.02010286  0.03333835  0.06176883 -0.08498214]
[-0.10487193  0.04290294  0.0124588   0.12068252 -0.04455855 -0.03164952]
[ 0.04407844  0.02152792  0.08121864  0.03383606 -0.06566576 -0.05228054]
[-0.06175475  0.17365611  0.0389622   0.057902   -0.05768988 -0.04451564]
[-0.06743988  0.21546647  0.02075782  0.00401749 -0.08342808 -0.05232261]
[ 0.02163779  0.10217674 -0.01003113  0.04113875 -0.08784937 -0.06359082]
[-0.0999877   0.04267092  0.05495067 -0.05436992 -0.04029726 -0.00247399]
[ 0.05093544  0.10281274 -0.06068262  0.0433988  -0.04390175 -0.03029111]
[ 0.07151481  0.00458986 -0.04133137  0.00196587  0.07677025  0.0034017 ]
[ 0.00085773  0.03777283 -0.05106779 -0.02946232 -0.06064979 -0.03055498]
[-0.0420396  -0.05308983  0.03681584 -0.08789367  0.05293134  0.09253838]
[ 0.02792153 -0.0449195  -0.02086477 -0.01020745 -0.05221888  0.01692515]
[-0.01701123 -0.03765393 -0.09578737  0.04363766 -0.09103493  0.04265658]
[-0.00197488 -0.09371082  0.04228741  0.07108247 -0.02324834  0.06102013]
[-0.01493211  0.0169233  -0.00967385  0.07143798  0.04797189  0.04596892]
[-0.07369762 -0.16880937 -0.07233747  0.06172723 -0.0438374   0.04275173]
[-0.03518266 -0.08918768 -0.00185542  0.01431676  0.02549979  0.07987326]
[-0.04839022  0.06387673 -0.01675708 -0.01596477 -0.04252673  0.04119883]
[ 0.05227592  0.11957201  0.0303012  -0.04014554  0.04508073  0.01942569]
[-0.00812774  0.04599605 -0.03402467 -0.04947035 -0.05045991 -0.04086854]
[ 0.02863701 -0.05249111 -0.04588257 -0.08039927  0.04478107  0.03092645]
[-0.04144738 -0.03333064 -0.03374507 -0.08672942 -0.00910191 -0.09968891]
[ 0.03911369 -0.02953779 -0.06283155 -0.02712917 -0.03807747  0.05724422]
[-0.03304278 -0.01682568 -0.00536668  0.01376449 -0.00732644 -0.08759394]
[-0.00534353 -0.0021002  -0.03150568  0.05855668 -0.01142976  0.0738079 ]
[-0.04739947  0.02060775 -0.12040839  0.03092817  0.07279155  0.09442974]
[ 0.01312988 -0.0585911  -0.10416671  0.05100058 -0.06608848  0.10077882]
[ 0.05569522 -0.18668652 -0.23049371 -0.0314425   0.0474785   0.09962165]
[  6.92289770e-02  -1.93713978e-01  -1.90536931e-01   5.77438623e-02
   1.16113690e-04   1.71151921e-01]
[-0.0087291  -0.20839186 -0.1776887   0.01187138 -0.12710679  0.13152464]
[-0.0460172  -0.26471692 -0.08024167  0.01974243 -0.16403294  0.02296399]
[ 0.03026518 -0.23234223  0.06375558  0.05091256 -0.06543715 -0.02591559]
[ 0.10033299 -0.08619218  0.1202239  -0.05128912 -0.06375138 -0.00427524]
[ 0.03445666 -0.06779154  0.27298731 -0.08609951 -0.16282706 -0.00489593]
[-0.07383654 -0.01195606  0.16254227 -0.13375862 -0.0377476  -0.00423508]
[-0.0231036  -0.0657131   0.15313914 -0.00722747 -0.05956161 -0.10760505]
[-0.09249607  0.03174558 -0.01314323  0.03706174 -0.00105128  0.05355925]
[-0.03986342  0.06168697  0.00446461 -0.05994426  0.06596573 -0.08033886]
[-0.03826945  0.0636827  -0.10530403 -0.0777698   0.06366058 -0.06671841]
[-0.06708878 -0.06166234 -0.08446853 -0.0150061   0.00780627  0.08133818]
[ 0.01102576 -0.13599491 -0.14335045 -0.04827812 -0.16416861  0.03575964]
[ 0.06619923 -0.10462118 -0.26915842  0.02450245 -0.10835878  0.10514276]
[ 0.0021002  -0.16263688 -0.24048801 -0.02205619 -0.06751831  0.09592041]
[ 0.00536634 -0.26280889 -0.12552018 -0.01367064 -0.0165518   0.07756668]
[ 0.02970836 -0.31957012  0.01767132 -0.01474817 -0.04050566  0.08154885]
[-0.03775203 -0.28482664  0.08850495 -0.01392454 -0.06389762  0.00110107]
[-0.03851161 -0.13068333  0.1652728   0.02195952 -0.12534632 -0.10054604]
[ 0.00680577 -0.04787327  0.23885904 -0.06780925 -0.18515337 -0.07104951]
[ 0.01078506 -0.07009429  0.27721119 -0.23007604 -0.13342988 -0.03568652]
[ 0.05710822 -0.10152088  0.20121263 -0.17602204 -0.08006873  0.03942207]
[ 0.04896367  0.03255917  0.00277566 -0.09015445 -0.01383071 -0.06306935]
[ 0.01856333 -0.06981277 -0.03557187  0.06317203  0.01170484  0.00398775]
[ 0.04452916  0.02327426 -0.04175215 -0.07225758 -0.00312735 -0.05283863]
[-0.02752301 -0.05193968 -0.12020758 -0.03426304  0.01592614  0.05960717]
[ 0.01898775 -0.09475602 -0.12126368  0.03430074 -0.0627725   0.13546701]
[ 0.02477092 -0.13140182 -0.28020066  0.05697908 -0.15344889  0.19157963]
[ 0.02834518 -0.20780852 -0.20462835 -0.02418548 -0.1033655   0.16686812]
[ 0.00476051 -0.20769684 -0.1960264   0.02498953 -0.02564202  0.12297866]
[-0.00698657 -0.33286703 -0.06469335 -0.01223334 -0.08666348  0.00036059]
[-0.05153409 -0.16107695  0.09374491  0.01663382 -0.11849792 -0.0691184 ]
[-0.01553523 -0.14496577  0.1890211  -0.00825957 -0.12998471 -0.00395585]
[-0.11061501 -0.05781425  0.19282366 -0.05846172 -0.09178285  0.06654283]
[-0.11999636 -0.0648353   0.26457283 -0.12934145 -0.13991989  0.04345871]
[-0.072929   -0.0859274   0.28763324 -0.07861894 -0.12769283  0.01009665]
[-0.08363324 -0.09835491 -0.01263322  0.02003981 -0.03579917 -0.04907224]
[-0.05945966  0.00626321 -0.02000454 -0.08176997 -0.00384751 -0.02703714]
[ 0.00397002 -0.08985408 -0.05228899 -0.07792848 -0.03442222  0.04235811]
[-0.08934813 -0.05830531 -0.0682767  -0.0340837  -0.06196444  0.03504762]
[-0.02040776 -0.1567311  -0.11139394  0.07742607 -0.06302745  0.01062384]
[ 0.00407612 -0.19477867 -0.16129771 -0.00727775 -0.06159785  0.09124935]
[-0.00273152 -0.17889765 -0.20202935 -0.05829527 -0.12092732  0.01358349]
[-0.07792991 -0.20474179 -0.1136841  -0.01350731 -0.17890917  0.10435469]
[-0.0959176  -0.25155103  0.08505786 -0.03177399 -0.20868199  0.06791337]
[-0.0535762  -0.09911904  0.15476315 -0.00861639 -0.17005506  0.03726623]
[-0.03901393 -0.12508149  0.15366983 -0.0353293  -0.1497004  -0.03293647]
[-0.02917344 -0.04492709  0.1659269  -0.09385356 -0.05793989  0.02202135]
[-0.12463149 -0.06288087 -0.01023155 -0.04929449 -0.06265295  0.13152976]
[-0.09739103 -0.15986274  0.0273802  -0.02766689 -0.05358065  0.01400551]
[ 0.06509562  0.03661432  0.10956087  0.0631554  -0.00193054 -0.07700004]
[ 0.07828797 -0.02839709 -0.03566383  0.0617847   0.05500074 -0.05357522]
[ 0.00155381 -0.08752324 -0.03440777 -0.08278681 -0.0417813  -0.05385634]
[-0.11355275  0.01627025 -0.10562904 -0.04737362  0.02254231 -0.05887202]
[-0.08869597 -0.12276015 -0.02429721 -0.04006339 -0.10073029 -0.12039934]
[-0.11902881 -0.12092241 -0.12818676 -0.13444972 -0.034303    0.04003304]
[-0.15382746 -0.19748047 -0.05054241 -0.09260286  0.03667532  0.13155818]
[-0.15655065 -0.03756873 -0.01096265 -0.11688684  0.0988858   0.18066074]
[-0.02454698 -0.02470686 -0.0195738  -0.17540242  0.14740714  0.05698927]
[-0.00910731  0.06401269  0.08636825 -0.15602237 -0.10670078  0.08032583]
[ 0.03057354  0.01037615  0.05883458 -0.10544749 -0.09708642  0.02665517]
[ 0.0160364   0.02297622 -0.00322852 -0.11141799  0.03081496 -0.00129274]
[-0.0108242  -0.10366198 -0.10367594  0.02793826 -0.00471919 -0.11185569]
[ 0.01422141 -0.04174378 -0.08128466 -0.01483975 -0.03983678  0.06317354]
[ 0.0850281  -0.06843029 -0.04398015  0.0351482  -0.06941963 -0.08422463]
[ 0.01873947  0.00027689 -0.04688187 -0.0714351  -0.05231759 -0.09274814]
[-0.03553899  0.04352053  0.00294575 -0.10908008  0.03817326 -0.05362111]
[-0.09674847  0.016066   -0.11570259 -0.09282006  0.10492578 -0.08499832]
[-0.11112169 -0.06386945 -0.1631919  -0.10875139 -0.03080079  0.03903079]
[ 0.02833034 -0.0077452  -0.12228207 -0.10674509  0.07670941  0.12223271]
[-0.0916959  -0.06792414 -0.05634589 -0.04536713  0.10542119  0.14022028]
[-0.02644142 -0.00931065 -0.07974001 -0.10995541  0.12833011  0.13434522]
[-0.02514495  0.0926456  -0.00437959 -0.14311337  0.02512782  0.1194762 ]
[ 0.0681076   0.1010424   0.01119019 -0.17947993 -0.11528324  0.06080092]
[-0.04338833 -0.02817112 -0.02119033 -0.1610366  -0.04019026 -0.05417196]
[ 0.05710498 -0.04172201 -0.11535798 -0.04012074 -0.01912552 -0.11984663]
[ 0.03319872  0.04737779 -0.05182053  0.0493736   0.02535413 -0.08213655]
[ 0.07143797 -0.07424194 -0.11006083  0.17143695  0.00672465 -0.01021907]
[ 0.06827758 -0.11516232  0.02608737 -0.0174046   0.06255124 -0.0352522 ]
[-0.08225068 -0.08000762 -0.02583989  0.00247348 -0.05551549 -0.05170408]
[-0.07069282  0.0278046  -0.05839335 -0.02495147  0.06740139 -0.02187633]
[ 0.03530741  0.02529721 -0.06182365 -0.06303445  0.03273848 -0.02058038]
[ 0.0017879   0.06004947 -0.10666186 -0.11335167  0.13916269  0.01296902]
[-0.0183723   0.0281688  -0.08105484 -0.12007981  0.09370078  0.11570531]
[-0.04965627 -0.10333076 -0.12673044 -0.12968935  0.16569     0.15867199]
[ 0.00507247 -0.02255959 -0.11367395 -0.1487042   0.1612846   0.11979611]
[-0.01020888 -0.03414835 -0.02667231 -0.04983359  0.05572715  0.15845546]
[ 0.04985512  0.01665257  0.00593995  0.03608725  0.02446262  0.05156209]
[ 0.06149171  0.01184765  0.08091275  0.05818303  0.0137616  -0.00290759]
[ 0.14953355  0.00570431 -0.04298756  0.06043263  0.04575815  0.01990852]
[ 0.09094091  0.07967599 -0.08086922  0.06344868  0.0007657  -0.10906007]
[ 0.10571557 -0.10161486  0.01635186  0.08970407 -0.01914011  0.03704171]
[ 0.01140447 -0.06141699 -0.0941379   0.12730435 -0.00061417 -0.03990627]
[ 0.01278389  0.08124174  0.04782528 -0.02882492  0.02356993 -0.02003935]
[-0.05531272 -0.01404734 -0.0672181   0.02068984 -0.10229887  0.08924792]
[-0.08387515 -0.03337299 -0.03288804 -0.03275328  0.04012497  0.07078313]
[ 0.00519021 -0.01775087  0.06147304 -0.15672469  0.04540944  0.09411511]
[-0.02046905  0.02730994  0.03826966 -0.02366048  0.01423232  0.11871999]
[ 0.05184675 -0.01917548  0.08891658 -0.03224409  0.03593518  0.11975923]
[ 0.06120176 -0.01880449  0.02359716  0.07206985 -0.00131545  0.06068417]
[ 0.09027547 -0.04351792 -0.01401981  0.04769695 -0.00256773  0.11649022]
[ 0.15518074 -0.01750666  0.11321207  0.13937032 -0.0515035   0.08065487]
[ 0.18501769  0.04686436  0.00507253  0.1170994  -0.05752806  0.09896288]
[ 0.08420646  0.09393198 -0.03268924  0.07835112 -0.05668102  0.01261963]
[ 0.03952365  0.05621026 -0.07236256  0.1326423  -0.02007985  0.05070178]
[ 0.123285   -0.07879327 -0.05982558  0.08433732 -0.10705616  0.08951777]
[ 0.10534996 -0.05442069  0.00017571  0.08102849  0.04565549  0.05316552]
[-0.00620033  0.07193471  0.00076961 -0.02315698 -0.0185365  -0.05841906]
[-0.05069094 -0.11821465 -0.00125466  0.04367217 -0.05462314  0.04326632]
[ 0.01268302 -0.07945397 -0.00324095  0.06123961  0.02385005  0.07730025]
[-0.02685058 -0.1172688   0.03461894  0.00072285 -0.11599319  0.06476632]
[ 0.00083313 -0.03479994  0.02007044  0.00522799 -0.08783615  0.07972487]
[ 0.0420686  -0.0010478   0.0668098   0.06833237 -0.12498777 -0.00877745]
[ 0.07712449  0.01251328  0.11348455  0.01434828 -0.15808606  0.0038272 ]
[ 0.10071049  0.00658904  0.08736203  0.09049191 -0.13293728  0.04511724]
[ 0.13311425  0.0415297   0.0723301   0.01762066 -0.09979905  0.03174524]
[ 0.08429018  0.00885012  0.00347015  0.12635323 -0.15657134  0.03469982]
[ 0.07260709 -0.08993061 -0.0442907   0.08439214 -0.05915958  0.08456743]
[ 0.07874142 -0.0625483  -0.04291384  0.11140405 -0.00856276  0.01065512]
[ 0.02179695  0.01984794  0.00876024  0.07070305  0.05657845  0.08993948]
[-0.01514983 -0.04736078 -0.04795675  0.10143257 -0.02165011  0.02340495]
[ 0.01071607  0.02757672  0.08298736  0.02255342  0.04744905 -0.00750488]
[-0.0707864  -0.03381922  0.02509837 -0.00783817  0.04263604  0.02061119]
[ 0.01819555  0.03394596 -0.12059781  0.0548747  -0.12715064  0.10148214]
[-0.06758839  0.05065437  0.01219471 -0.03061477 -0.12620087  0.0407034 ]
[ 0.0175292  -0.03577642  0.0782361   0.05402664 -0.04284254  0.06397802]
[-0.02616531  0.02603676  0.04317766  0.02325725 -0.03850427  0.07852466]
[-0.09985261 -0.01631004  0.08297995  0.05121012 -0.0446844   0.09361339]
[-0.00549845  0.06604563  0.02893667  0.06751378 -0.07898924  0.04666054]
[-0.01584407 -0.00466436  0.04308831  0.00987297 -0.05895488  0.0213085 ]
[ 0.01268869  0.09282517 -0.01180805  0.02898007  0.00274768 -0.03356816]
[ 0.08522926  0.00558551  0.00269406  0.15927036  0.05325059  0.04334083]
[ 0.02844389  0.02312949  0.00717013  0.03513616  0.10082472  0.05158597]
[-0.0383175  -0.03882479  0.02104689  0.10692768 -0.02692532  0.08571929]
[-0.00169106 -0.01164597 -0.02466804  0.0010061   0.00296514  0.02455274]
[-0.05312501  0.13725394 -0.03219533 -0.07743369 -0.01501894 -0.07004061]
[ 0.00394932  0.00014657 -0.03587504 -0.05443512  0.02455018  0.01490381]
[-0.01274601  0.06620272 -0.08218541  0.01068476 -0.08700219 -0.04315731]
[-0.06092811 -0.01144989  0.00890884 -0.02803205  0.0498086   0.02028588]
[-0.16554876  0.0172733  -0.03309121 -0.14097247  0.03206582  0.03708096]
[-0.04964855 -0.098513   -0.00879575  0.00555891 -0.02935817  0.0359678 ]
[ -1.62282497e-01  -6.32455200e-02   2.70864181e-02  -4.74629402e-02
  -1.51128042e-04   1.69476662e-02]
[-0.115395   -0.01745347  0.00328193 -0.04757453 -0.06887235  0.00070334]
[-0.13671629 -0.03201519 -0.04769759 -0.02659348  0.00418894 -0.08455219]
[-0.05251783  0.0146437  -0.01783817 -0.05458445  0.02151977 -0.04739654]
[-0.04096268  0.04829247  0.05892403 -0.10106108  0.06603403 -0.13242482]
[ 0.02057433  0.10243478 -0.07613735 -0.03928078  0.11319853 -0.11927715]
[ 0.01694561  0.01220158 -0.04048541 -0.07050951  0.06070742 -0.08530086]
[-0.04812697  0.09282231  0.02757862 -0.07192584 -0.08240023 -0.0952412 ]
[ 0.00868583 -0.07363521 -0.00939122  0.02918406 -0.02347927 -0.05773183]
[ 0.01578045 -0.06050094 -0.00792629  0.03813442 -0.0013362   0.09131863]
[ 0.04388127  0.07349575 -0.08145186  0.0103924   0.05607009  0.09239916]
[ 0.007458    0.0523771   0.08464822  0.10066894  0.0500338  -0.04057771]
[ 0.14105898 -0.07838742  0.02673564  0.03537046 -0.10965269  0.03686893]
[ 0.11135045 -0.03564361  0.04908568 -0.06302083 -0.06660885  0.04005744]
[ 0.09912531  0.01189669  0.1728719  -0.00437425 -0.13814981  0.02629501]
[ 0.00303433  0.0733685   0.10731941  0.05027942 -0.12161727 -0.01283393]
[ 0.08381195  0.06601881  0.1326824  -0.02952544 -0.16141739 -0.08962262]
[ 0.15054484  0.06088326  0.144706   -0.09976231 -0.0704459  -0.13021755]
[ 0.19715273  0.09136729  0.0869929  -0.05949446 -0.08172462 -0.0014939 ]
[ 0.03494777 -0.00184069 -0.01988531 -0.02307733  0.02225275 -0.077252  ]
[ 0.07786467  0.08087738 -0.00418251 -0.02980113 -0.03386614  0.06723001]
[-0.02405385 -0.05793503  0.02646127 -0.04104003 -0.03029264  0.03697158]
[-0.07036608  0.03134774 -0.00895773  0.03061232 -0.01972208  0.02229215]
[ 0.04527861 -0.08066788 -0.0117725  -0.01483196  0.06140491 -0.03817457]
[  7.11153261e-05  -3.46297584e-03   5.15650548e-02   7.57910833e-02
   7.06609339e-02  -3.94807868e-02]
[ 0.03684879 -0.06726181 -0.04079421 -0.03944578  0.00373419  0.09334593]
[ 0.17493108  0.07052804  0.07120511  0.07965734 -0.04350534  0.10304304]
[ 0.06224341  0.04079043 -0.05977347  0.08937605 -0.06634769  0.07136071]
[ 0.05120323  0.0407391  -0.00655489  0.0059896  -0.11819253  0.06028308]
[ 0.07280543  0.14469443  0.01596971  0.05098981 -0.10325103  0.02726029]
[ 0.02148949  0.07634337  0.08298649  0.02816394 -0.16565219  0.00579325]
[ 0.09364083  0.17130029  0.08264614 -0.08314741  0.02819396 -0.03816948]
[-0.04761498  0.1381993  -0.00895002  0.00670862 -0.06377036 -0.06546354]
[-0.00285078  0.10806682  0.06617188  0.03227353  0.07908218 -0.03878549]
[-0.06685052  0.10331605  0.07683069 -0.08403046  0.00679537 -0.07742316]
[-0.05896102  0.0397962  -0.06053869 -0.09071793 -0.01080061 -0.02104015]
[ 0.02525476  0.03887287  0.04143493 -0.06569029  0.06636218  0.03812591]
[  2.06837617e-02   6.72075376e-02   3.59464996e-02  -3.60728242e-02
  -4.62983735e-05   7.01399744e-02]
[-0.02503332 -0.01305592  0.03260555 -0.10701126 -0.05780062 -0.05560978]
[ 0.03673353  0.06433211 -0.03884308 -0.09509432 -0.01786393  0.0866743 ]
[-0.0349901  -0.01327522  0.03351682 -0.02826925  0.09194507  0.03063979]
[-0.02124533  0.09863061  0.07088874 -0.02730313  0.00368351 -0.0280711 ]
[-0.01791681  0.08193252 -0.02200278  0.06464513 -0.03793546 -0.03914771]
[-0.00557996  0.05548502  0.01981941  0.03900257  0.0079043  -0.00646811]
[-0.05356552  0.03321902  0.0408935  -0.01546538  0.06215448  0.01797143]
[-0.04378288  0.04706077  0.00504218  0.01345223  0.12577598 -0.05950088]
[-0.03926268  0.06172765 -0.03670833 -0.13051738  0.10679665 -0.08575737]
[-0.04461345 -0.01059962  0.01037808  0.00869513 -0.0329758   0.0003487 ]
[-0.07073186  0.0642867   0.09871526 -0.13844727  0.00281998 -0.06014134]
[-0.11268971 -0.05164513 -0.02685455  0.01914891  0.03317404  0.00342554]
[-0.05245863 -0.00662044  0.06269792 -0.00480915 -0.02108362 -0.04612594]
[-0.0426935   0.03360894 -0.08082968  0.02003521 -0.10198682 -0.0038786 ]
[-0.13461038 -0.04741041 -0.02329683 -0.0733229   0.02065818  0.02232393]
[ 0.02536592  0.06445897  0.09264851 -0.03256425 -0.00106173 -0.05997815]
[-0.00169559  0.0505796   0.11097047 -0.02738437 -0.03786851 -0.00376753]
[-0.02459231  0.01302796  0.06557281 -0.0465814   0.0102598  -0.08843698]
[-0.06356408  0.06722844 -0.0156083   0.07537611 -0.02675233 -0.05773979]
[-0.02419147  0.09584389  0.00290073 -0.00263491  0.06692119 -0.11751697]
[-0.12388635  0.1875605   0.00673958 -0.09528975  0.10918543 -0.10572432]
[-0.14378226  0.19119024 -0.09090035 -0.02600763  0.01553135 -0.09524081]
[-0.11560538  0.11408659 -0.03379119 -0.13365844  0.08816172  0.00855992]
[-0.03570884  0.07146537  0.09035397 -0.01855037 -0.0882856  -0.01131288]
[-0.14111783 -0.00155801  0.05681314 -0.07193272 -0.0935494   0.00238445]
[-0.0119574  -0.00951479  0.10340835  0.00411058 -0.08861776 -0.08656118]
[ 0.00247632  0.03121916 -0.04375951 -0.01800583  0.02774636 -0.07324485]
[-0.10816453 -0.05228052 -0.00235488 -0.00116339 -0.05999867 -0.05897006]
[-0.13962148 -0.06826982  0.03143064  0.07589412  0.02059955 -0.0059877 ]
[-0.15271562  0.03915736  0.09861739  0.01717801  0.05642013 -0.1215002 ]
[ 0.01483598 -0.03383239  0.05777184 -0.04673911  0.04769934 -0.05972407]
[-0.01892407  0.01203114  0.14602128 -0.04857552  0.0872322  -0.11003339]
[ 0.02478677  0.10959013 -0.02709169 -0.07910486 -0.05322782 -0.05040202]
[-0.00420785  0.20471305 -0.13400431 -0.14222257 -0.05805078 -0.04049979]
[ 0.01195892  0.16479237 -0.09476427 -0.14789893  0.12026124 -0.07152376]
[-0.05736908  0.14013447 -0.10453255  0.02132728  0.04719786  0.00875795]
[ 0.03704863  0.05702985 -0.01321537 -0.05856377  0.01040494 -0.08326465]
[-0.02277937  0.04164791  0.02292073 -0.03886247 -0.17320937 -0.1401872 ]
[-0.08270934 -0.12214023  0.10147423 -0.0607357  -0.1646369  -0.11543625]
[-0.06008592 -0.06607827  0.05377945  0.03818405 -0.02526018  0.00915145]
[ 0.03045575 -0.01175684 -0.00782082  0.05138264  0.06084279 -0.0491585 ]
[-0.01604651 -0.10555232 -0.00077297 -0.04915942  0.03050582 -0.07226709]
[-0.05962832  0.00692468  0.05250353 -0.02712109  0.0148102  -0.12500876]
[-0.07736629 -0.00517305  0.07720336 -0.0323173   0.04567121 -0.2028109 ]
[-0.03246208  0.11722013  0.10565023 -0.03869558  0.10279157 -0.15993118]
[ 0.00758327  0.00709511  0.12926003  0.01783216  0.09946401  0.04532067]
[-0.08571008  0.21824345  0.04743287 -0.16147228 -0.08210313  0.00210618]
[-0.05623278  0.136757   -0.17568833  0.01720112  0.07113806 -0.01723241]
[ 0.09917314  0.13232313 -0.15807359 -0.01739717  0.15661465  0.06485534]
[ 0.0895417   0.10394405 -0.08405664 -0.01909348  0.16195922  0.06067793]
[ 0.03347984  0.13565351 -0.04906791  0.09045028 -0.09255425 -0.09521662]
[-0.02535507  0.01811334  0.04122031 -0.05222223 -0.11346504 -0.08448655]
[ 0.08252922 -0.0171547   0.05983515 -0.03255646 -0.07990995  0.04619185]
[-0.02144335 -0.11021929  0.07411256 -0.02150355  0.03008626  0.0606385 ]
[-0.03113645 -0.06520134 -0.01262843 -0.09719174  0.04989416 -0.03125202]
[-0.01286738  0.0440799  -0.01057114  0.04288888  0.02561577  0.02192491]
[-0.10541437  0.16253804  0.05283555  0.08095179  0.08869817 -0.2384278 ]
[-0.07177641  0.10669826  0.07593872  0.03857593  0.07706802 -0.15171926]
[ 0.03326099  0.06991646  0.09953363  0.13087964  0.05805282 -0.05147438]
[ 0.06470899  0.03284945  0.04024666  0.05814034 -0.01894377  0.11848682]
[-0.07975208  0.22095856 -0.0693553  -0.0058637  -0.04096695  0.03681064]
[ 0.12286443  0.07278775 -0.18949731  0.01132686 -0.00127057 -0.09470025]
[ 0.16149054  0.10476782 -0.02370295  0.061659    0.10506367 -0.07709582]
[ 0.04160422  0.04843231  0.02950246  0.09206636  0.07494394 -0.05246441]
[ 0.06890699  0.02740332  0.1120816   0.14414792  0.01709167 -0.02817258]
[ -1.22017157e-03  -4.29678448e-02   4.03793305e-02  -6.20759092e-05
  -1.02405429e-01   7.82645047e-02]
[ 0.08813249  0.05875413 -0.06275485 -0.01665191 -0.09026182  0.1230628 ]
[-0.00866451 -0.11143173  0.07451127  0.02343719  0.08487287 -0.06939875]
[-0.0816953  -0.06712843  0.05073791 -0.07459947 -0.08999239  0.05420228]
[-0.08104828  0.04448393 -0.13861503  0.06837617  0.05739574  0.07919953]
[ 0.0740435  -0.03127446  0.08193383  0.21137555  0.03036696 -0.17697223]
[ 0.0803248   0.06439114  0.09627878  0.11265463 -0.01150965 -0.03712033]
[ 0.13864273  0.00149806  0.08744781  0.15751615 -0.06015074 -0.09733056]
[ 0.16736506 -0.02800962  0.00735887  0.08881705 -0.10076854 -0.01863628]
[ 0.03049193  0.15352117 -0.18693489  0.0038395  -0.06459476 -0.03637109]
[ 0.11579555  0.05138267 -0.07716136  0.03084102  0.04589258 -0.17592815]
[ 0.07146138  0.09533932 -0.0415174   0.02573987  0.00236387 -0.09477337]
[ 0.03957222  0.08010072  0.07830735  0.177075    0.08257282 -0.14774232]
[ 0.00947172 -0.01120715  0.10463513  0.12829962 -0.00361415 -0.13208655]
[ 0.0314998   0.01102604  0.04878706  0.03021997 -0.13908663  0.08168938]
[ 0.03789996 -0.02889239 -0.124989    0.0699018   0.03760351  0.07213762]
[-0.05218137 -0.05990985 -0.08262382 -0.00208413  0.03829809  0.01998829]
[ 0.04250551  0.01201495 -0.07102676 -0.06927893 -0.10118739  0.04614893]
[ 0.04119382  0.00270366 -0.085953    0.06613503  0.03516959  0.01033736]
[ 0.00363653 -0.10045149  0.04477343  0.06661682  0.08978963 -0.00997508]
[ 0.03709351  0.01035779 -0.0366271   0.12419639  0.00176434 -0.04486779]
[ 0.11300822 -0.03324608  0.01922745  0.1302506  -0.06727201 -0.14610684]
[ 0.06582456  0.0971615  -0.04403538 -0.00523411 -0.10126471 -0.12600471]
[-0.02608659  0.20998716  0.02396345 -0.09821492 -0.05285308 -0.15081081]
[-0.04678554  0.00374293  0.03348522  0.04223538  0.03920906 -0.11140488]
[-0.04578578  0.01421352  0.02030811  0.12880079  0.05445752 -0.06984401]
[-0.06570981 -0.01097396  0.11120331  0.11080444 -0.05406539 -0.01962513]
[ 0.01384345 -0.0665572   0.07556955  0.17363244 -0.00300549  0.03053249]
[ 0.08931188  0.00922944 -0.01748631  0.10539693 -0.00715618 -0.03147582]
[ 0.11759599 -0.04955491 -0.02963883  0.19767468 -0.01199345 -0.00187531]
[ 0.05822079 -0.08067738 -0.07900923  0.08950663  0.04522785  0.03233697]
[ 0.07069483 -0.06184684 -0.0047054  -0.00423646 -0.01786029  0.12316862]
[ 0.06238931 -0.07805494 -0.11985677  0.01390715  0.06762656  0.09514392]
[ 0.01011832 -0.01489019  0.06406895  0.05903246  0.01711508  0.02316834]
[-0.02118565  0.00907949 -0.04590829  0.03365352 -0.0159999   0.00861024]
[-0.03816418 -0.02947247 -0.03086737  0.03348143 -0.09378061 -0.04013267]
[-0.04711824  0.11009446 -0.0155361   0.00928617 -0.0545875  -0.03488176]
[-0.12602189  0.0826832  -0.02853719 -0.03063571  0.04697843 -0.14706901]
[-0.09299614  0.01335386  0.06068056  0.02634617  0.04158999 -0.06808686]
[-0.00761614  0.01508894  0.11290682  0.16356696 -0.01409593  0.00395761]
[ 0.0108489   0.02376816  0.00995426  0.10009491 -0.05340438 -0.01429569]
[ 0.12214745 -0.04729085  0.084211    0.11711102 -0.02935542  0.06999372]
[ 0.19851626 -0.11945837 -0.06828947  0.106359   -0.08585588  0.02990848]
[ 0.14068648 -0.04011495 -0.03375635  0.13205157  0.02800303  0.01533635]
[-0.05276859  0.02897637  0.03454326  0.04604483  0.00187662 -0.00670987]
[-0.02902053 -0.07336622 -0.08722677 -0.05965117 -0.00060775  0.13599767]
[ 0.06416275  0.00588649 -0.06385794  0.0685828  -0.00940981  0.18654156]
[-0.01464359 -0.046373   -0.05338492  0.00491008 -0.12443364  0.14634976]
[-0.07707469 -0.00507722 -0.02830353  0.02577323 -0.02829807  0.03823164]
[-0.03543742 -0.02726787 -0.00486505 -0.05448485 -0.02092282  0.06326882]
[-0.04709504  0.06469246 -0.04067133 -0.02267698  0.02654875 -0.0106696 ]
[-0.2152487   0.00908361 -0.02452584 -0.06465035  0.00860341 -0.1018943 ]
[-0.11344433 -0.08044083  0.02300281  0.03977764  0.00389124  0.02365176]
[-0.05592828  0.02459472  0.14867389  0.02381409 -0.06663715  0.04269095]
[-0.07097264  0.00473322  0.1675881  -0.05065527 -0.01545917 -0.0096504 ]
[ 0.12493949 -0.06691413  0.15490775  0.11407999  0.02734271 -0.00416293]
[ 0.08452176 -0.08406963 -0.00930184  0.03299221  0.04238266 -0.02013356]
[ 0.09925311 -0.00863221 -0.05599599  0.01276218  0.05049763 -0.05695457]
[ 0.00667909 -0.05365197 -0.06562685  0.0244527  -0.05889985 -0.04415954]
[ 0.0329205  -0.08211347  0.01198793 -0.07191978 -0.0827076   0.05379518]
[ 0.00200575 -0.06781783 -0.08733285 -0.02689919 -0.01199449  0.020925  ]
[-0.01040835 -0.05528751  0.02034384 -0.07613086 -0.07972809  0.00173662]
[ 0.00341991  0.07746658  0.05603476 -0.01422623  0.02742919  0.01990816]
[-0.01438737 -0.00130055 -0.06574626 -0.05746532  0.03647847  0.03120956]
[-0.10309023  0.10967825 -0.13467965 -0.08549255  0.00914921 -0.07703841]
[-0.15483125  0.12251575 -0.07590061 -0.21860482  0.00381543 -0.05074539]
[-0.0743035   0.03372417  0.02222509 -0.14117305  0.05118794  0.02828945]
[-0.12503408  0.06488983  0.0821367  -0.06117762  0.06601561  0.08570681]
[-0.01060062  0.11384926 -0.0147426  -0.0505582   0.02633387 -0.00558258]
[ 0.07654557  0.06283502 -0.06481797  0.07017566  0.02536843 -0.04894557]
[-0.04013247 -0.0032134   0.05376786  0.05360552  0.10632733 -0.01128016]
[ 0.06133539 -0.00844185 -0.01097924  0.08636432 -0.06150844 -0.00289032]
[ 0.00354583 -0.0468746   0.03409249 -0.06528781  0.0672846   0.05686546]
[ 0.01484555 -0.0596979  -0.07553638 -0.08179205  0.00899537  0.08500385]
[-0.0168301  -0.09107541 -0.04227395 -0.05289194  0.03351655  0.00341819]
[ 0.01895291  0.01059362 -0.04357636 -0.12280323  0.05655042  0.0503901 ]
[ 0.02925068  0.0246639  -0.03939033 -0.13262874 -0.03051185  0.06050423]
[-0.13566953 -0.05447844 -0.05716915 -0.08586391 -0.08156533 -0.05835765]
[-0.11134394  0.04082233 -0.14169736 -0.14696209  0.03266655 -0.04954243]
[-0.01823708 -0.06331673 -0.19878189 -0.07353635  0.01443659 -0.12305903]
[-0.02417089 -0.02662311 -0.18659337 -0.04212468  0.05336694 -0.04665984]
[-0.05444432 -0.03577246 -0.02864469 -0.07580349 -0.03855806 -0.07085595]
[-0.03381793  0.04430719  0.03829062 -0.03760964  0.08995833  0.02263577]
[-0.09220112 -0.0820158  -0.01432121 -0.10698257 -0.05633106 -0.07499097]
[-0.09193876  0.07219029 -0.02796033 -0.09306016 -0.04706778  0.08082072]
[ 0.00613952  0.07353443 -0.00971931 -0.03272319 -0.04423057 -0.02097641]
[-0.01980117  0.04565297 -0.05687872  0.07002237  0.02292787  0.008662  ]
[-0.02989829 -0.09206578  0.04383621 -0.08687094  0.00072466  0.06116943]
[ 0.00130355  0.02360898  0.01792872  0.06906579 -0.03189331  0.0023104 ]
[ 0.00877004  0.06186328  0.04940996  0.00032816  0.06847274 -0.01683448]
[ 0.0147083   0.00648246 -0.08129834 -0.05040159 -0.00252784 -0.0667576 ]
[-0.02565803 -0.03855799 -0.0348406  -0.043608   -0.08370964  0.01862595]
[-0.02119862 -0.07985541 -0.06396506 -0.02863235  0.0283995  -0.08869469]
[-0.01258885 -0.06872279 -0.1458102  -0.01476608 -0.00075243 -0.07105014]
[-0.0043615   0.05176252 -0.12825418 -0.03638194  0.10370554 -0.07407018]
[ 0.04382138  0.02257281 -0.01173622  0.05862715  0.00530637  0.01060423]
[-0.1002547  -0.08093318 -0.05270305 -0.02048594  0.00979005 -0.07242818]
[-0.0595822  -0.01743278 -0.05826977 -0.01388656  0.09706239  0.09720313]
[ 0.05674994  0.02720595  0.04958033 -0.03073778  0.0551425   0.05565672]
[ 0.00991482 -0.05952609 -0.03510508  0.04767799 -0.02754156  0.02188229]
[-0.08847319 -0.04242629 -0.08936398 -0.07530562 -0.02379464  0.00483035]
[-0.04999236  0.21160166  0.02995769 -0.01892806 -0.04322299 -0.1178023 ]
layer 8 Activation
relu
layer 9 Dropout
layer 10 Dense
6 10
[-0.23712127 -0.26535106  0.55379337 -0.21042977  0.14498106 -0.41427013
  0.58218724 -0.61691654 -0.1937134  -0.33220467]
[-0.52883697  0.65655679 -0.4555555  -0.71347702  0.57462978 -0.51314336
  0.51163638 -0.64294863 -0.22691187 -0.15914601]
[ 0.31732208 -0.78961897 -0.53515035 -0.37149858 -0.45318463  0.25173834
  0.26160395 -0.64765841  0.04992565 -0.55861515]
[ 0.4968183  -0.55872017  0.37390244 -0.38704506 -0.48851001 -0.52583295
  0.27547377 -0.63670641 -0.41685054 -0.63086182]
[-0.16106263 -0.8479237  -0.03721958 -0.19844571  0.74111038 -0.14413375
 -0.30424064 -0.08952776 -0.10911787  0.69624203]
[-0.44495595 -0.60968655  0.24545348  0.37208247 -0.44952044  0.12138809
 -0.70531154 -0.54398167 -0.01393053 -0.58447933]
[-0.64575315  0.31552273 -0.46555525  0.07492843 -0.44096479  0.09922145
 -0.82324201  0.90543765  0.60604453  0.24304107]
layer 11 Activation
softmax
