layers 12
layer 0 Convolution2D
4 1 3 3
[ 0.17513257 -0.31615263  0.10151105]
[-0.31378382  0.17237018  0.60715121]
[-0.27764088  0.72436857  0.54998356]
[-0.04075129 -0.40023714 -0.60648835]
[-0.22207001 -0.54389572  0.09957761]
[ 0.47080818  0.74199277  0.22040594]
[ 0.30785787 -0.20073237  0.68607533]
[ 0.09806436  0.02702679  0.50748181]
[-0.3694976   0.24254978 -0.41422802]
[-0.30982327 -0.53580999  0.9328267 ]
[ 0.23172343 -0.49425486 -0.13614221]
[-0.75384158 -0.18921684  0.70494699]
[-0.05096021 -0.01944497  0.00198012  0.01933019]
layer 1 Activation
relu
layer 2 Convolution2D
4 4 3 3
[-0.23558214 -0.00658152  0.41109145]
[ 0.31504962  0.24902734  0.14364025]
[-0.12530811 -0.27800179 -0.22288552]
[ 0.15068702 -0.08263061 -0.29108158]
[ 0.3923685   0.44726062  0.45321205]
[ 0.23342064 -0.07045141  0.15491182]
[-0.10346401 -0.22599424  0.14965485]
[ 0.14128295  0.26569939  0.39047745]
[ 0.25701514 -0.29110104 -0.14781655]
[-0.06885511 -0.10711747 -0.23325607]
[-0.43960708 -0.42107025 -0.27646232]
[-0.07344662  0.05386259 -0.35792089]
[-0.1128797   0.15815222 -0.60231459]
[-0.03179464  0.10540584 -0.42256412]
[ 0.30353135  0.19585687  0.09510097]
[ 0.85201931  0.36826953  0.27910322]
[ 0.40934718  0.63449252  0.51370198]
[ 0.17079456 -0.04245974  0.56669503]
[-0.28724805 -0.38915583 -0.67358977]
[ 0.13147455  0.06935916  0.10013869]
[-0.18314618 -0.12839772  0.00926278]
[-0.51353699 -0.27988791 -0.21845724]
[-0.23225319 -0.38283664 -0.45496154]
[-0.45180908 -0.22553448 -0.03503709]
[ 0.02350172 -0.07790203 -0.13666837]
[ 0.29155278  0.164792   -0.17412414]
[ 0.46042874  0.50275397 -0.34345514]
[ -2.01895297e-01   1.50096224e-04  -6.55750781e-02]
[-0.5302695  -0.18728951 -0.28049457]
[-0.06494005 -0.53707802 -0.13067457]
[ 0.16787168 -0.30677021  0.13854209]
[ 0.2472451   0.04019142 -0.35323617]
[-0.09482526  0.14107929 -0.40232903]
[ 0.16177523 -0.13333976  0.11991989]
[-0.01444825  0.06332892 -0.32451624]
[ 0.40219572  0.44843891  0.17499208]
[-0.04693505 -0.28983176 -0.0477115 ]
[ 0.14594716  0.02450588 -0.20058681]
[-0.25594494 -0.37912855 -0.15004218]
[-0.478569    0.25785407  0.33847424]
[-0.55667704  0.27598083  0.23313235]
[ 0.07970573 -0.00314193 -0.16968897]
[ 0.26722288  0.08473985  0.02547515]
[ 0.14098737  0.37076038  0.12787181]
[ 0.14618689  0.31289235 -0.04055501]
[ 0.42456865  0.012905    0.00171595]
[-0.09375867  0.27370998  0.33556944]
[ 0.27202046  0.37941834  0.08287729]
[-0.14272054 -0.10337241 -0.1898977  -0.05179806]
layer 3 Activation
relu
layer 4 MaxPooling2D
2 2
layer 5 Dropout
layer 6 Flatten
layer 7 Dense
576 6
[-0.0435742   0.07946382 -0.0934797   0.00027786  0.02433158  0.0189774 ]
[-0.02029489  0.04084266  0.02206901 -0.03619331 -0.03434521 -0.04664446]
[-0.06451804 -0.06415075  0.02129474 -0.01022462 -0.04103499  0.00754245]
[-0.07530652 -0.05083699  0.02000908 -0.03065424  0.10511652  0.08295635]
[ 0.03648228  0.05638918  0.11061327  0.05133519  0.14561799 -0.0102017 ]
[-0.06797594  0.03370395  0.1345235   0.15879022  0.09555539  0.15693194]
[-0.00196582 -0.05165014 -0.04567456  0.08382712  0.05842248  0.2156145 ]
[ 0.12308852  0.11591811  0.16603015  0.10327835  0.08421915  0.21369477]
[ 0.23104948  0.03585406  0.10866863  0.18423787 -0.02321303  0.2664997 ]
[ 0.32884076 -0.01526906  0.26043707  0.24293178  0.00970265  0.27277073]
[ 0.11111189 -0.09559803  0.06666191  0.02973347 -0.10242131  0.0546765 ]
[ 0.04832799 -0.01047159 -0.06360836  0.04138206 -0.00968613 -0.07344915]
[ 0.03175639 -0.03080957  0.0060913  -0.05010241 -0.04838213 -0.0686252 ]
[ 0.00750753  0.02244872 -0.06728601 -0.02532286 -0.05279506  0.03860977]
[ 0.04562883  0.03410111  0.05916068 -0.06411082  0.04258325  0.17331989]
[-0.04603365  0.06671743 -0.11101469 -0.05230358  0.08173974  0.12758522]
[-0.05199647  0.11788213 -0.09562809  0.03608482  0.09897324  0.03519264]
[-0.18601429  0.01457607 -0.04052798  0.05935178  0.04428185  0.03012626]
[-0.10927401 -0.00115185  0.01754586  0.06906753  0.01937927  0.05922568]
[-0.01002999  0.07816728  0.08387581  0.04512747  0.0208265   0.06440718]
[-0.02588996  0.00811576  0.1001175   0.10037313 -0.13015801  0.08312706]
[ 0.13543433  0.04057272  0.17390305 -0.05172739 -0.12138422  0.0342142 ]
[ 0.10530194  0.0265255   0.15589884  0.01906719 -0.07660162  0.03526671]
[-0.00026217 -0.06362953  0.05051417 -0.11762945 -0.04907101  0.0125822 ]
[ 0.10629726  0.0422887   0.09667639 -0.07426351 -0.02825191  0.00169539]
[ 0.0222899  -0.04290953 -0.04432909  0.00440235 -0.00787785  0.14384425]
[ 0.02515603  0.01593545 -0.10378513 -0.06444575  0.13655972  0.01802174]
[-0.0297758   0.0243142  -0.12586768  0.05712717 -0.02452322  0.12556949]
[-0.05122188 -0.04534617 -0.12315921 -0.01639958  0.03760054  0.04844318]
[-0.13709925  0.04025069 -0.06560908  0.0245011   0.10361645 -0.0344287 ]
[-0.03587762 -0.02031257 -0.17335567  0.0257674   0.13150287  0.00295159]
[-0.11087439  0.06668855 -0.12029206  0.07289502  0.13703884  0.02608515]
[-0.05203705  0.02130533 -0.05337876  0.00384922  0.05581236 -0.00928183]
[ 0.02550664 -0.07319167  0.02971853 -0.08179693 -0.10847058 -0.05724517]
[ 0.04090737 -0.04741164 -0.02786933 -0.08592638 -0.05928108  0.07002983]
[ 0.07242157 -0.1745349  -0.09130539  0.05933578 -0.06628311  0.06897492]
[-0.0816537  -0.05035532 -0.04224916 -0.10722391  0.07959839  0.06301773]
[ 0.02107828 -0.06034091  0.02645285 -0.05660518  0.02090254  0.14039832]
[-0.08046972  0.02603834 -0.12866582 -0.07934531  0.11213516  0.02511499]
[-0.01120404 -0.08809747 -0.10291544 -0.04587045  0.12677318  0.01278865]
[-0.05833241  0.0138634  -0.09431209  0.01950436  0.1447923  -0.04104712]
[-0.03496852  0.03937203 -0.06543528 -0.00075894  0.14419125 -0.00954248]
[-0.02554849  0.0873755  -0.08146146  0.01115772  0.1722903  -0.02310407]
[-0.14667931 -0.08510316 -0.05275868 -0.08155021  0.11087094  0.00571163]
[-0.05691693 -0.09759647  0.00087001 -0.13360244  0.07653864 -0.0287838 ]
[-0.07757599 -0.070112   -0.0341878  -0.12655543 -0.02341137 -0.00280919]
[-0.02456282 -0.08023947 -0.14254588  0.02051729 -0.07154576 -0.05305358]
[-0.10320806 -0.13104153 -0.03627703 -0.07723427 -0.08479134  0.10151833]
[ 0.04299607 -0.11276706  0.04981202 -0.00736349  0.1464615   0.10778105]
[-0.04696598  0.03296961 -0.11057656 -0.02994481  0.06946823 -0.09211055]
[-0.07671182 -0.03101621 -0.05154912 -0.10671571  0.08981026 -0.08460759]
[ 0.04184177 -0.0583968  -0.03983881 -0.03834047  0.08599723 -0.02015221]
[-0.02506984  0.0325103  -0.12511757 -0.01260391  0.09177887 -0.00664809]
[-0.01173124 -0.05981094 -0.03377578 -0.08766616  0.13927464 -0.0195083 ]
[-0.08980467 -0.04212466  0.02054497 -0.09645155  0.12376551  0.11801916]
[-0.14037971 -0.13873594  0.06242872 -0.06037401  0.06606573  0.02045714]
[ 0.05402394 -0.14121602 -0.07517242  0.09087745  0.02851106 -0.039207  ]
[ 0.02445371 -0.11522707 -0.00777555  0.10102262 -0.05307977 -0.02964761]
[-0.09870246 -0.09388843 -0.02160995  0.00247092 -0.08668504 -0.10678971]
[-0.07766332  0.08215811 -0.11009821 -0.01921103 -0.10790446 -0.0290328 ]
[ 0.06782886 -0.032052    0.07831313 -0.02928306 -0.00361288  0.04859868]
[ 0.05481353  0.0465944  -0.0948926  -0.08346412  0.08105489 -0.01030188]
[ 0.06569444  0.01483233 -0.00898033 -0.06109556  0.00241153 -0.14484322]
[ 0.00329904  0.02557993 -0.13769384 -0.04296255 -0.06810325 -0.2103751 ]
[-0.00470582  0.0519034   0.01619358  0.02354847 -0.05443937 -0.05718584]
[ 0.01735773 -0.00692112 -0.08041659 -0.05556699 -0.06625436  0.04454764]
[-0.02057398 -0.15141205  0.15314016  0.04225034  0.05404367  0.1046629 ]
[ 0.09538833 -0.15782167  0.05300508  0.15269202 -0.00841023 -0.00499274]
[ 0.14255418 -0.11721788 -0.10607988  0.17712387  0.04718103  0.00970333]
[ 0.09247237 -0.00837818  0.03025305  0.06300773  0.02492039 -0.09388325]
[-0.02219653 -0.00110598 -0.03472162  0.11870786 -0.06079683 -0.03610224]
[-0.06617851 -0.00796979 -0.01189735 -0.02845427 -0.15002148  0.07082652]
[ 0.03592812  0.08148044  0.04715274 -0.02766162 -0.04027435 -0.05216489]
[ 0.07692122 -0.11491676  0.05966983 -0.14909714 -0.07563822 -0.06665073]
[ 0.01353745  0.06044105 -0.09152889 -0.00924392 -0.00229393 -0.12366927]
[ 0.0676082   0.13210736  0.00461269  0.0093672   0.08389904 -0.1341086 ]
[ 0.03781283  0.02970586 -0.09373038  0.08950882  0.06373237 -0.06968071]
[ 0.06518007 -0.01978144  0.05062753  0.08376876 -0.01084702 -0.01212247]
[ 0.09164431 -0.01846585  0.11570287  0.11324921  0.05261124  0.01737962]
[ 0.16273552 -0.03353392  0.07394716  0.09699162  0.00643165  0.10758212]
[ 0.19289225 -0.06014284 -0.03136586  0.11273737  0.15601316  0.06633509]
[ 0.08171538 -0.03149101  0.08548705  0.0218553   0.03246197 -0.07304094]
[ 0.03160723  0.08373791  0.14956002  0.07350246 -0.07344378 -0.11099079]
[ 0.05176646 -0.01560984 -0.03102437  0.11132815 -0.01678045 -0.00697477]
[ 0.07451639  0.021528    0.0276729  -0.0745948  -0.05695164 -0.07962933]
[-0.07093106  0.05514795 -0.13260575 -0.00610251 -0.00664247 -0.00570181]
[ 0.04340408  0.10530211 -0.10822113  0.02011826  0.12548965 -0.08731504]
[ 0.03953103  0.14137344 -0.12663142  0.06657469  0.01496539 -0.09460191]
[ 0.00975688  0.02224479 -0.13210529  0.16704834  0.05254372 -0.12453748]
[ 0.09533484 -0.09015618  0.05401644  0.1615158   0.0651705  -0.02927857]
[ 0.15067182 -0.05266358  0.1573475   0.10846227  0.05461476  0.03240745]
[ 0.15967356 -0.12587574  0.03446352  0.02423547  0.08374227  0.0017202 ]
[ 0.12433714  0.01011727 -0.00982362  0.02232813  0.07451614 -0.01234156]
[ 0.0344033   0.01199382  0.03765733 -0.00730633  0.06074125 -0.009902  ]
[ 0.00856544  0.10398687  0.05593492  0.07472733  0.00799622 -0.04831914]
[-0.11305571  0.04670789 -0.04154234  0.04570815  0.07486948  0.04751958]
[-0.16483326 -0.0644316  -0.13496408 -0.09629299 -0.13097936 -0.01281037]
[-0.02805169  0.04641696 -0.04782007 -0.06372982 -0.08648465  0.00479271]
[-0.05809408 -0.01890492 -0.16512424 -0.01637645  0.00975128  0.02259994]
[ 0.05272719  0.06967571 -0.0548306   0.04313727  0.01846793 -0.0511783 ]
[ 0.08182365 -0.00497551 -0.10654818  0.08905167  0.03645509 -0.05894149]
[-0.0393804  -0.00469701  0.03517534  0.07779733  0.00671607 -0.07067543]
[ 0.08533854  0.07267068  0.07382442  0.03543942  0.08224216  0.00325821]
[ 0.083643    0.06737977 -0.03891349  0.04998291 -0.05720116 -0.03044709]
[ 0.04437972  0.13329138  0.08938424  0.03691494 -0.1305342   0.08664135]
[ 0.02347913  0.12359235  0.03796485  0.03210512 -0.02201561  0.11008272]
[-0.1616357   0.202921    0.03023875  0.04188697  0.01381693  0.01574135]
[-0.08925094  0.15253332  0.02492984  0.18254681  0.10581599  0.049675  ]
[-0.14476769 -0.08028281 -0.06213042  0.09397428 -0.08066981  0.14721888]
[-0.15481089  0.0629111  -0.07268563 -0.00980279 -0.04790406  0.12531528]
[-0.13556841  0.0547866  -0.04706291  0.06365081 -0.06857698  0.17513114]
[-0.09034678  0.07284385  0.08079363 -0.0086759   0.03289181  0.09904608]
[-0.15953392  0.1058577   0.05735411  0.06566972  0.0371905   0.01729092]
[-0.02442933  0.0972821   0.03195731 -0.03112651  0.03017767  0.01590416]
[ 0.06260588  0.01739338  0.02796457  0.07933867  0.00796367  0.11137365]
[-0.02933513  0.13158242 -0.04503469  0.07367117 -0.00363932  0.16421054]
[-0.06976965  0.09056327  0.00706314  0.05820037 -0.03624404  0.00041332]
[-0.11511855  0.16329709 -0.09939388  0.08961902 -0.02998263  0.05177879]
[-0.15684918  0.11165569 -0.02648366  0.15063719  0.07331526  0.03903334]
[-0.06547888  0.06203995  0.01065368  0.17636147  0.21260248 -0.01808564]
[ 0.04531711  0.0588766  -0.07672079 -0.06363226  0.03140597  0.11312857]
[-0.06480011  0.09274131 -0.00827846 -0.01359921 -0.02946346  0.03564643]
[-0.24798837 -0.024945   -0.10487449  0.02163889 -0.04753283  0.03666776]
[-0.04208915  0.03639343  0.00373001 -0.07221486 -0.02860083  0.06855242]
[ 0.00908039 -0.02091011  0.05765404  0.02114313  0.00895404  0.09485556]
[ 0.04905326  0.05498021 -0.09997436  0.05259567 -0.07417698  0.13183622]
[-0.01814793  0.0598252   0.00138026  0.10132148 -0.10214756  0.14842486]
[-0.11210378  0.02445579 -0.04091694  0.05383383 -0.19507515  0.07989186]
[-0.13336341 -0.00409807 -0.04327651  0.06173097 -0.037391    0.07712138]
[-0.19481833  0.03905896 -0.08042367  0.0733989  -0.02565732  0.04987252]
[ 0.01049139  0.04624219  0.02099503  0.07096656 -0.00275195 -0.1467979 ]
[-0.11153141  0.08348174 -0.05675071  0.04814349  0.13898918 -0.12874313]
[ 0.03472387  0.05470588 -0.09674138  0.08548409 -0.07070455 -0.00326608]
[ 0.02690561 -0.05320149 -0.01615613 -0.01345611 -0.11933026  0.07320902]
[-0.11284946  0.00922532  0.11168564 -0.09511372 -0.11489806 -0.02528112]
[-0.11303839 -0.04141494  0.02073623 -0.07104587 -0.17457214  0.06464031]
[-0.0575363  -0.02788282 -0.13782503  0.01939245 -0.22138996  0.04330296]
[-0.23486507  0.02363486 -0.1441159  -0.0417089  -0.19709852  0.04669309]
[ -1.89722463e-01   5.78164402e-03   1.03574549e-03   1.21167366e-04
  -9.83889401e-02   1.91422459e-02]
[-0.0154365  -0.12187231  0.07094639  0.01359771 -0.13077354 -0.05187853]
[ 0.11586691 -0.09705789 -0.10572136  0.08077    -0.10712263 -0.01206712]
[-0.01941784  0.07140411 -0.02201181 -0.01524064 -0.03175581 -0.05829607]
[ 0.07652217  0.05087522  0.06391587 -0.11764456 -0.08471118  0.01050423]
[ 0.06078494  0.00105093  0.06448825  0.02186088  0.07475671  0.08472432]
[-0.04720632 -0.00172362  0.0016437   0.00990973 -0.04914002 -0.02428137]
[-0.04909686  0.02171906  0.02553572 -0.01151708  0.0310286  -0.06367531]
[-0.09476261  0.02724992  0.04537598 -0.01876017 -0.0178903  -0.03619447]
[-0.05904983 -0.06095891  0.07969128  0.06554706  0.11151387 -0.08918773]
[ 0.04542222  0.0729887   0.05729962 -0.05128188  0.05664324  0.07886174]
[-0.1184383   0.01732154 -0.07363771  0.11149172  0.04382597 -0.08048019]
[-0.09820346  0.02677185  0.09960052  0.13328278 -0.07377207  0.11075246]
[-0.05735935  0.1024735  -0.02236772  0.09782594  0.09436035  0.00440848]
[ 0.02451727  0.06598977 -0.03426181  0.00604236  0.03459544  0.00394612]
[ 0.01107577 -0.0326887   0.02574608  0.1210368  -0.05633941  0.12992251]
[ 0.07009249  0.07229735 -0.02860467 -0.05350908  0.04627508 -0.00736068]
[-0.06214341  0.09250473 -0.06229038 -0.05794313 -0.03298004  0.10754821]
[ 0.09115167 -0.08342449  0.08148336  0.06689865 -0.06495859 -0.02335665]
[-0.08993647 -0.06577705 -0.03958679  0.09860438  0.00214776  0.06286021]
[ 0.00834169  0.00446703 -0.03134955  0.07375845  0.03373942  0.0573956 ]
[-0.0727808   0.05986564 -0.11863285  0.01100322  0.02297172  0.10432748]
[-0.14090934 -0.01424647 -0.09579559  0.07629099  0.21912226  0.12104937]
[-0.18367025  0.11066923 -0.12898679  0.00662099  0.05839249  0.107751  ]
[-0.1510489   0.09226006 -0.19957805  0.02368959  0.1355451   0.0014945 ]
[-0.03070282  0.09271097 -0.08325086  0.00112319  0.046062    0.00209154]
[-0.02657227 -0.02476526 -0.06292754  0.15129991 -0.00523515 -0.06865221]
[ 0.04430258  0.0858768   0.09874865  0.06670695 -0.01126586 -0.01051736]
[ 0.1377451  -0.09243073  0.13420828  0.0883349   0.00550659  0.09578493]
[ 0.06519848 -0.09659908 -0.06893358  0.02637691  0.06234642 -0.09082659]
[ 0.04971783  0.02111175 -0.02977242  0.07034259 -0.08513383  0.05897121]
[ 0.06229571 -0.0659113   0.04196405  0.03034149  0.06438976  0.0031073 ]
[ 0.0101794   0.01518474  0.02592597 -0.01960337  0.16975924  0.12649204]
[-0.11736825  0.06282455 -0.2098372  -0.01268522  0.15378347  0.16267778]
[-0.19404387  0.03093337 -0.11076068  0.01082765  0.16211689  0.18296649]
[-0.18904178  0.07059352 -0.23640221  0.01375841  0.06318671  0.13972589]
[-0.21146122  0.07329126 -0.30366662  0.02547354  0.16541632  0.05586223]
[-0.23555696  0.04998274 -0.29167548  0.03746252  0.19336654 -0.04956763]
[-0.09957209  0.07845922 -0.06478475 -0.05181082  0.10341752 -0.02460386]
[-0.04356311 -0.06716789  0.0197667   0.01549706 -0.03752964 -0.04552903]
[ 0.03010077 -0.17168926 -0.05869763 -0.09406736 -0.03239311 -0.02792439]
[-0.08011954 -0.06369787 -0.06680752 -0.06274547 -0.05167187 -0.0321946 ]
[ 0.06139061  0.02617011  0.079228   -0.10453494 -0.04082591  0.05493858]
[-0.07701118 -0.03467258 -0.11056197 -0.01730683  0.01917098  0.05168866]
[-0.15149285 -0.0024392  -0.16241719 -0.01732722  0.13606344 -0.00115654]
[-0.1594553   0.0113523  -0.22879648 -0.00650585  0.17544614  0.17466912]
[-0.24817699 -0.03511504 -0.07944264  0.00661771  0.10800651  0.09271538]
[-0.07382904  0.01565101 -0.16570777 -0.00761088  0.09049445  0.11309322]
[-0.08053277  0.05089328 -0.23287994 -0.00793593  0.13475099 -0.00875396]
[-0.12791966  0.0262649  -0.12539196 -0.02176445  0.04336965 -0.06534788]
[-0.16733339  0.02234385 -0.16887131  0.01586848  0.04209153 -0.06183963]
[-0.10800756 -0.06703854 -0.09424621 -0.00831826 -0.06083138  0.00406527]
[-0.10613558 -0.10604208 -0.06033054 -0.12472422 -0.05358846  0.14243293]
[-0.10404094 -0.12437881 -0.11507355  0.02825106 -0.17275129  0.13491851]
[-0.06494786 -0.0115087   0.0671158  -0.02580256  0.04817023 -0.026381  ]
[ -2.31201109e-03   3.83695369e-05  -6.19896688e-02   4.77943905e-02
   2.25286707e-02   5.34688644e-02]
[-0.05904864 -0.01615267 -0.06382768  0.07784912  0.14330079 -0.00555311]
[-0.21153447 -0.05797277 -0.21156223  0.08885098  0.10815336  0.01511001]
[-0.16750558  0.00716554 -0.20607069  0.02080585  0.1951676  -0.0351617 ]
[-0.23447719 -0.00985004 -0.08570248  0.01026209  0.17596987 -0.03643452]
[-0.20445131  0.05373362 -0.1756793   0.01274929  0.20291573 -0.10509161]
[-0.19352365  0.10148893 -0.17196526 -0.05619932  0.09255202 -0.1183648 ]
[-0.17916961  0.06469291 -0.1378382  -0.12397888 -0.07736437  0.02407788]
[-0.08804068  0.01562953 -0.055897   -0.01952295 -0.21551713  0.03432977]
[-0.16780826 -0.04090419 -0.14555714 -0.00511415 -0.1013821   0.18642519]
[-0.06804601 -0.07031719 -0.1383926   0.01013235 -0.156838    0.11899531]
[ 0.0647558  -0.03466182 -0.03010204  0.06268027  0.11844335 -0.07835619]
[-0.07911398 -0.09039575  0.02616454  0.06449941  0.13238631 -0.02052634]
[-0.09148471 -0.07137373 -0.11936594  0.03115758  0.11854902 -0.11958652]
[-0.07763915 -0.15830052 -0.18733065 -0.00524407  0.07001919 -0.132827  ]
[-0.04613128 -0.17245582 -0.27078378 -0.01475383  0.03415492 -0.0493054 ]
[-0.11130892 -0.19973727 -0.22398388 -0.1254039   0.03593238  0.01694845]
[-0.1508223  -0.07508545 -0.07172342 -0.21192266  0.04415879  0.16966812]
[-0.1818949  -0.05834473  0.03733147 -0.05071756 -0.0188254   0.05226181]
[-0.05752198 -0.06046619 -0.04313502  0.07093865 -0.17438279  0.07282813]
[ 0.01842967 -0.06297554  0.0453018   0.05384926 -0.22781979 -0.076062  ]
[-0.03429448  0.00246915 -0.14323042  0.03825146 -0.10269009  0.07780331]
[-0.15476991  0.05407104 -0.10264158  0.04734419 -0.02356131  0.05607691]
[-0.0160799  -0.0095557  -0.02145105 -0.01558138  0.03672297 -0.08516012]
[ 0.04773578 -0.06136201  0.024737   -0.08773965 -0.07093554 -0.11361139]
[-0.01664582 -0.13365972  0.00187197 -0.11012052 -0.01674218 -0.06963332]
[ 0.00613244 -0.24350737 -0.09980788 -0.05604919 -0.01004167  0.04803709]
[ 0.05689799 -0.12847082 -0.19782583 -0.17693751 -0.07034505  0.09553742]
[ 0.04172312 -0.13793318 -0.19284198 -0.16463612 -0.16308054  0.16076449]
[-0.02109895 -0.20132616  0.02175133 -0.09844779 -0.12132743  0.18173626]
[ 0.00235491 -0.28014958  0.02130731 -0.04597886 -0.13260482  0.18742482]
[ 0.03784225 -0.26433992  0.01309719  0.04896168 -0.16245818  0.08813237]
[ 0.0504307  -0.15007856 -0.01764087  0.07487298 -0.09032246  0.06801023]
[ 0.10092995 -0.17022143  0.05801129  0.05784401 -0.05956636  0.00572205]
[-0.00147593 -0.01775186  0.0119685   0.13959184  0.00223309 -0.10386221]
[-0.00668179  0.02810636 -0.03774398 -0.03340081  0.04062385  0.0424873 ]
[ 0.19216095 -0.1851346   0.06727377 -0.1323112  -0.0771188  -0.01387745]
[ 0.11103304 -0.20998305 -0.04014921 -0.17662926 -0.03440357  0.01637512]
[ 0.08212195 -0.11928227 -0.1229412  -0.15584432 -0.05253142  0.11639208]
[ 0.14103791 -0.12006724 -0.21778297 -0.1933784  -0.02911068  0.1298265 ]
[ 0.09479616 -0.10685991 -0.13192697 -0.08928084 -0.09658066  0.04006344]
[ 0.04001633 -0.11498719 -0.00017896  0.01186753 -0.12287972  0.08084709]
[-0.00568072 -0.14061394  0.00568558  0.04351782 -0.12200855  0.0412799 ]
[ 0.06555595 -0.10203794 -0.13416135 -0.01239964 -0.08494308 -0.02907971]
[ 0.03954178 -0.06025023 -0.02335173 -0.03203167  0.00193082 -0.03351907]
[ 0.04207268  0.08897347 -0.06137546  0.10338098  0.01610337 -0.03003662]
[-0.05463994  0.09698384 -0.07657404  0.10976677  0.0797381   0.05438229]
[-0.16663958 -0.00561674 -0.01029108 -0.02906404 -0.01808379 -0.05343233]
[-0.09941309 -0.08752154 -0.09185354 -0.0680863   0.04305558  0.08049846]
[ 0.0311444  -0.04220301 -0.03762746 -0.113165   -0.12500307  0.08094741]
[ 0.12123648 -0.05819057  0.04256376 -0.1114492  -0.03369859  0.14715962]
[ 0.08543385 -0.07174709 -0.11182225 -0.11789224 -0.06176232  0.06030505]
[-0.00593987 -0.06401142 -0.01216497 -0.04977297 -0.08023367  0.05708309]
[-0.0050093  -0.07394201 -0.03392016  0.06198625 -0.18489251  0.05286611]
[-0.04955296  0.01548098 -0.05672502  0.09678061 -0.06645443  0.02672105]
[-0.05363931  0.08404084 -0.06370071  0.09101664  0.0226925  -0.04054278]
[-0.00282605  0.1770916   0.01186816  0.1387932   0.09790879  0.04959167]
[-0.12297689  0.057502    0.13336205  0.0229161   0.03062688  0.04975766]
[-0.06936904  0.17568789 -0.05647955  0.19536     0.15689316 -0.0275847 ]
[-0.00674124 -0.05479594  0.01289047 -0.00136349  0.04452025  0.10094544]
[-0.17551762 -0.00571087 -0.06529935  0.04102012  0.02228183  0.12475651]
[ 0.02211226  0.00734606 -0.06177364 -0.08445957 -0.02454608  0.07220026]
[-0.03218179  0.04538899  0.00423171 -0.00077181 -0.04741466  0.16059479]
[ 0.0637078   0.06775361  0.07438985  0.09121038 -0.02946661  0.19301032]
[-0.065916    0.03370653  0.09072648  0.16770308 -0.06310998  0.2039177 ]
[-0.05578503  0.03516589  0.07601073  0.11077935 -0.05938015  0.18634389]
[ 0.01180278  0.11411896  0.04653929  0.12313136 -0.0318591   0.03923295]
[-0.00559096  0.12526111  0.10689483  0.16606581  0.08444214  0.08139583]
[-0.02171659  0.15724353  0.06501326  0.10871612  0.09649682  0.06439263]
[-0.01437087  0.14801328  0.03137574  0.14560169  0.07636282  0.0675719 ]
[-0.10273873  0.13915448  0.07544602  0.21266225  0.14128317  0.08106607]
[ 0.01912069  0.08803979 -0.03758025  0.0080236   0.009101    0.15632023]
[-0.11809582  0.13466696  0.03082852 -0.03327061  0.02818161  0.0878761 ]
[-0.13776118  0.01501261  0.03825891  0.00780781 -0.03877114  0.01822447]
[-0.15870443  0.04618859 -0.02044635  0.01117993 -0.04947025  0.02211468]
[-0.03363567  0.10603083  0.03962179  0.03697564 -0.08338591  0.07330401]
[-0.07651046  0.03849623  0.04740459  0.00803175 -0.19963466  0.03082657]
[-0.00304915  0.06195136  0.06763447  0.05386355 -0.16635229  0.01709013]
[ 0.08710842  0.11358462  0.11264481 -0.0356599  -0.00530473  0.012139  ]
[ 0.04648183  0.01874511 -0.02532026  0.06286131  0.0900785  -0.06189231]
[-0.04773955  0.04555311  0.02277745  0.17963003  0.08080532  0.01800106]
[-0.0319803   0.00919873 -0.15977438  0.17286831  0.09074575  0.01050247]
[-0.00127407  0.06362756  0.01017169  0.11994022  0.05317195 -0.11592874]
[-0.10497684 -0.04322001 -0.07824314  0.06512175  0.04315324  0.16776925]
[ 0.03466431  0.0597596  -0.01061267 -0.02390291  0.04488884  0.0206762 ]
[-0.20375809  0.00797951  0.04434312 -0.02685959 -0.00811408  0.02865884]
[-0.07278355 -0.01398925  0.01489719 -0.00964133 -0.05369832  0.02904578]
[-0.1585217  -0.00182426 -0.04466191  0.03391945 -0.14995019  0.01874216]
[-0.16616923  0.01599434 -0.08518838 -0.00681624 -0.2121156   0.03900826]
[-0.16892831 -0.02177189  0.00726399 -0.03662668 -0.141092   -0.03201186]
[-0.09784924  0.03885344  0.0568472  -0.01863539 -0.08402184 -0.08477513]
[-0.03455435  0.04492672 -0.03240996 -0.00512042 -0.01435803 -0.13304548]
[ 0.08667311  0.05161019 -0.06477797  0.01642201 -0.00345589 -0.05892566]
[ 0.08931434  0.06701102 -0.04077269  0.04076438 -0.1095826  -0.01917054]
[ 0.06019472  0.06597538 -0.04973418 -0.01889255  0.11957839 -0.11308318]
[-0.07284926  0.06163486  0.00134172  0.00457179  0.03074711 -0.02035007]
[ 0.0534694  -0.04296622 -0.08203937 -0.06474109 -0.08324298 -0.0797221 ]
[ 0.07241983 -0.09346583 -0.05046359 -0.0435266   0.04222182 -0.04222064]
[ 0.03053659  0.08681805  0.05054528  0.13905732  0.04797463  0.05622803]
[-0.01543237  0.08587566  0.10394365 -0.01063615 -0.1030665   0.04867196]
[-0.03461881  0.04639233  0.09175984  0.11520604  0.00301319  0.1266486 ]
[-0.02516872  0.09568633  0.16715994  0.14463003 -0.03500512  0.04132634]
[-0.03046007 -0.10675734  0.14177525 -0.03469159  0.01581464  0.09935367]
[ 0.04788638 -0.04986581  0.13067223  0.01892372 -0.1011093   0.11726112]
[ 0.11672003  0.00219836  0.07028157 -0.04690514  0.04103626  0.03021132]
[ 0.0864855   0.02398742 -0.01594597 -0.06635138 -0.10316578 -0.01440813]
[-0.00166169  0.04844026  0.06628766 -0.07560571  0.05804037 -0.10265759]
[-0.06355046  0.05131958 -0.01329321 -0.04647116  0.09578709 -0.08422823]
[ 0.02941804 -0.06953155  0.03676633  0.00909949  0.03128758  0.07351764]
[ 0.05900255  0.0052698   0.08130096 -0.07902609 -0.01457038 -0.04606839]
[-0.00949534 -0.10610037  0.00229487 -0.01048803 -0.04522954 -0.0342915 ]
[-0.00812541  0.08518054  0.1215702   0.09540234 -0.00200144  0.03862758]
[ 0.07477875  0.03689891  0.07155774 -0.0333936   0.09583797 -0.00136219]
[ 0.08917698  0.12216842 -0.03013409  0.03347711  0.08745246  0.09162145]
[ 0.19291651 -0.09796811  0.06984906  0.06382235  0.05359848  0.12428095]
[ 0.19405909 -0.11400479  0.15641084  0.02833195 -0.09473823  0.16204298]
[ 0.08926468 -0.08764818  0.09691469  0.0504753  -0.02822431  0.08875376]
[ 0.06703176  0.00501773  0.10298611  0.05836391 -0.09306159  0.06280155]
[ 0.11754589  0.0062852  -0.01329099  0.01914106 -0.00913779 -0.03499801]
[ 0.05479514  0.0757605   0.03781546 -0.08232892 -0.01363391  0.10502675]
[-0.05333211  0.00668551  0.03004682 -0.05507043  0.07613172 -0.07246178]
[ 0.10184391 -0.02289742 -0.0873573  -0.08840824 -0.00308808  0.01492197]
[ 0.09635758 -0.02631     0.00636118  0.01967903  0.01901488  0.04941707]
[-0.00851431 -0.01525964 -0.05478023  0.03036721  0.08224916  0.01755206]
[ 0.03805772 -0.0471253   0.10708716 -0.065385   -0.01271125  0.03604177]
[-0.10732777  0.07735662  0.07976561 -0.01165721 -0.14571585  0.04744825]
[-0.02024305  0.05692627 -0.00628995 -0.03706976 -0.08587793  0.01002908]
[ 0.01542791 -0.00424768 -0.02270841  0.00742969 -0.04554934 -0.07143109]
[ 0.11216874 -0.07594595  0.04991312 -0.07413317 -0.11524391 -0.08134081]
[ 0.08194222 -0.0305213   0.04649995 -0.01730489 -0.11737607 -0.05711905]
[ 0.0453914  -0.09134684 -0.11253522  0.03460344  0.03624769 -0.00606153]
[ 0.0445807  -0.02382476 -0.01493464  0.06920509  0.0697619  -0.01123466]
[-0.04189172  0.0043867  -0.09882246 -0.0022326   0.04847658 -0.03794432]
[ 0.02014271 -0.06535582  0.0890864   0.05086743 -0.0612215  -0.03844123]
[ 0.09533077 -0.0967195   0.05114423 -0.05383617  0.0026265  -0.0342233 ]
[-0.03536218 -0.01144997 -0.07357103  0.08216832 -0.14754111 -0.04103779]
[-0.05462918  0.01116563 -0.03570392 -0.03742189 -0.10523258 -0.0501131 ]
[-0.01318669  0.01901935  0.01484218 -0.11688059 -0.00097548 -0.04388837]
[ 0.01672945  0.05309653 -0.08674185 -0.06214984  0.10811223 -0.03755621]
[-0.06874622  0.02755784 -0.11039703 -0.03480731 -0.01481355 -0.12178248]
[-0.02316929  0.06055223 -0.15090057 -0.06170121 -0.05174941 -0.15716098]
[ 0.08853721  0.06023283 -0.03552523 -0.00831271 -0.07053712 -0.11312617]
[ 0.01490989 -0.07267572  0.02249029  0.04760053 -0.08145219  0.09749668]
[-0.09948954 -0.0043783   0.04746054  0.02271415  0.06701133 -0.01827994]
[ 0.03295484 -0.04691163 -0.05094757  0.00075197  0.01645098  0.02372482]
[ 0.05589774 -0.06075221 -0.05577603  0.0299143  -0.07110219 -0.05685873]
[ 0.13701762 -0.00901032 -0.0525444   0.06266233 -0.01837647 -0.12622248]
[ 0.08015727  0.0070526  -0.04640761  0.01295207  0.03633718 -0.13810635]
[ 0.03665193  0.0151763  -0.08324185  0.06007956  0.02871591 -0.17091587]
[-0.0781101   0.08283474  0.11237738 -0.08181579  0.04792446 -0.10437264]
[-0.0424473   0.16827171 -0.07850437 -0.1421963   0.14060329 -0.17465346]
[ 0.04105771  0.17585181 -0.20359509 -0.1875104   0.03717707 -0.19346191]
[-0.00392628  0.09539757 -0.19609962 -0.10929698  0.03786467 -0.17486638]
[-0.01565254  0.02290093 -0.15428588 -0.00860777  0.04584795 -0.23062244]
[-0.13594593  0.03388198 -0.08152521  0.0448652  -0.04704296 -0.03761613]
[ 0.11236279 -0.02853673 -0.10955256 -0.07367305  0.03247799  0.01846922]
[ 0.00546985 -0.08571762  0.00909461 -0.13612792  0.10008094 -0.05624685]
[ 0.09289072 -0.12792781 -0.00084779 -0.06408394 -0.05040756 -0.19611318]
[ 0.05442612 -0.08971992  0.07526261 -0.06083367  0.01602523 -0.17808999]
[ 0.11419039  0.02633435  0.00689772 -0.02317417  0.00345131 -0.11195438]
[ 0.05877145 -0.12220295 -0.06208491 -0.04444772 -0.13974072 -0.03381269]
[-0.15160455 -0.07726157  0.14493878 -0.14982043  0.01467613 -0.12169464]
[ 0.06604515 -0.04117012 -0.06923779 -0.14035472  0.14994134 -0.12938432]
[ 0.06969909  0.05917891 -0.21017204 -0.09642818  0.1049628  -0.1636806 ]
[ 0.03361243  0.17214012 -0.14765251  0.00428944  0.06559871 -0.19929928]
[ 0.01189971  0.24399389  0.02013515  0.03232773 -0.09615515 -0.28006884]
[ 0.00397363 -0.0165281  -0.06207018 -0.01255287 -0.0385462   0.01407311]
[-0.01362343 -0.09846293 -0.0844344  -0.05534858  0.07889217 -0.01960552]
[ 0.06873817 -0.05616895 -0.0917808  -0.15398368  0.00051982 -0.19204381]
[ 0.13315539 -0.00932692  0.09221449 -0.25870514 -0.07354071 -0.13978033]
[ 0.12236559  0.05652054  0.05529293 -0.15776111 -0.03901148 -0.06140028]
[ 0.08865461  0.01902129 -0.07249243 -0.04400833 -0.11273406  0.07183517]
[ 0.01462868 -0.15827315  0.0418022  -0.0471109  -0.2835592   0.06424376]
[-0.13748387 -0.1899747   0.15642799 -0.13730998 -0.02261388 -0.02523456]
[ 0.14050761 -0.15347664 -0.06502228 -0.01315957  0.08888672 -0.03122983]
[ 0.0639162  -0.02636995 -0.09801234 -0.0049637   0.10761313 -0.11311541]
[ 0.08115489  0.1282789   0.03326106 -0.05861843  0.05891555 -0.18554649]
[ 0.08190421  0.16290429  0.11655106 -0.04977002 -0.10914477 -0.13747217]
[-0.03673624  0.03823508  0.11319777 -0.03826513 -0.13983952 -0.04157716]
[-0.07680377  0.07529122  0.05119546 -0.0612702   0.0914195  -0.07494374]
[ 0.03910058  0.14784159 -0.08823775 -0.12537917 -0.01557556 -0.17996855]
[ 0.13307124  0.08721701  0.05375561 -0.08149244 -0.04976351 -0.101588  ]
[ 0.08622725  0.13675851  0.04277786 -0.09228762 -0.06419718 -0.03918588]
[ 0.08361363  0.07374367  0.02457007  0.08755292 -0.07605056  0.05772979]
[-0.11015518 -0.12262669  0.14651513  0.1066642  -0.11732884  0.01251893]
[ 0.00516588 -0.16955291  0.18000041  0.06390298 -0.01597802  0.03835919]
[ 0.1838519  -0.15476853 -0.04659445  0.05009102  0.11434909 -0.04557679]
[ 0.02553591  0.04070701  0.06976808 -0.08335181  0.09728404  0.0085407 ]
[ 0.04267658  0.05254238  0.16562103 -0.03476106 -0.1263971   0.0399487 ]
[ 0.1020209   0.11830671  0.12924172 -0.09250996 -0.11368264 -0.05618812]
[-0.0395091   0.0651748  -0.0330432   0.06102697 -0.11066974  0.10095035]
[-0.1315839   0.07293423  0.01937247 -0.02731743 -0.07251605  0.1755451 ]
[-0.10582844  0.00703212 -0.00692621  0.04990533 -0.02722679  0.01873032]
[ 0.13209534  0.11287855 -0.02634871  0.00506837  0.01525785 -0.07716291]
[ 0.10961331  0.22270234  0.07145044  0.07432666 -0.05322515 -0.14236887]
[ 0.03445679  0.05608822  0.0347836   0.2492995  -0.03364447 -0.08710343]
[-0.05550452  0.04262714  0.13726415  0.12779742 -0.03007364 -0.06999598]
[ 0.06557991 -0.12267549  0.13837196  0.11647774  0.06121567 -0.02235612]
[ 0.0981942  -0.03611351 -0.11187933  0.0950244   0.07763182  0.04022843]
[ 0.00986512 -0.01649057 -0.02103638 -0.00561545 -0.05347789  0.05961804]
[ 0.03230391  0.00857459  0.16726455 -0.08676129 -0.13630158  0.10038552]
[-0.05118618 -0.0454185   0.07746018 -0.06986227 -0.12104104  0.02257269]
[ 0.00200597  0.05126688 -0.05150374  0.04922917  0.09192088  0.09716669]
[-0.09148561 -0.12051246 -0.00545592  0.07737807 -0.00298634  0.24906243]
[-0.20151903  0.07542884 -0.12348674  0.01652645  0.00661101  0.01856892]
[-0.05508407  0.12616301 -0.0894328   0.08277722  0.04871251 -0.03032157]
[-0.12737244  0.13403678 -0.04106146  0.16135265 -0.01765135 -0.0370416 ]
[-0.02513108  0.12603304  0.1017707   0.19767897 -0.01325572 -0.05947971]
[ 0.04406468 -0.0113141   0.2159896   0.05152629  0.07919474 -0.11329599]
[ 0.10910016 -0.03567787  0.08541395  0.0846894   0.11764928 -0.09809399]
[ 0.03055163 -0.03012222 -0.03114947  0.08747973 -0.003953    0.03799183]
[-0.00560885 -0.02268522 -0.00387275  0.02438579 -0.04158023  0.08301023]
[-0.05046839 -0.02911423 -0.04480612 -0.01763739 -0.13739485  0.09344085]
[-0.14687583  0.04757212  0.07637242 -0.04438187 -0.06621475 -0.01430378]
[-0.01791742  0.16739696 -0.0189916   0.15599112  0.12588075  0.02207274]
[-0.03165798  0.04577675  0.03982717  0.07423574 -0.12895153  0.04346751]
[-0.12855907  0.15535244 -0.13691491  0.07605001  0.07119542  0.02251547]
[-0.23491532  0.13907231 -0.10937359  0.04691375 -0.04675388 -0.04178178]
[-0.17543931  0.11316919  0.05528797  0.06380191 -0.03617239 -0.05556811]
[-0.12435814  0.02660752  0.06437152  0.07239245  0.00702444 -0.1380146 ]
[ 0.05306168 -0.04512049  0.04805041 -0.01520606 -0.00517835 -0.11440462]
[ 0.03789449 -0.02003757  0.07377756  0.02839525 -0.07277595 -0.08521952]
[-0.03072493 -0.0361155   0.01336623 -0.04257778 -0.09292061 -0.03554518]
[ 0.00093707 -0.03941217 -0.05287259  0.045565   -0.1121057  -0.02705905]
[-0.0658809  -0.01644503 -0.0116548   0.00387383 -0.09970406 -0.00409435]
[ 0.04398963  0.13751721 -0.12016805  0.15715691  0.06494827 -0.03341585]
[ 0.05116649  0.08186767 -0.05573651  0.0659192   0.14974077 -0.01726299]
[-0.01231478  0.03829259 -0.05851142 -0.0156818  -0.09862095  0.03110193]
[-0.10258109 -0.03800832  0.05482979 -0.0511012   0.0344005   0.16559102]
[-0.04935133 -0.05377075  0.03296192 -0.00686327  0.00665766  0.01137035]
[-0.05340313 -0.05805775  0.05639653 -0.06350482 -0.04061116 -0.04336603]
[ 0.09426931 -0.09383695  0.06459256 -0.06502528  0.03903637 -0.05442847]
[ 0.05108499 -0.01070418  0.02841364 -0.10137352  0.07339425 -0.10721809]
[-0.02359797 -0.12652102  0.03610835 -0.16083828  0.00593891 -0.11343116]
[ 0.0254089  -0.11863548  0.1162515  -0.18243514  0.04444294 -0.16196346]
[ 0.05452818 -0.00060108 -0.0161091  -0.13927041 -0.02195971 -0.09747113]
[ 0.13439891  0.06903161 -0.06214869 -0.03920699 -0.00602551 -0.05294175]
[-0.03110694 -0.00988746 -0.09303137  0.01590905 -0.06967202 -0.07897294]
[ 0.01279921 -0.06167909 -0.08217167 -0.05878862  0.09113701 -0.00044305]
[-0.05582779 -0.04466515 -0.05894209 -0.09277491  0.0270035  -0.08194751]
[ 0.04682581 -0.02672256 -0.07925287  0.0145034  -0.02616392  0.12150055]
[-0.04745591 -0.03683112  0.01130428  0.05789633 -0.01195256 -0.00611735]
[-0.02525078  0.00924555  0.02802815  0.12408519  0.07681384  0.18900158]
[-0.04176112  0.04611356 -0.04404711  0.12533668  0.12736142  0.16838156]
[-0.08812623 -0.02233918  0.0717693   0.06179407  0.0052088   0.06607333]
[-0.07970393 -0.06811766  0.03746943  0.03558099  0.06633959 -0.02805538]
[ 0.00764346  0.03039521  0.11002323  0.05164711  0.04871966  0.01379655]
[ 0.10429075  0.06469645  0.08939011  0.01604793 -0.01805074  0.09575079]
[ 0.07187066 -0.03721853  0.11741981  0.03514061 -0.0505621   0.03338502]
[ 0.08499145 -0.12729916  0.13599767  0.07911468  0.05208495  0.03658092]
[ 0.08431294 -0.08463928 -0.04440579 -0.05169481  0.0207458   0.05013515]
[-0.0685001  -0.06658141  0.06735186 -0.04092396 -0.09305583  0.12720141]
[-0.06577305 -0.00642176 -0.09450409 -0.04130022 -0.03753159  0.12456149]
[ 0.07134967 -0.14669402  0.00035805  0.07609862 -0.06330142 -0.02631417]
[-0.00936638 -0.03404007 -0.06914517  0.0161032  -0.05539803  0.09436484]
[-0.0246382  -0.00618518 -0.00183708 -0.07723476 -0.02105835 -0.04773451]
[-0.07168197  0.05272428 -0.03925119 -0.10814752  0.01797446 -0.08968411]
[-0.13442889 -0.00170309  0.02178236 -0.06665712  0.00652702  0.04856112]
[-0.06603789 -0.03844055 -0.00896428 -0.08732264 -0.06465837 -0.07073474]
[-0.03605959  0.06228582 -0.00338177 -0.04773863 -0.04900275 -0.01620629]
[-0.03502395 -0.03204381  0.10170331 -0.02322149 -0.07632868 -0.07265815]
[ 0.06352068  0.00831725  0.07403263 -0.04257182 -0.05065618 -0.10451732]
[ 0.10140886 -0.04680355  0.07974187  0.00128748 -0.14228298  0.01806556]
[ 0.02998961 -0.11128569  0.00807078  0.05799495 -0.04248724 -0.07296209]
[-0.04639728 -0.02528482 -0.01780947 -0.02381595 -0.05765985 -0.01366302]
[ 0.0080113  -0.09770598 -0.01382685  0.02601834 -0.03085206 -0.05317641]
[ 0.13648638 -0.07635658 -0.08919209 -0.04547374 -0.0382448  -0.09726647]
[ 0.10081466 -0.05098092 -0.09200043 -0.10764768 -0.00050168  0.02703799]
[-0.01431675  0.06524711 -0.06190132 -0.04828825  0.01724355 -0.04696161]
[-0.02925377 -0.00859749  0.04391954 -0.04693212  0.12754473 -0.06525415]
[ 0.00504382  0.0846336   0.00654766 -0.11658597  0.06470053 -0.17922126]
[-0.01122903  0.01699238 -0.14063229 -0.1322127   0.1074995  -0.12380721]
[ 0.02668307 -0.01167755 -0.11943352 -0.08299331  0.05207677 -0.09728046]
[-0.0188257   0.02962684 -0.2043874  -0.06390452  0.0296886  -0.04966496]
[-0.10526377 -0.01786005 -0.03398598  0.04396265 -0.12755375  0.08983421]
[ 0.01174592  0.00391     0.02541528 -0.11686546  0.15000558  0.07048748]
[ 0.00393183 -0.15154561 -0.06638781 -0.10096451  0.10959088 -0.04846003]
[ 0.05117596 -0.02501961 -0.08407059 -0.12652603  0.05437466 -0.10064027]
[ 0.11631624 -0.07296772 -0.10841578  0.01030936 -0.00986587 -0.06332407]
[ 0.08745095  0.01881    -0.17370847  0.06347481  0.09806715 -0.12725149]
[-0.0272585  -0.02175657 -0.02025635  0.00453046  0.04736712 -0.17942752]
[-0.16117647 -0.01073003  0.12919068 -0.0999516   0.14114895 -0.16998112]
[-0.04648091 -0.10358691 -0.02863156 -0.1120868   0.13474019 -0.23594309]
[ 0.05314586  0.01263334 -0.12831333 -0.17498821  0.14555535 -0.22041026]
[-0.00071778  0.02597187 -0.1361976  -0.11178481  0.09700476 -0.13332318]
[-0.15714706  0.13666867 -0.04168238 -0.0875456   0.02502864 -0.20943342]
[-0.14090626 -0.01054607 -0.16296579  0.06850064 -0.04534444 -0.09038629]
[-0.07574101  0.01082342 -0.05235925 -0.0308817   0.0870044   0.02247928]
[ 0.0943967   0.00277261 -0.08256119 -0.07074574 -0.02094317 -0.01329842]
[ 0.18513523 -0.11193532 -0.04083587 -0.1102397  -0.03614352 -0.04766526]
[ 0.20456134  0.06665796  0.04723847 -0.07974101 -0.06687252 -0.06594438]
[ 0.14946252  0.03812485 -0.06807043 -0.09688013 -0.10571896 -0.07164307]
[-0.00791376 -0.12625268  0.06267092 -0.0874987  -0.17823939 -0.04005084]
[-0.0285219  -0.12383609  0.15319669 -0.17251691 -0.0032491  -0.04394671]
[ 0.1074139  -0.10899387 -0.03656861  0.02050555  0.07929543  0.00505599]
[ 0.09366294 -0.14650753 -0.04626861  0.11233115  0.09336078 -0.06722052]
[ 0.12581162  0.0738054   0.04939831  0.1159211   0.06550348 -0.14255968]
[ 0.09716552  0.00486827  0.04769524  0.06609173 -0.03078673 -0.10654549]
[ 0.00999955 -0.04560799  0.10614737 -0.0716635  -0.20987017 -0.06428645]
[-0.05327744  0.07950247 -0.06945224 -0.07781713  0.10619823 -0.08610576]
[-0.04029705  0.03606781  0.05715095 -0.09039999 -0.06718995 -0.18244386]
[ 0.0389366   0.12220702  0.0700139  -0.03882113 -0.11201911 -0.08586296]
[ 0.15947162  0.0392904  -0.00531466 -0.00405813 -0.05914121 -0.00343437]
[ 0.10309751  0.09993106 -0.03984945  0.01175668 -0.11982945  0.05445059]
[-0.09118432 -0.11052282  0.05329118  0.02706717 -0.05800316  0.10705487]
[ 0.00342496 -0.08236358  0.25293171  0.00251767  0.03377515  0.06343367]
[ 0.21504179 -0.09259924  0.05928629  0.14758889  0.05034761  0.07454007]
[ 0.16377722  0.01987403  0.03147342  0.00294732  0.01588785  0.13887933]
[ 0.12676652 -0.0894784  -0.00078316  0.02903409 -0.07165129  0.02233627]
[ 0.09382169  0.00531397  0.09942749  0.02472782 -0.10806062  0.11978479]
[ 0.10378549 -0.03993521  0.03209985  0.07085722 -0.15565908 -0.04568754]
[-0.00088184  0.00325327 -0.07001016 -0.06033207 -0.04102683 -0.09171701]
[-0.03728528  0.16214059  0.04473002 -0.12631288  0.01021012 -0.12335706]
[ 0.04072975  0.08933728 -0.03237691 -0.00251682  0.06298532 -0.09260009]
[-0.01566601  0.16996968  0.00528813  0.08159032  0.06387788 -0.07930411]
[ 0.06966192  0.11754458 -0.01520284  0.20301816  0.07745896  0.06267039]
[-0.03286059 -0.08527185  0.13697807  0.13909012  0.02444351  0.07019179]
[ 0.09602827 -0.01538416  0.14452112  0.11404432  0.03198424  0.09193377]
[ 0.14270198 -0.06506915 -0.06504422  0.03973795  0.05498492  0.02555096]
[ 0.07222609  0.07045134 -0.00777074 -0.01538756 -0.10312285  0.12927821]
[ 0.04282885 -0.0428147   0.11576596 -0.02617623 -0.17477056  0.0404804 ]
[ 0.10521951 -0.06177536 -0.00919723 -0.07154623 -0.11192548 -0.00960838]
[-0.1338287   0.05118897  0.03337234  0.00975432  0.02746251 -0.04395967]
[-0.10793407 -0.04999973 -0.12637399  0.06706437  0.02047925  0.05585495]
[-0.03790279  0.01931577 -0.00095846 -0.03384035  0.10794695 -0.06444387]
[-0.10165163  0.05394431 -0.09291378  0.04296329 -0.00020248 -0.09371747]
[-0.0713687   0.12724721  0.03504651  0.09172693  0.05889606 -0.0818359 ]
[ 0.06474834  0.07168681  0.09605604  0.05792991  0.04735228 -0.07151067]
[ 0.03311424  0.05494209  0.21306284 -0.02664997  0.07640942 -0.07040907]
[ 0.1401194  -0.00673119  0.10282245  0.0095232   0.02286092  0.03136597]
[-0.03785643 -0.02797438 -0.14414907  0.07723425  0.00039597  0.14407319]
[-0.00397903  0.08145793 -0.10412718 -0.0572038  -0.07346249  0.13867708]
[-0.0690629  -0.01467381 -0.04106655  0.05788163 -0.01882196  0.07390092]
[-0.06462452  0.05524519 -0.01167605 -0.03802819  0.02191655  0.08612221]
[-0.043303    0.03461595  0.05713229  0.10348108  0.15378565 -0.04247414]
[ 0.04946512 -0.12037985 -0.03311617  0.01699703  0.05285979  0.24718861]
[-0.15588698  0.10860949 -0.14655943 -0.03222614 -0.03632014  0.08379015]
[-0.14172655 -0.0415895   0.05553434 -0.05541906 -0.02196057  0.07128552]
[-0.15443625 -0.02571956 -0.01393513  0.04233053 -0.03171694 -0.02677071]
[-0.08771069  0.07994305  0.11047288 -0.0498354  -0.00929405 -0.0116878 ]
[-0.02181826  0.06416912  0.10110972 -0.09506232 -0.08584445 -0.06143933]
[ 0.09775285  0.03457565 -0.03009086 -0.04879108  0.02537366 -0.00452527]
[-0.03905744  0.07552146 -0.07992467 -0.06861562 -0.06357027  0.03065518]
[-0.05593791  0.1620684  -0.01884421  0.13660827 -0.07047244  0.05011496]
[-0.1791925   0.18747725 -0.08586565  0.09560275  0.04938696  0.19000125]
[-0.03272366  0.13069601  0.00961197  0.20086713  0.12667406  0.07334649]
[-0.0785537   0.10277684 -0.09830227  0.1172012   0.18281069  0.04381405]
[-0.0746486  -0.05922613 -0.01148063  0.03725683 -0.01222366  0.11710381]
[-0.03034486 -0.09050146 -0.03771844  0.07593858  0.04254507  0.1533857 ]
[-0.13707002 -0.01651301 -0.04162144 -0.07812491 -0.02413833  0.18521431]
[-0.22890916  0.01199052 -0.07957387 -0.0209826  -0.04879785  0.1602284 ]
[-0.09556405  0.03534719 -0.04459211 -0.07551938 -0.12049634  0.12798551]
[ 0.01852823 -0.04504469  0.00151202 -0.04413817 -0.03119442  0.03091571]
[-0.0201242   0.04817802 -0.05547795 -0.0467249  -0.06851254 -0.01648772]
[-0.06032005 -0.00047743 -0.01601878  0.05182882 -0.10044185 -0.07256854]
[-0.02390188  0.03172252  0.01356441  0.17512345  0.02870533 -0.01804668]
[-0.11114469  0.07563584 -0.09591821  0.24324684  0.10465339  0.01049755]
[-0.0981629   0.1922643  -0.13839318  0.07247605  0.20833325  0.04211625]
[-0.00317915  0.06476028 -0.05660545  0.01165477  0.1720541  -0.09708567]
[-0.1179879   0.01435112  0.00147162 -0.10185227 -0.05461094  0.06356647]
[-0.05606825  0.00812344  0.03432569 -0.09856009  0.00331796  0.0742818 ]
[ 0.04163553 -0.00624851  0.09995271 -0.09156309 -0.01059765  0.07148145]
[ 0.07979721 -0.09448459 -0.04930105  0.04571022 -0.12187904  0.23379226]
[-0.08800115 -0.16554257 -0.12556523 -0.02490284 -0.08646718  0.20069559]
[-0.09942732 -0.05152029 -0.13457778 -0.05958176 -0.02550424  0.05094732]
[-0.04771343 -0.03269365 -0.03646702  0.03598669 -0.07045906  0.06077444]
[ 0.00630266 -0.09499583 -0.02871061  0.04131772 -0.08029944 -0.05546723]
[ 0.00401468 -0.00078911  0.10204746  0.03547049  0.04346003 -0.10230522]
[-0.03763362  0.01437088  0.04176084  0.04785641  0.11414584 -0.16520756]
[ 0.08143321  0.10168262 -0.09104579  0.1055046  -0.03980615 -0.02106007]
[-0.03047673  0.0641989   0.08736615 -0.05281523 -0.06202984  0.0497676 ]
[ 0.08031021 -0.10063725  0.07513032  0.08540925  0.02801026 -0.00679813]
[ 0.08064254  0.06347281 -0.03517443  0.05535125  0.01057703 -0.00063862]
[-0.05964933 -0.00961285  0.08408339 -0.18937322  0.13648823  0.09224449]
[ 0.12971325 -0.05000473 -0.0335711  -0.05403132  0.14825784  0.0681079 ]
[ 0.07711183 -0.20212772  0.06529404 -0.14916664  0.11361177  0.01001107]
[ 0.00904357 -0.08557469 -0.04040274 -0.16166449  0.04173838 -0.05578163]
[ 0.13923852 -0.07789666  0.06619886 -0.06859637  0.09083957 -0.07242778]
[ 0.07893813  0.02185231  0.03756565 -0.1513575   0.16840315 -0.07518072]
[ 0.05582251 -0.03029726  0.02572493 -0.04448673  0.04905704 -0.07108796]
[ 0.1077856  -0.04227073 -0.03602773 -0.0447853   0.05435798 -0.06068297]
[-0.02066448  0.06767815 -0.04542245 -0.08602698 -0.00338089 -0.0836025 ]
[ 0.01761599 -0.07055528 -0.02843182 -0.05791686  0.01831555  0.02110996]
[ 0.11400361 -0.02983679  0.28789914 -0.12407526  0.03528298 -0.12765636]
layer 8 Activation
relu
layer 9 Dropout
layer 10 Dense
6 10
[-0.38435459 -0.87074769 -0.56753182 -0.58467251  0.54286623 -0.27147987
  0.39226225  0.00259649 -0.30837709  0.40290955]
[ 0.35172614 -0.83975339  0.25790915 -0.46140462 -0.50144064 -0.77692372
  0.01224211 -0.55676222 -0.61447918 -0.43869287]
[-0.75692195  0.66632408 -0.08916903 -0.79333836 -0.23601878 -0.53245199
  0.53633243 -0.73732531 -0.27908561 -0.73658103]
[-0.40557954 -0.17633067  0.47083884 -0.27241841 -0.45435175 -0.32685876
  0.43439677 -0.6743241   0.32257581 -1.00281954]
[-0.4403407  -0.32314265  0.40167201 -0.12703685 -0.43999836 -0.47961599
 -0.79252028  0.5627895  -0.21617799  0.38570616]
[-0.56483972 -0.6928466   0.08898441  0.31472415 -0.81041235  0.22440773
  0.15941423 -0.73216045 -0.1916886  -0.78030181]
[ 0.21831107  0.3327713  -0.75681162  0.10068317 -0.01688747  0.41174823
 -1.05046535  0.09254831  0.65066314  0.20617476]
layer 11 Activation
softmax
