layers 10
layer 0 Convolution2D
4 1 3 3
[-0.3256298  -0.46779475 -0.30260083]
[-0.06062149 -0.2502684   0.01864464]
[-0.33142877  0.64100778  0.30978486]
[-0.5259679  -0.15566111  0.17482166]
[-0.51048815  0.6567027  -0.07628474]
[ 0.39350307  0.40023682 -0.18724915]
[-0.10859224  0.11933719  0.3522363 ]
[-0.41860232 -0.28270733  0.22915839]
[ -3.79601261e-04  -4.41212207e-01  -1.22805297e-01]
[-0.40730855  0.04241448  0.45018372]
[-0.42626908  0.62119162 -0.10299335]
[ 0.00604255  0.01303994 -0.66049552]
[ -9.37003549e-03  -2.50851735e-06  -1.88571564e-03  -2.19634594e-03]
layer 1 Activation
relu
layer 2 Convolution2D
5 4 3 3
[ 0.17767401  0.3786321  -0.25644642]
[-0.27818435 -0.08947806  0.15520401]
[-0.3734391  -0.0927652  -0.33532411]
[ 0.22319914 -0.11495352  0.15283538]
[-0.00528049  0.36220288  0.26452544]
[ 0.08556837  0.05760075  0.38655347]
[-0.19485648 -0.37816888 -0.31659901]
[ 0.32907692  0.35466248 -0.01399148]
[-0.12564781  0.16470982 -0.38091883]
[ 0.19086102  0.12669167 -0.23949535]
[ 0.12266598  0.31156921 -0.26304579]
[ 0.31127372 -0.14022285  0.14577775]
[-0.17592351  0.01606662 -0.2454669 ]
[-0.02544275 -0.04026919 -0.08213982]
[ 0.2218214  -0.00809074  0.16785567]
[ 0.22557074 -0.11200257  0.31515491]
[ 0.1631182   0.30411407 -0.06051123]
[-0.02627691  0.30776298  0.10112833]
[ 0.02626517 -0.19455917  0.34396181]
[ 0.04543177  0.20363794 -0.19912165]
[-0.05456923 -0.07717641  0.01045941]
[-0.28549558  0.14175467 -0.35971782]
[-0.19958313  0.18216981  0.33391917]
[ 0.08902764 -0.07098393  0.27117109]
[ 0.37865779 -0.15275915 -0.07984941]
[ 0.15328735 -0.10989745 -0.35831022]
[-0.11565334 -0.01249677 -0.34681311]
[ 0.31874704  0.17361274  0.21063618]
[-0.30709448 -0.35253948 -0.18038946]
[-0.2854659  -0.20005107  0.1376304 ]
[-0.01273102  0.33765808  0.05979376]
[-0.24042855 -0.24006778 -0.12867944]
[-0.048189  -0.3244974  0.0996585]
[-0.33711728  0.17427707  0.12211414]
[-0.37882867  0.20335759 -0.12110451]
[ 0.21808317 -0.12459531  0.05859081]
[-0.24268264  0.2734023  -0.17634279]
[ 0.19270752  0.05210046  0.30266556]
[ 0.04265225 -0.36447546 -0.32182145]
[ 0.35834101 -0.02370144 -0.25996411]
[ 0.14364296  0.10434674  0.04716946]
[ 0.30970064  0.31340894 -0.1779522 ]
[ 0.16631921 -0.01700061 -0.17428003]
[-0.3353304  -0.23015784  0.1014382 ]
[-0.15954182 -0.0409823  -0.11571245]
[-0.0016326   0.11526101  0.33945614]
[-0.35340118  0.04042852  0.10488109]
[-0.25725827  0.18048517 -0.08616171]
[ 0.01136162  0.05907448  0.26498622]
[ 0.15606757  0.09903713 -0.34473944]
[-0.34714758  0.02130134  0.21779084]
[ 0.15763286 -0.23091029 -0.17758662]
[-0.21617244 -0.06903622  0.11749016]
[-0.17615217 -0.16739109  0.2141792 ]
[ 0.26553971  0.03256456  0.17617211]
[-0.05358866  0.2427498   0.25249407]
[-0.37160063  0.17502934  0.16659959]
[ 0.16821815  0.22038236  0.33452538]
[ 0.12084102 -0.23902102  0.14301112]
[ 0.37450844  0.31774673  0.27991217]
[-0.00119372 -0.00089797 -0.00157388 -0.00140679  0.00017459]
layer 3 Activation
relu
layer 4 MaxPooling2D
2 2
layer 5 Flatten
layer 6 Dense
720 128
[-0.07625888 -0.08279706  0.04197492  0.0392888   0.03505446 -0.05768956
 -0.06417261 -0.05713113  0.0543679  -0.01619768 -0.05398037  0.0221151
 -0.07770249 -0.0682847  -0.06532639  0.03187196  0.01972784  0.01241597
  0.05486191  0.04117938 -0.04598592 -0.06933017  0.00015746 -0.03134293
 -0.03903421  0.00158843  0.03392032  0.06850123 -0.00777346  0.00558673
  0.05195249 -0.01863583  0.04087723  0.08157729 -0.04866229  0.01319188
  0.03713169 -0.06164625  0.05265798  0.03989036  0.04111552  0.05779429
  0.04201738  0.040563    0.02387299  0.023506    0.05515514  0.05619467
 -0.04685403  0.02728307 -0.05396536  0.05409437 -0.07876095 -0.0783545
 -0.08084714  0.02449124  0.00532546 -0.07947915 -0.07966734  0.04166798
  0.04183856 -0.04518345  0.04786662  0.05791171  0.05559605  0.00927005
  0.03226753  0.04577242  0.04016436 -0.01563389  0.02882385  0.03312933
  0.05300369 -0.02534766  0.00399157 -0.05184949 -0.04164661  0.00697529
 -0.0333942   0.02439752 -0.07588896 -0.06571498  0.04334947 -0.00961398
  0.07901909 -0.06350154 -0.02391857  0.07124538  0.0565048   0.08044238
 -0.0512197  -0.02366047  0.0244324  -0.03750379 -0.07622855  0.01372131
 -0.05254737  0.04867475 -0.02012897 -0.02919452  0.02545401  0.02099208
 -0.03169892  0.04170901 -0.01628643  0.04457554 -0.07667697  0.06894937
  0.02462292 -0.00796883 -0.08040714 -0.04898574  0.01905916  0.07201257
  0.01753798  0.01033673 -0.01441341  0.05650456  0.01367273  0.0411526
 -0.04277138 -0.06486858  0.08239613 -0.07863414 -0.04685537 -0.01425214
 -0.04386319 -0.03945266]
[ 0.00938804  0.0184973   0.01798793  0.04403391 -0.04785043  0.06617829
  0.02697977 -0.07650486  0.01627701 -0.02068729 -0.02619328 -0.05067779
  0.036286    0.0803097  -0.03735429  0.02615903 -0.01055867 -0.0112777
 -0.06637386 -0.04176552  0.06189296 -0.06462211 -0.03086067  0.03614973
 -0.02025626 -0.03861686  0.07519457  0.06899783  0.01855064  0.08347086
  0.08186144  0.06358407  0.00022177  0.05239763  0.04981383 -0.05424027
  0.01807017 -0.067635   -0.04562088 -0.06006173 -0.03201068 -0.00783425
 -0.03424292  0.01001122  0.06251312 -0.04927886 -0.07441393  0.06864818
 -0.02689071  0.05742193  0.07268571  0.05209029 -0.07355825 -0.01636034
 -0.04096433  0.02423242  0.01227287  0.07162455 -0.01785298  0.05684034
  0.03068892 -0.02797438 -0.03632763  0.03454089  0.01199584  0.07927699
 -0.0471493  -0.04441798  0.03259311  0.02719213  0.07059033  0.07098966
 -0.04148454  0.00630352 -0.01761791 -0.06869175 -0.03817303 -0.06965766
  0.08018789  0.06728486  0.05612475  0.0806988   0.01639057  0.03025471
 -0.04683052  0.07166208 -0.07763523  0.02220514 -0.07743601  0.07966544
  0.0631878   0.00058782  0.01503556 -0.03687126 -0.0584101   0.05544723
 -0.06202031 -0.06187587 -0.02620479  0.08207641 -0.00280753 -0.0324028
 -0.04204434  0.04735975 -0.05951989 -0.01034739  0.0619216  -0.08177573
  0.04330834  0.08053594 -0.04488656  0.04047941  0.05050616  0.06245099
  0.03298056 -0.04693326 -0.07042904  0.00998813  0.00999349 -0.01684926
  0.00776029 -0.05612792 -0.05494702  0.03613337  0.08357583  0.05063352
 -0.05617159  0.04606853]
[-0.03525322  0.07191791 -0.00468552 -0.01700418 -0.06737704  0.00082319
 -0.06930358  0.03107975 -0.06090034 -0.00490154 -0.04247598  0.0840077
 -0.03799243  0.01433763 -0.08183499  0.01869051  0.00161238 -0.00291635
 -0.01635207  0.06548896 -0.05334264  0.03256817  0.04691493  0.03942783
  0.01801269  0.03371441 -0.0436066  -0.0700151   0.06911831  0.00599494
 -0.04352733  0.0578008   0.05307119 -0.04392591  0.06262813 -0.02938202
 -0.01962333 -0.01619749  0.00103665 -0.04363802 -0.00452115 -0.04008033
 -0.01816787  0.06522346 -0.02652331 -0.06005447  0.03796085 -0.03573325
  0.04579584  0.08361125  0.00980215 -0.05497004 -0.01092691 -0.0148317
 -0.08134873 -0.07139542  0.03151669  0.00837787  0.07275268  0.01596722
  0.03200735  0.00638838  0.01324736 -0.07758598 -0.04118948  0.01863022
 -0.07208543 -0.00782303  0.04072183 -0.07952087  0.06381993  0.04035845
  0.02167351 -0.03507734 -0.02435946 -0.06024186 -0.04115437  0.02943028
 -0.07955854  0.07313582 -0.07008754 -0.07949065 -0.05962088  0.06328455
 -0.05179729 -0.03850423 -0.00974091 -0.07323685  0.0487761  -0.03203893
  0.04968516 -0.01991137 -0.07222984  0.05402493  0.02880855  0.00416714
 -0.04358475  0.07499214 -0.00311147  0.07023568  0.04938944  0.02965755
  0.00300952  0.08068968 -0.07404038  0.06241557 -0.07614341 -0.0174082
  0.01202564 -0.00244691 -0.01189129 -0.01058973 -0.06556467 -0.06068923
 -0.0332078   0.06593699  0.04716968 -0.04776467 -0.06848083  0.0031894
 -0.05417317 -0.03217847 -0.05573537 -0.02572428  0.01849411  0.07989499
  0.02792047 -0.01545869]
[ -2.55715735e-02  -2.30660625e-02   6.72011822e-02  -2.62318943e-02
  -7.31889680e-02  -6.57024793e-05  -6.96839020e-02  -7.03394264e-02
   7.77779892e-02  -7.14038266e-03   7.40417838e-02   4.01654691e-02
   2.45711934e-02  -6.74564810e-03  -7.10306242e-02   3.59697938e-02
  -3.39165665e-02   4.59541529e-02  -3.28363776e-02  -7.69666396e-04
   2.14317497e-02  -5.53633720e-02   2.17931010e-02  -6.52256459e-02
  -2.42329817e-02  -1.67055111e-02  -4.40295562e-02   8.09320956e-02
  -7.36113414e-02   6.54638782e-02   2.26560608e-02   7.74681270e-02
   1.33153526e-02   3.53912488e-02   6.01551794e-02   5.05500250e-02
  -5.07258661e-02   2.83764047e-03  -2.77814530e-02   7.36281425e-02
   2.42518783e-02   3.27756279e-03   2.78294459e-02  -6.28251657e-02
   5.81459180e-02  -3.18645649e-02  -6.97516650e-02  -3.69398035e-02
   2.07495540e-02  -3.99019495e-02  -7.20520392e-02   7.88605660e-02
   2.93919537e-02  -5.87249920e-02   2.48239171e-02  -6.53389096e-02
  -5.66410720e-02  -6.39446378e-02  -1.48497876e-02   7.99137652e-02
  -6.09086603e-02  -6.26384988e-02  -5.57468086e-02   2.26838104e-02
   3.15978676e-02   2.00148933e-02  -7.97448680e-02   1.48339523e-02
  -7.66328871e-02   2.28618812e-02  -2.66973693e-02   7.76090473e-02
   6.36438578e-02   4.29191776e-02   5.49907908e-02   4.24355688e-03
  -1.65417492e-02  -6.56991601e-02   5.54882317e-05  -5.31879403e-02
   4.74940762e-02  -5.87402396e-02  -6.34865016e-02   5.78855202e-02
   7.38683864e-02  -8.60484689e-03  -5.90397380e-02   7.86557700e-03
  -5.85376732e-02  -3.24586406e-02   7.28195086e-02  -7.27069676e-02
  -7.59339482e-02  -6.61228076e-02  -6.70466805e-03  -4.87642400e-02
   6.84380829e-02  -2.47498639e-02  -1.84940230e-02  -3.27741913e-02
   1.38258925e-02   6.23321198e-02  -5.84563762e-02   3.61956470e-02
   4.43632528e-02   4.03728783e-02  -5.69051318e-02   1.10877538e-02
   1.55312242e-02  -7.59820491e-02  -1.41938706e-03   4.16540690e-02
  -7.73685798e-02   1.48899537e-02   1.78861711e-02  -4.86099385e-02
  -7.17665702e-02   2.48766709e-02   4.80346121e-02   1.28554367e-02
  -4.34575677e-02  -5.37662879e-02  -5.98863102e-02   1.12943693e-04
  -6.49199560e-02  -7.35234693e-02  -6.39481246e-02  -6.93629459e-02]
[ 0.02711958 -0.01488748  0.02464883 -0.0220529   0.03586268 -0.0011076
  0.04868224  0.07692855 -0.04644127 -0.04682863  0.00679122 -0.02922097
  0.04571274  0.05301132 -0.00517402 -0.07579345  0.06352467  0.06532338
  0.0743712   0.05265021  0.06616835  0.07552662  0.06411812  0.07765848
 -0.00844552  0.05667983 -0.04137099  0.04572086  0.07123697 -0.02477993
 -0.03211617  0.03926696  0.04450763 -0.00595167  0.01980158  0.0295926
 -0.08281115 -0.02243374 -0.04086957  0.05679717 -0.04708691  0.08083617
  0.08425436  0.01683673 -0.05429155  0.00548547  0.08210356 -0.02349009
 -0.05510906  0.06111036  0.05186638 -0.08366074 -0.01925088  0.04734989
 -0.00759014  0.03052847  0.05999384  0.02109805  0.04457159  0.02344073
 -0.07692264 -0.04334875  0.03388887 -0.06691165  0.04983849 -0.05419559
 -0.08187608  0.0022362   0.00474149 -0.00281693 -0.04326523 -0.06184744
 -0.01012537 -0.05645238 -0.08440581  0.07024061 -0.014334    0.06909601
  0.01339964 -0.02252569  0.01852618  0.06446326 -0.05447672 -0.04272881
 -0.00475922 -0.04708747 -0.00056625 -0.01550127 -0.02769689 -0.01846775
  0.08291326 -0.00033522 -0.07730191  0.08248115  0.05202903 -0.02900935
 -0.01316645  0.03950289 -0.02553912 -0.01342744 -0.02450493 -0.00755338
  0.00571596  0.07519203 -0.03699388  0.04228489 -0.05748578 -0.06220367
 -0.01240086  0.05519044 -0.03027245  0.06106069 -0.05058824 -0.02827978
  0.01455354  0.04069056  0.02901399 -0.0412072   0.03875894 -0.03348199
 -0.04549368 -0.06743229 -0.02445171  0.06251628  0.04916308 -0.05331067
 -0.03957933  0.0334779 ]
[ 0.08245113  0.01646721 -0.03584221 -0.07485604 -0.00696364 -0.07298194
 -0.05936067  0.05584176  0.06206771  0.03366518 -0.078702   -0.02937324
  0.07248724  0.07874557  0.02852485  0.04981983  0.00707751 -0.00888981
 -0.01582894  0.0233404  -0.07615341  0.01591413  0.05086164 -0.05824928
 -0.02541983 -0.07118638 -0.07239226 -0.04961104 -0.07945584  0.05323409
  0.02980637  0.02580835  0.07578176 -0.0059929   0.02538682  0.04371929
 -0.06193979  0.02890746  0.03941817  0.00423928  0.06958521 -0.00636338
  0.0625806   0.05459921  0.05511429  0.06921379  0.03509308  0.05840152
 -0.02255251 -0.00594617  0.043107   -0.03276835 -0.01750614 -0.04772958
 -0.01473059 -0.03822295  0.0062777  -0.01497117 -0.06289493 -0.07828178
  0.06229129 -0.04046705 -0.01035116 -0.02961179 -0.06563418  0.07719561
 -0.00340761  0.0479445  -0.03486886 -0.03292456 -0.0599705  -0.03368935
 -0.06221567  0.07957587  0.05554635 -0.01842993  0.05106128  0.06861562
 -0.08136535  0.00075459 -0.07825919 -0.00751304  0.05098757  0.03743775
  0.02893852  0.03334328  0.05091374  0.04121402 -0.00591909  0.04345975
 -0.02687927 -0.06645101  0.00232358  0.0338386   0.05738645 -0.082945
 -0.08029741 -0.0133841  -0.04193385 -0.02523011 -0.06556819  0.03517008
 -0.06402135  0.00436423  0.07739615  0.06005135 -0.06926628 -0.07325263
  0.01385421 -0.00068109 -0.03457179 -0.02182966  0.06809148 -0.05241568
  0.06293878  0.07374389  0.06827497 -0.02458733 -0.02209865  0.07363204
  0.07302465 -0.02671633 -0.05576372  0.03042351 -0.01194446  0.00391493
  0.02579029  0.07354084]
[-0.00217173 -0.01168469 -0.0415412  -0.00041559  0.00648444  0.00234148
 -0.06147823  0.0632323  -0.03048775 -0.08039498 -0.01213608 -0.0720688
 -0.07598691 -0.0175282   0.04796236  0.04847732  0.01647353 -0.05246865
 -0.02077622  0.01692405  0.07574542  0.05227431  0.07612292 -0.00280598
 -0.05337191 -0.08525331 -0.01689398  0.00432443  0.05547483 -0.08103609
  0.04816852 -0.03017385  0.0300651   0.00896267  0.08275027 -0.02630518
  0.04717608 -0.05142791  0.05083807 -0.00655067 -0.03833325 -0.07264198
  0.07245037  0.04416307  0.06010172 -0.04906438 -0.00496991 -0.07361787
 -0.06243781  0.07561894  0.02040472  0.00405349 -0.04261883  0.02477528
 -0.07261782 -0.01429864 -0.05092185  0.02502267  0.0093147   0.08643114
  0.00936281  0.05844653  0.05703276  0.061138    0.01446558  0.05089993
  0.03269363  0.0238608   0.0365587  -0.04062111  0.07838166 -0.04430797
  0.03913192  0.06183818  0.01249734  0.03072126  0.03591308  0.01657251
  0.05867485  0.08081283  0.0354628  -0.01677363  0.01885712 -0.07415203
  0.00733013  0.00017313 -0.07270303 -0.0409018  -0.03325954  0.0486076
 -0.07961452  0.07269263  0.0294062  -0.04008314 -0.06270243  0.01801023
  0.04020671  0.01505575 -0.0607582   0.08166879  0.0124711  -0.03905094
  0.01908679 -0.07252874 -0.08174804  0.04843793 -0.03949683  0.07474065
 -0.07143435 -0.00430883 -0.03982039  0.02123011  0.01192541 -0.01948095
  0.00512503 -0.05781019 -0.0439369   0.0587272   0.06447532  0.0834396
 -0.00857907 -0.07313562 -0.02795605 -0.06923166  0.04594624  0.05169826
 -0.07883035  0.02397911]
[ 0.03769027 -0.04303573 -0.00749738  0.08788677  0.05836305  0.02972353
  0.0230765   0.05757552 -0.02420531 -0.01210027  0.08116732 -0.00998847
 -0.02826109  0.0248342  -0.00343661  0.03907912 -0.02300574  0.0160873
 -0.04692589 -0.06215648  0.06332483  0.07959686 -0.03520483 -0.0311191
 -0.03572622  0.02924964 -0.05627838  0.03074733  0.01939283 -0.0673853
  0.01681932  0.0432859  -0.0780324  -0.0782917   0.08307779  0.02952456
 -0.07720155 -0.01314131  0.0079084  -0.01834513  0.02034295  0.05223797
 -0.01172402 -0.04588874 -0.00189483 -0.08650845 -0.0545854   0.02731451
 -0.03590374 -0.03151041  0.01213949 -0.01075385 -0.05908852  0.08562231
  0.0748852  -0.00819952  0.0363294   0.0291214   0.0383293   0.00883568
 -0.03630751  0.00680144  0.07625443  0.03929812 -0.08296528 -0.01956769
 -0.01371565  0.06343776 -0.01174496 -0.02377422  0.040544    0.06678054
 -0.06207119  0.08959302  0.07108201 -0.02166311  0.00132477 -0.05681241
  0.07384764 -0.01686138 -0.04809897 -0.05135532  0.01013928  0.06760533
 -0.02367061  0.02340963  0.05805934 -0.07396453  0.04684389  0.06037651
 -0.03771505 -0.0502901   0.01248503  0.01008271 -0.05290441 -0.00055781
  0.00965104 -0.04936339 -0.02304693  0.01441037 -0.04799477 -0.0094135
 -0.00938984  0.07037485  0.03309781  0.02580922 -0.03946748  0.02950929
 -0.08226673 -0.00985536  0.08065212 -0.02952877  0.07610459  0.04463013
 -0.03728284 -0.04341625 -0.05859051  0.00127391  0.00836377 -0.01585934
  0.05808675  0.05517282  0.00723538  0.03119391 -0.001996   -0.00589304
  0.01919464 -0.05249144]
[-0.05936424  0.01169518 -0.02816621  0.00124335 -0.03796485 -0.03956382
 -0.01220864 -0.08313813 -0.03977924 -0.01868255  0.00445391  0.07193172
  0.00712634  0.05699294  0.02313124 -0.01933735 -0.08562244  0.07067851
 -0.02006814  0.06747209  0.05312752 -0.07388672 -0.05643509 -0.03680698
 -0.00948125  0.02545844  0.06542652 -0.01845794  0.04267329  0.06925566
 -0.0617734   0.07240737  0.04600473  0.03698821 -0.01091894 -0.06772561
 -0.04016794  0.02184529 -0.0805423   0.04100797  0.07891472 -0.06389941
  0.0308527   0.05581961  0.02916647  0.05520317  0.06832417  0.05237516
 -0.00661912  0.02046067 -0.0001305   0.01776503  0.00241941  0.02457051
  0.04775079  0.07351892 -0.0029285  -0.00547777 -0.04340109  0.07201302
  0.05585276 -0.01528545 -0.0529786  -0.0086525   0.07499856 -0.02439911
 -0.03046962  0.06525281  0.06688456 -0.01646311  0.07217141  0.05136096
  0.01222145 -0.03672263 -0.04476259 -0.0218151   0.0815364   0.01722619
  0.0476689  -0.01311923  0.06027281  0.07489784  0.0299175   0.00570038
 -0.05317424  0.05363643  0.0577079   0.08055829  0.05814219 -0.01458926
 -0.03329269 -0.00549172  0.07961503  0.05164913 -0.06554853  0.06140834
 -0.01652022  0.08451661  0.09008886  0.03729251  0.06291492 -0.0475641
 -0.02536197  0.05594029 -0.03332167 -0.00470735  0.04772657 -0.00981009
  0.01138758  0.01286006  0.06473661  0.04931124  0.04917298 -0.03055756
 -0.00529119  0.07810039 -0.06057335  0.03062823 -0.04741208 -0.03977894
 -0.00815901 -0.0417375  -0.00079294  0.03507826 -0.01960451 -0.06485684
  0.01886479  0.06890887]
[ 0.03990141  0.02527399 -0.06388697  0.01432643 -0.04039896 -0.01783815
 -0.00045307 -0.03267787  0.07883587 -0.06092244  0.02241919  0.07908197
 -0.01329842  0.00344527 -0.05607937  0.08047576  0.04635189  0.01856848
  0.03111346 -0.07856024  0.02358632  0.03096727  0.06159486  0.02438775
 -0.00016075  0.06645225  0.04470692 -0.04361208  0.04235858  0.04125582
  0.01219012  0.01224127 -0.01610421  0.06608593  0.06112628  0.03193209
  0.07304307  0.05428157  0.00654794 -0.04397529  0.00981375  0.02421068
  0.0534898   0.004964    0.07869756 -0.05021674 -0.04641917  0.02250416
  0.01828904 -0.02994968  0.02340679  0.07853905  0.06957329  0.04918922
 -0.05107468  0.06211522  0.01218768  0.04362576  0.00243169 -0.06782945
 -0.06557714  0.0368164   0.0230948  -0.04259743 -0.07147787 -0.06366254
  0.04460172 -0.07827362  0.02490075  0.07368309 -0.06670541  0.07230605
  0.02999173 -0.02164384 -0.05250709  0.02218198  0.00109531 -0.0174088
  0.00310581 -0.00136517  0.07243692 -0.03826616  0.05845172  0.07326525
  0.04401202  0.07554401 -0.05552299 -0.07922307 -0.00112082 -0.04900664
 -0.03313177  0.04417847 -0.01232718  0.03496909  0.02954768  0.06166907
 -0.01962095  0.07604168  0.07911851  0.00111082 -0.04132053 -0.05146603
  0.00095271 -0.03810903 -0.06522517 -0.07538766  0.03106718  0.01022825
  0.00791577 -0.06192649  0.05905003 -0.06102519 -0.02890357  0.03835832
 -0.00939734  0.06915738  0.04323683  0.03629971 -0.0440346  -0.03984037
 -0.02319054  0.07053132  0.0270771   0.05902343 -0.00528079 -0.06551328
 -0.02963926  0.03530667]
[-0.05472253 -0.0717115  -0.08383851 -0.05999932  0.02399404  0.00305765
 -0.01789248 -0.06770714 -0.04888394  0.0680306  -0.05227289  0.00860335
 -0.01739961 -0.05098635  0.05204601 -0.05168771  0.07288557 -0.02116904
  0.0364895  -0.06933666 -0.07407263 -0.04878732 -0.00298604  0.07433557
 -0.05990031  0.08403867 -0.00366533  0.02844781  0.00117387  0.01090821
  0.03915819 -0.03867422  0.0468086  -0.04078214  0.04630122  0.03379291
 -0.0017956   0.071054   -0.0628866  -0.08177649  0.05791549 -0.07110358
  0.07374567 -0.07131154 -0.03250355 -0.05412871 -0.06250425 -0.0499905
  0.03663637  0.02595863  0.00134478 -0.01343021  0.04370403 -0.00263127
  0.06959751  0.04582687  0.03610723 -0.06450036 -0.02637512 -0.02133098
 -0.00611506 -0.03476375 -0.03652564  0.07837237 -0.017649    0.03405778
  0.07728631 -0.0152676   0.02761489  0.05834113 -0.04074359 -0.04873957
 -0.07174703  0.00904244  0.03422817  0.04170068  0.02267912 -0.07390137
 -0.08195157 -0.04583464 -0.03315644  0.00607527  0.0101154  -0.03003329
  0.02827101 -0.05280292  0.01961143 -0.02453161 -0.03315573 -0.04356071
  0.02788119 -0.0565737  -0.07194161 -0.05540064  0.07211304  0.02891002
  0.01611639  0.03567274  0.02670226  0.06189553  0.06937079  0.05482827
  0.01306988  0.00509073 -0.05908686  0.01637641 -0.01799712 -0.0759693
  0.04379735  0.02797843 -0.00779885  0.02867831 -0.0119874   0.04501164
  0.07091688 -0.03120935 -0.03424364 -0.00771203 -0.04761212 -0.04703749
  0.01625488 -0.03405908 -0.0107373   0.05694837  0.03178367  0.05368065
 -0.05012174  0.05994894]
[ 0.00717777  0.07175393 -0.03466425  0.06972522 -0.07090752 -0.03910308
  0.05965673  0.01900069 -0.00351209  0.03171004 -0.00514145  0.03600511
 -0.00883171 -0.05896327  0.00914262 -0.01852939  0.02093806  0.08070467
 -0.06404979 -0.00537203 -0.06197864 -0.00521171 -0.04690602 -0.01818751
  0.06385985 -0.03126345 -0.0481972   0.06377161 -0.0341667  -0.06298847
 -0.00449183  0.03759476  0.04264726  0.05390665 -0.08386151 -0.06868549
 -0.08283985  0.04200125  0.06051054 -0.01028433 -0.07968844  0.06969105
 -0.01483797 -0.01429702  0.03264607  0.07342904  0.01956483  0.03222631
  0.03957592 -0.00051217 -0.02369532 -0.01943504  0.05686095 -0.06694842
  0.0558622  -0.02784677 -0.02397883 -0.02015252  0.05570156  0.03649177
 -0.0678154  -0.02604081 -0.07791438  0.04745752 -0.00045702  0.03191228
 -0.07149321  0.06895465  0.02261783  0.06579757 -0.05585568 -0.02770536
 -0.04625323  0.00411105  0.03577328 -0.02615686  0.06297575 -0.08007438
 -0.03475847  0.00059734  0.03172697 -0.03170051  0.07530054 -0.04306271
 -0.02595547 -0.02608027 -0.02740945 -0.07453686 -0.04443659 -0.01256582
 -0.04395938 -0.0356437   0.04750576  0.0270858   0.00441027  0.02686761
  0.07045603  0.06246447  0.07169536 -0.06700607  0.03648367  0.04537606
  0.07698324 -0.07970796 -0.0188878  -0.04516282 -0.06316063 -0.06888032
  0.00581355  0.0608657  -0.04488194 -0.0147812  -0.04593052 -0.01036964
  0.03280593  0.03319905  0.03458742 -0.02313789 -0.07425334  0.02049394
 -0.01650403  0.02722637 -0.0395643   0.07683905 -0.04168788  0.01051535
  0.01771184 -0.01223064]
[ 0.05325077  0.00857285  0.00242211 -0.06551798 -0.0377416   0.05034715
  0.06004231 -0.04772038  0.08395082 -0.07599464 -0.02056746 -0.07275441
 -0.01935306  0.08310499 -0.06794307 -0.06312511  0.0697264  -0.02470194
 -0.02701886 -0.01230048  0.02754441  0.0121408  -0.03736841  0.04024086
 -0.03327075  0.06078079  0.01962144 -0.080553   -0.03891071 -0.05082648
 -0.02363863  0.02367058 -0.03005548 -0.07224757  0.07027935 -0.06967556
 -0.06965774  0.05586991 -0.08219934  0.08367593  0.05700335 -0.03413285
 -0.02489162  0.07263669 -0.06352263  0.00891763  0.04940593 -0.06296497
 -0.00910927 -0.007266    0.07670407  0.0034232   0.08289123 -0.07450775
 -0.03812414 -0.03624775  0.03908283 -0.07468107  0.04356917  0.05314387
 -0.00548943 -0.0438733  -0.03255672  0.03452878 -0.00685179 -0.04638952
  0.03762902  0.05109062  0.06938422  0.01689547  0.04049284 -0.07478502
  0.03399554 -0.02343103 -0.08363146  0.04418126  0.06515115 -0.04309056
 -0.06534059  0.05538135  0.0161223  -0.03775146  0.0697138  -0.08338588
 -0.01325288 -0.03926251  0.04380842 -0.06264362  0.03881113 -0.04738067
 -0.08385185  0.03596018 -0.00849076  0.07250195 -0.05647627  0.01247155
  0.016784   -0.02713439  0.03605343  0.02905489  0.06140999 -0.07852621
  0.02247128  0.04913936  0.078518   -0.07855873 -0.01747208  0.02858842
  0.05858374 -0.03269184 -0.03046712  0.04773805 -0.06439038  0.01942312
  0.06392819 -0.00858913  0.00625212  0.01097249 -0.05810429  0.04643464
  0.03506217  0.05163972  0.05779712  0.01450617 -0.05828848  0.03493507
 -0.07815664  0.03068674]
[ -4.18574810e-02  -6.88998960e-03  -2.34466512e-02  -7.54628330e-02
   5.73236868e-02   3.97734195e-02  -1.74225941e-02   4.75538187e-02
   6.93118386e-03   7.25048855e-02   5.59812561e-02  -6.35798499e-02
  -2.81898188e-03  -1.66006871e-02   6.23188540e-02   7.40147606e-02
  -4.60202433e-02  -6.50205836e-03  -6.92012459e-02   3.30618694e-02
   5.24886809e-02  -6.04022667e-02  -5.93212508e-02   1.75968707e-02
   7.32959285e-02  -1.86204221e-02  -3.59716155e-02  -1.54942721e-02
   6.99391961e-02   2.86110416e-02  -3.41769308e-02   1.69773139e-02
   2.91409418e-02  -2.59465445e-02   4.48763706e-02   7.53122643e-02
  -5.31281978e-02  -4.27951440e-02   1.44739235e-02  -3.67997549e-02
   6.65480793e-02   4.39780913e-02  -3.76322977e-02   7.36026540e-02
   2.37965807e-02   5.33641800e-02  -3.88710340e-03   4.97742295e-02
  -3.11603975e-02   3.91712599e-02  -1.92383502e-03  -5.46622872e-02
  -8.05972815e-02  -8.10060650e-02   7.24501237e-02   1.69534702e-02
   4.88370433e-02   4.37011756e-02  -5.78831695e-02  -1.23919477e-03
   5.77178299e-02  -7.39040673e-02  -6.67374134e-02   2.76770797e-02
   6.24042638e-02  -7.08631948e-02   6.13463521e-02   1.66972838e-02
   6.32341504e-02  -3.34615856e-02  -3.25385146e-02   7.72706047e-02
  -3.28923687e-02  -2.62426939e-02  -3.70082147e-02  -7.63058513e-02
   3.93982902e-02  -1.09028043e-02   4.59970273e-02   4.00995761e-02
   3.87371257e-02   5.12467101e-02  -6.25969321e-02   2.23025144e-03
   2.35249177e-02   6.57446012e-02   5.12628071e-02  -3.65072452e-02
  -4.66088615e-02   6.83267415e-02  -3.38020213e-02  -4.12819348e-02
  -7.42869005e-02   8.41422752e-02   5.08846007e-02   4.83126715e-02
  -7.89117292e-02   5.83960395e-03   5.73480641e-03   4.73055728e-02
   5.82003482e-02   5.92166521e-02  -4.49554529e-03   4.95893434e-02
   7.94504285e-02  -7.49455169e-02   6.21757954e-02  -2.21062414e-02
  -1.18031856e-02  -8.31903443e-02   2.60957293e-02   1.41498810e-02
   8.30544159e-02   4.01664823e-02   1.92602654e-03  -8.53666570e-05
   4.22479734e-02  -6.80103377e-02   7.81011134e-02  -5.57548143e-02
  -3.43388058e-02  -6.24560937e-02   9.10720788e-03  -5.31730913e-02
  -4.34665605e-02  -8.08125958e-02  -5.65751418e-02  -1.39348283e-02]
[  7.36142392e-04  -4.22631390e-02   1.85997523e-02  -3.26572806e-02
   3.91785726e-02  -6.44760067e-03   6.09596334e-02   5.09167351e-02
  -4.01684083e-02   2.77899988e-02  -2.01491471e-02  -3.36745232e-02
   5.06904908e-02   3.29086743e-02  -6.62641525e-02  -7.98107237e-02
  -4.53240238e-02   7.85678998e-02   4.41305675e-02   4.68241461e-02
  -8.15080181e-02  -4.57648858e-02  -5.04112504e-02   5.85336164e-02
   7.24203810e-02  -6.84418082e-02  -1.16094772e-03   4.12573554e-02
   3.85702997e-02   2.93568596e-02  -1.91003941e-02   3.64525616e-02
   6.24806061e-02   5.11542056e-03  -3.53642516e-02   6.06440976e-02
   6.67332709e-02  -2.82667633e-02   8.20437968e-02   1.47562111e-02
   7.04494640e-02  -1.28572099e-02   2.13113204e-02  -3.33353579e-02
   1.32291084e-02  -4.96341102e-02  -4.98303808e-02   3.55108045e-02
  -3.55637074e-03  -1.19993938e-02  -5.28011322e-02   7.83429965e-02
   3.98384333e-02  -3.74545231e-02  -5.26508596e-03  -5.50113954e-02
   6.73813671e-02   4.10396829e-02   2.75672562e-02  -7.94597864e-02
  -5.15648350e-03  -7.78340548e-02  -8.36098790e-02   5.27051203e-02
  -4.71806936e-02  -1.89805478e-02  -6.87233061e-02   5.43419505e-03
   6.39041290e-02  -1.35306297e-02   6.28284439e-02  -6.83650095e-03
   7.71499574e-02  -3.31615619e-02  -6.27752021e-02   6.89367997e-03
  -4.52034436e-02  -4.01633941e-02  -1.38545001e-05  -7.58670419e-02
  -5.13332747e-02  -4.86191362e-03   3.89913805e-02  -1.96698941e-02
   3.96735668e-02  -8.38637650e-02  -1.69585142e-02  -4.36025597e-02
  -7.79170245e-02  -7.38542750e-02  -2.15138346e-02  -1.11797173e-02
   2.38096658e-02   5.49854934e-02  -5.84864914e-02   4.24461551e-02
  -4.72999401e-02  -6.52250648e-02   7.54971579e-02   4.06378061e-02
   6.43749908e-03   5.13989888e-02   2.68538836e-02   7.26070115e-03
  -3.72292437e-02  -1.25837000e-02   4.95577119e-02  -7.93895870e-02
   3.72844078e-02   3.46958116e-02   1.39321191e-02   4.08887826e-02
   2.57241055e-02   5.78795969e-02  -2.44414546e-02   2.77166013e-02
   3.52619030e-02  -6.18615486e-02  -6.27321675e-02   7.09113851e-02
  -4.86825146e-02  -3.00434195e-02  -5.76239005e-02  -2.72994731e-02
   4.75756824e-02   3.44638601e-02   3.55664752e-02   5.83103262e-02]
[ 0.0806447  -0.02215498 -0.03512552 -0.01355056 -0.00430822  0.08047239
  0.0419672   0.01375544 -0.06056508  0.0677539  -0.04920561  0.07270352
 -0.02832956 -0.0312773   0.00035848 -0.04498059  0.06050313  0.06522316
  0.05275459 -0.03653514  0.00574882  0.06237106 -0.051744   -0.04082328
 -0.07354485 -0.0696246  -0.03201313 -0.01144035  0.05674298  0.03423828
  0.07273488  0.044225    0.02550392 -0.05011863 -0.04060984  0.00904563
  0.05364307 -0.04723615 -0.03891973  0.0262165   0.01269718  0.03566138
  0.0592739  -0.06346083 -0.04953949 -0.02317429 -0.06610514 -0.04081082
 -0.06791671 -0.04568886  0.03622732 -0.0271668   0.0023308   0.03269484
  0.05533864 -0.0741822   0.02154829 -0.05164982  0.07004718 -0.01645627
 -0.00226196 -0.00915548  0.05368445  0.04387477  0.01581965  0.06623086
 -0.04495006  0.01477143  0.00690547 -0.07081722  0.00519885 -0.07573152
 -0.00908985 -0.04720056  0.04256109  0.00131486 -0.00876226  0.01412019
 -0.07224345  0.04511425  0.06052939  0.04481684  0.01991399 -0.08581305
 -0.06926338 -0.08240708  0.01546     0.00748944 -0.04189156  0.05128476
 -0.05642242 -0.01519775 -0.01853784  0.06351133 -0.08442565  0.01614392
  0.02908509  0.03150479 -0.07359534 -0.06007855  0.01521615  0.03504482
 -0.04732141  0.05599935 -0.05499356 -0.04668852 -0.0706469  -0.05322366
 -0.01351412 -0.05850935  0.01055995  0.03921657 -0.02950214 -0.00057799
 -0.01629783 -0.06332643 -0.06889276  0.06654261 -0.07750102  0.00292485
 -0.04033385  0.06552938 -0.02088714 -0.04996268  0.0540884  -0.00963893
 -0.04671689  0.01507747]
[-0.05625752  0.06804518  0.00539409 -0.00679172 -0.05615254 -0.05713887
 -0.03684997 -0.03172108  0.00050022 -0.04420586  0.0133539   0.06399718
 -0.05857538  0.04300819  0.02287792 -0.02661486  0.01152084  0.05407598
 -0.07570559  0.03619213  0.06508271 -0.04228831 -0.03364132 -0.07231399
 -0.06265186  0.01615166  0.07253511 -0.05742785  0.04023337  0.00821811
 -0.03977651 -0.01271921  0.00145648  0.02900542 -0.03831235 -0.00290155
  0.06776232 -0.05829646 -0.01184059  0.03812288  0.04393366 -0.01712999
 -0.01732935 -0.00578101 -0.04220909  0.01529426  0.01967402 -0.0084207
 -0.01064196 -0.0668708   0.05641679  0.02166365 -0.04924184  0.07887672
  0.02721009  0.01073946  0.01100558  0.06773593  0.0796217  -0.0409089
  0.02810307 -0.06812862  0.01040049  0.04260534 -0.04762695  0.04221137
  0.08466246 -0.03174995 -0.00763588  0.08158103  0.05449385  0.04686327
  0.02982083 -0.04913121  0.01886641 -0.00306671 -0.04156289 -0.02953461
 -0.01830652 -0.06634037 -0.08100597  0.0671088   0.02932481 -0.04230335
 -0.04097028  0.01767304 -0.03036079  0.00625399 -0.04396056  0.06422675
  0.06552884  0.03654177 -0.00836392  0.03685639 -0.04593941  0.04636098
  0.04136587  0.00888694  0.07740197  0.0125991   0.00123401  0.04151699
  0.05792436 -0.02514507  0.00127109 -0.04117194 -0.04831406  0.045222
 -0.0196833  -0.04759013  0.07945158 -0.01255864 -0.0719922   0.03671574
 -0.07072361  0.01087157  0.02495301  0.01381971  0.0055492   0.00328382
 -0.05093851  0.0256275  -0.0586555  -0.06375843 -0.05890423  0.03518009
 -0.04995975 -0.00341637]
[-0.07148499  0.08033202 -0.04450822  0.05920247  0.05681291 -0.02590641
  0.05465488 -0.01912225 -0.05472315  0.06116463 -0.03660174  0.02304052
  0.01949026  0.0562175  -0.06322081 -0.02915586  0.0259807  -0.02391171
  0.01618971 -0.0713044  -0.00909372 -0.06997993  0.07720274  0.05248345
 -0.07001454  0.00640836 -0.0832529   0.04382035  0.02413537  0.05794397
 -0.05178675 -0.02034369  0.03133374  0.03008521 -0.00331331 -0.03535018
  0.02990576  0.07812881 -0.07098044  0.00364518  0.00261777  0.03468079
  0.07860223 -0.04461903 -0.03876173  0.03922959  0.06979038  0.0191363
  0.05716232 -0.04223209  0.0378359   0.02088741  0.02915227 -0.06561814
  0.06728721  0.00843358 -0.03290386  0.029842   -0.02349912 -0.0532049
 -0.03979962  0.00236011  0.03835208 -0.04101001  0.0016916   0.07406083
 -0.07757149 -0.07935692 -0.01998954 -0.0474643   0.01966325 -0.04392758
  0.01685639  0.0639022  -0.06933109  0.00322015 -0.08008716  0.03953704
 -0.05640906  0.02829752 -0.08209768  0.07727926 -0.01432633 -0.06092029
  0.02858759  0.06915487 -0.03970157 -0.0127002   0.05817316  0.04309191
 -0.01348992 -0.02765044 -0.07250027 -0.00037874 -0.08108262 -0.0293208
  0.00379384  0.03492829 -0.06318297  0.0206161  -0.05053542  0.07436629
 -0.05975194  0.00304773 -0.08444532 -0.00533071 -0.00914018 -0.05707242
 -0.02711285  0.07025607  0.04446096 -0.02337209 -0.06460323 -0.0294021
 -0.0496725  -0.00964336 -0.0813835  -0.08244532 -0.01707988  0.02298368
  0.01445467 -0.03863554  0.05233264 -0.01999111 -0.02225294  0.04450863
 -0.01846661  0.05278526]
[ 0.08293387  0.00041289 -0.0045126   0.05948024 -0.04008505 -0.04782784
 -0.01411676  0.0478928   0.00565102  0.06326447  0.04578074  0.04342915
 -0.00439869 -0.04521014  0.06221664  0.0691195  -0.08019276  0.00824778
 -0.062984    0.03331918 -0.06528191  0.07190903  0.00091638  0.03911189
  0.05908966 -0.04846525 -0.00597149 -0.03084856 -0.02516351  0.05271681
 -0.05536525  0.04695316 -0.01611884  0.01114343  0.05371734  0.06455466
 -0.06925644 -0.08565702 -0.08029976  0.02422316 -0.07445028  0.05650365
 -0.01275688 -0.02516274  0.05865454  0.03377964 -0.00029848 -0.07238437
  0.00488046  0.04636278  0.03646593 -0.07752528  0.06458538  0.02916493
  0.03386017  0.04685465 -0.0333419   0.02861031 -0.01442797  0.00117311
  0.04133736  0.07887795 -0.0259029   0.03749618  0.07835691  0.06510827
  0.07321575 -0.06683845 -0.05517709  0.04127532 -0.00593447  0.03916881
  0.03527363  0.06903591 -0.04370315 -0.07228927 -0.07831668  0.07382778
  0.01340314  0.07901575  0.05736443  0.04485046  0.03284608 -0.07429192
 -0.08461547  0.08767224 -0.04864137 -0.0596392  -0.00833338 -0.02372334
 -0.05569684  0.0711765   0.00099317 -0.00908009 -0.06362201 -0.05224041
 -0.01588641  0.03566074 -0.04764845  0.07582275  0.07116953 -0.03726389
  0.04144456  0.07392698 -0.01526637 -0.01343818 -0.05160138 -0.05924152
 -0.02457769  0.00066367 -0.06430385  0.00435826 -0.03869279  0.05826289
  0.02301073 -0.01510312  0.00324776  0.05177058 -0.01070762 -0.05167705
  0.05302957 -0.0577052   0.05614378 -0.06781897 -0.02971753  0.00917172
  0.06409164  0.02123924]
[ -6.03059269e-02   6.31191656e-02  -6.75178915e-02  -5.83761036e-02
   7.67812282e-02  -5.54243848e-02  -2.26531085e-02   8.90360121e-03
   3.96778136e-02  -4.89760339e-02   7.42472932e-02  -1.65992882e-04
  -5.18345237e-02  -8.89586098e-03  -5.19882403e-02  -5.58917448e-02
   3.29775177e-02  -7.36894682e-02  -5.20192720e-02  -5.45340031e-02
   2.67921686e-02   6.16874471e-02   5.93482703e-03  -4.26837131e-02
   2.25211531e-02   6.41114488e-02  -7.86702558e-02  -5.17525338e-02
   2.73045637e-02   5.28080091e-02   1.07041746e-02  -5.57498112e-02
   1.13529172e-02   3.95968556e-02  -4.22585160e-02   7.58224633e-05
   1.93571504e-02   4.23770174e-02   3.94754373e-02  -2.64195278e-02
  -5.99750727e-02  -1.38159152e-02  -4.05597836e-02  -6.04042150e-02
  -6.04547299e-02  -4.66859415e-02   5.83437607e-02   9.63111222e-03
  -2.66422760e-02  -2.28638388e-02   1.33980336e-02  -6.61701784e-02
   5.04448712e-02   5.53688370e-02   6.43453300e-02   2.97820549e-02
   4.93683526e-03   7.74468780e-02   2.71812566e-02  -6.55993149e-02
   7.38743693e-02   5.04813269e-02  -5.05457409e-02   1.19558582e-02
   7.93040320e-02   1.29268188e-02   6.84666485e-02  -4.26445827e-02
   3.47894393e-02  -6.49013445e-02   4.55400161e-02  -8.24841782e-02
  -1.46968439e-02   7.06973001e-02  -2.05168407e-02   8.13432038e-02
   1.51340254e-02  -1.28596686e-02   4.32399623e-02  -6.14733845e-02
  -4.50213440e-02  -7.66125545e-02   4.60789818e-03   1.30124725e-02
   6.45549744e-02   1.23618785e-02   3.15168612e-02  -2.52269115e-02
  -8.47129151e-03  -2.34814472e-02  -5.12826070e-02  -4.67393883e-02
  -5.11438660e-02   6.78234622e-02   8.25301856e-02   2.40692217e-03
   4.99353111e-02  -7.47723365e-03  -3.45802121e-02  -7.24441856e-02
   8.77925009e-02   2.70539094e-02  -3.37616401e-03   6.01096340e-02
   2.83118784e-02   1.75365005e-02  -2.16458216e-02  -1.65291578e-02
   3.65223996e-02   5.96892880e-03  -6.81243092e-02   4.43943404e-02
   5.43852933e-02   4.51666526e-02   5.30662760e-02  -2.64247656e-02
   1.62582994e-02  -4.46426645e-02  -4.99899089e-02  -3.87964398e-02
   6.59389421e-02  -5.20144925e-02   4.10051197e-02   1.01126265e-02
   7.05249831e-02   7.51317367e-02   7.56275281e-02  -5.45827337e-02]
[ 0.06890032 -0.07058857 -0.03137571 -0.07572907 -0.01156662  0.03792724
  0.08431859 -0.03558911 -0.06275097  0.05612828 -0.06374101  0.01774392
 -0.07915229 -0.02485991  0.0413417  -0.06615207  0.01147891 -0.05614396
  0.04859656  0.06540956  0.02905496  0.04302727 -0.01281241 -0.03373238
  0.00795805  0.03037338 -0.05130592 -0.03626925  0.03303456 -0.07536946
 -0.07456491  0.02553849  0.05220367  0.02380609  0.00211604 -0.04029666
 -0.05379615 -0.06438906 -0.04132662  0.00310061  0.07674955 -0.05849342
  0.02032112  0.03636476  0.06188192 -0.06977927 -0.00664067  0.02016004
  0.07056139 -0.0294607  -0.01244728 -0.08448189  0.01749916  0.03642919
 -0.04349362  0.07074881  0.01377065 -0.0772952   0.00339255  0.02908098
 -0.01103458  0.00209452  0.07450393 -0.05213456  0.04253819 -0.00593711
  0.03370205 -0.00273768 -0.03778916 -0.04746198  0.0702472   0.06559547
  0.03844348  0.0224236  -0.05635533  0.01180671 -0.07138897 -0.02202575
  0.04281639  0.03506796 -0.07125929 -0.04976742 -0.05374302  0.0603336
  0.06372044 -0.04537585 -0.02213771  0.02624023 -0.0321117   0.06475177
 -0.05690841  0.03314229 -0.06395075 -0.04828826  0.00177477  0.07030493
  0.05380167 -0.03572865  0.03672711 -0.06190246 -0.00093968  0.0429094
  0.06381428  0.07830273  0.05262941  0.01453889  0.06051459 -0.04279891
  0.01839451 -0.00626998 -0.05526667 -0.02391076 -0.05812681  0.06922784
 -0.03580354 -0.08417697 -0.02825462 -0.04908802 -0.0334448  -0.06795201
 -0.0678153   0.0246541   0.01352729  0.02264999 -0.02875894  0.0027
  0.03375525  0.0170737 ]
[ 0.03255306  0.08059835 -0.04361796 -0.06875905  0.00764529  0.05922521
  0.08094667 -0.0166742  -0.05792534 -0.05303986 -0.08043399 -0.06297182
  0.04491747 -0.04559791 -0.01214547 -0.08081099 -0.07455378  0.01200315
 -0.02207671 -0.01939453  0.0477449  -0.02904702  0.01715513  0.05333553
  0.00104013 -0.01899977 -0.01002926  0.06261522  0.0629719  -0.02901861
  0.03797392 -0.00446813 -0.00051145  0.03340553  0.04294177 -0.0031747
  0.01698859 -0.04833117  0.01676767 -0.01945423 -0.07978756  0.04955487
 -0.07414327  0.00778356 -0.02341651 -0.07831901 -0.07422583 -0.06952226
  0.05167176  0.00425934 -0.00051237 -0.08105372  0.08003808 -0.07235219
  0.0798873   0.0059925  -0.07465093  0.07638592  0.07283434  0.08418739
  0.07126629  0.0841926  -0.06325922 -0.05397812  0.01678362 -0.07294673
  0.05237861 -0.04611129 -0.02084812 -0.00690535  0.0495367   0.02273432
  0.00571789  0.0767509   0.00610655  0.04546645 -0.00960517 -0.02307048
 -0.07091494 -0.06182091  0.00423972 -0.03816493 -0.08431851 -0.05577495
  0.02281172 -0.06472659  0.05058259 -0.07901139 -0.0434085   0.04014517
 -0.06691925  0.07054962  0.03901962  0.06292793 -0.05501823  0.00073342
  0.06441902 -0.03663534 -0.04287676  0.01111305  0.06113361  0.08000733
 -0.01793999 -0.03718741  0.01284522  0.06066609 -0.04808891  0.06922384
 -0.06552395  0.05610327 -0.06844455 -0.05955558  0.07566004  0.0473967
 -0.08457384  0.03554388 -0.07612002 -0.01174009  0.03600573 -0.00354381
  0.08524745 -0.06234636 -0.04994794 -0.06162518 -0.05344223 -0.06150778
 -0.03329566  0.0798161 ]
[-0.07550594  0.00498465  0.0567758   0.07573991  0.02431064  0.05365001
  0.08038428  0.04977408  0.02000386 -0.00178416 -0.05234239 -0.05313357
 -0.01001722  0.06754529 -0.07825051  0.07266635  0.06519605 -0.04716832
  0.0519403  -0.00138191  0.04511096  0.03352021 -0.01968088  0.01265306
  0.00567058  0.06158952  0.02072025  0.01332866  0.07115708 -0.08164253
  0.04425888  0.0467123  -0.07004652  0.03589236  0.0629973   0.06364824
 -0.03637477  0.03892854 -0.04420071 -0.07923847  0.069653   -0.01024934
  0.02873164  0.01598883 -0.03221089  0.08194133 -0.07414753  0.04049616
 -0.07512603 -0.04745227 -0.017073   -0.00868388  0.05300025 -0.0796771
 -0.08441097 -0.03769678  0.011477    0.07886155  0.07311393 -0.00567275
 -0.0766227  -0.00975861  0.05006316  0.05764193 -0.02673075  0.03419583
  0.08449636  0.07322606 -0.02585301  0.0681183   0.04194245  0.05895085
  0.00015513  0.08278772 -0.04821544 -0.04271949  0.07185277  0.07275983
 -0.04690437  0.06031699  0.01591349 -0.05149352  0.005692    0.05280295
 -0.02097853  0.01705803 -0.03889645 -0.06150155  0.04263541 -0.08000663
 -0.01842577 -0.03879757  0.07266411 -0.03271018  0.00432805 -0.03876831
  0.02746152  0.06883321  0.00284061  0.03940348  0.03347558 -0.03378076
 -0.03320058  0.06338638 -0.07321817 -0.04289454 -0.00643764 -0.04770448
  0.02420282  0.06866083  0.06635944  0.01714012  0.07385159  0.0140545
  0.0373729   0.02271048  0.00209285  0.03864197 -0.05316306  0.06308117
 -0.04994477 -0.02971144 -0.01276846 -0.02783945 -0.00714473 -0.0249145
  0.06194658 -0.03447916]
[ 0.01973117 -0.05902079 -0.02979562  0.06799512 -0.01605923 -0.05150827
 -0.07043525  0.00016721 -0.00288504  0.04899109 -0.03860976  0.02711956
  0.00091473 -0.04255607 -0.06162254 -0.05125143  0.05219309  0.02032978
 -0.08134012  0.05076193 -0.03982339  0.03773188  0.05452937 -0.08127871
 -0.00700096 -0.03237744  0.05500138 -0.06140084  0.07038563 -0.07903882
  0.05712149  0.04650254 -0.01210769 -0.06401616 -0.01434111  0.04098315
 -0.04162094  0.0818455  -0.02857215 -0.07430816  0.00281373  0.00066293
 -0.01381294 -0.03269542  0.07932104  0.02826435  0.00602359  0.05671575
  0.03062847 -0.02640128 -0.01891315  0.0185696   0.07429013 -0.00308253
 -0.01388053 -0.02504533 -0.06419294 -0.06598468 -0.08348094  0.04395356
 -0.02799091 -0.01743363 -0.05766635  0.05945523  0.06999771 -0.06568112
 -0.07260388  0.02890874  0.05710428  0.0692682   0.02239807 -0.06189566
  0.06012411 -0.0535991  -0.03422904  0.05996377  0.04438547  0.06925421
 -0.07456925  0.02349563 -0.03272795  0.08430269 -0.02033395 -0.05770569
 -0.00824993 -0.00251705 -0.05942772 -0.03764851  0.01322393  0.07992977
  0.06761981  0.03852388 -0.05173068  0.02972067 -0.05527835  0.00166015
 -0.05726017  0.05585413  0.079857   -0.08197915 -0.01227091 -0.07084364
 -0.012331   -0.06995554 -0.04342135  0.05917414  0.03727381 -0.02291388
 -0.06541137  0.0055364   0.05129202  0.02746727 -0.00091088 -0.05690997
 -0.08219989 -0.04660772  0.05965232 -0.04234392 -0.04483041  0.04513722
  0.01473389 -0.06283564  0.03016352  0.08037857  0.06747109 -0.06373424
  0.02688409 -0.00400723]
[ 0.00910087  0.00999925 -0.07054901 -0.04269107  0.04573031  0.00224016
  0.01367449  0.08216763  0.03186753 -0.07999211  0.03443664 -0.00558206
 -0.00496179 -0.04221211  0.04591587 -0.03444074 -0.02699704 -0.00676025
 -0.00156257  0.03629347 -0.06684377 -0.04024965  0.0278076   0.02516413
 -0.00178648  0.03890356  0.00533254  0.01527952 -0.03287556  0.00905203
  0.00091175 -0.08375288 -0.04776045 -0.02482424 -0.01330262 -0.05402287
 -0.04102745  0.05907589  0.05124642  0.03748674 -0.0714325   0.06379128
  0.05977058 -0.05033529 -0.04305224  0.07259143  0.03350258  0.0049722
 -0.04154171  0.01036994 -0.01719666 -0.03158329 -0.03238242 -0.02521785
  0.00582836 -0.06476222  0.03931841  0.05259994  0.00526209 -0.06612475
  0.0403427   0.04483268  0.06009789  0.01704891  0.04685859 -0.01480364
  0.07549646 -0.04416298 -0.03438909 -0.05318935  0.06566172 -0.0407961
  0.0113206   0.03999775  0.07355879  0.02456843  0.02675511 -0.07894043
  0.02904155  0.02373356 -0.05860745  0.04481117 -0.03702625 -0.00429123
 -0.03890968  0.06461339  0.07618228 -0.04307971  0.07748764 -0.00230116
  0.02943382  0.06072322 -0.06138708 -0.01826828 -0.02197596  0.07583118
 -0.03995889  0.06907973 -0.07619092 -0.07734128  0.04631859 -0.01678813
 -0.00453145  0.02090735  0.06025034  0.07606754 -0.06354046 -0.06458393
 -0.0746869  -0.04951026  0.08012325 -0.0509432   0.02146849 -0.04193177
 -0.00407626 -0.03342028  0.02471416  0.07119424 -0.01968864  0.04775289
  0.01982823 -0.02716365  0.06426623 -0.07120789  0.00337963 -0.04516703
 -0.03781302  0.02874837]
[ 0.05660261  0.06358924  0.06312537  0.08092097  0.03667559 -0.05136627
 -0.0654332   0.00500865  0.02007146  0.00507892  0.0753093   0.06299999
 -0.04625645  0.00097581  0.03360271  0.03955898  0.0069523  -0.02319221
  0.06831934  0.03605652  0.08234775 -0.02374727  0.04147242 -0.06425271
 -0.08105639 -0.0510569  -0.05676458 -0.02248738  0.02914533  0.00743198
 -0.05000818 -0.00266991  0.04139114  0.06489924  0.06371351 -0.04456561
 -0.01338028  0.03915465  0.06426849  0.01335046  0.02585504  0.03262208
 -0.05457344 -0.02815173 -0.03648676 -0.08251806  0.08296254  0.01745777
  0.07647876  0.07566221 -0.0657027   0.02141286  0.01366264 -0.0048132
  0.00923434  0.00446586 -0.03294386  0.07619105 -0.07984003  0.06825668
  0.00938299  0.0515833  -0.06992387 -0.07411356 -0.08338823  0.0231258
  0.04935002  0.06722373 -0.01313025  0.02887546 -0.00011399  0.01952748
 -0.01101905 -0.03932137  0.07559948 -0.01848221 -0.02924257 -0.01456059
  0.04255572  0.08444523  0.05459636  0.07833467 -0.0006739  -0.08405583
 -0.00300174 -0.08092535  0.07205403 -0.00431408  0.07599501  0.02927701
  0.08063763 -0.05818868  0.04855186  0.06096337 -0.05313231  0.04529152
 -0.06389426  0.00995606 -0.01561889 -0.03344496  0.06218394  0.06516076
  0.02823808 -0.0150584  -0.06270678 -0.03696207  0.07177339 -0.00792143
 -0.00446985  0.05073416 -0.04782186  0.02434647  0.0762695  -0.00423222
  0.04894328 -0.02692414 -0.0005534   0.06648114 -0.04761062  0.08266908
 -0.06978862  0.04917688  0.05777893  0.0299269   0.07687607 -0.00147923
  0.03532557  0.029898  ]
[-0.06192371  0.06941188  0.03907949  0.07406975  0.0159927  -0.08168902
  0.01742149 -0.02645475  0.01496105  0.02296719 -0.02832674  0.03729898
 -0.0551866   0.02996901  0.02167593 -0.05711894  0.06354887 -0.0221617
  0.07730823 -0.02670537 -0.03758448 -0.03456476  0.06537183 -0.04607175
 -0.08142751  0.02666585  0.04623943  0.01702963  0.05232578  0.01361819
 -0.02008681 -0.06583308 -0.0021304   0.04411616 -0.07705476  0.04839319
  0.02270567 -0.0516825  -0.05298769  0.03270769  0.05242477 -0.07121108
  0.08543909  0.04204044  0.00644556 -0.03370345 -0.02497658 -0.01587805
 -0.02478888 -0.0046201   0.02584608  0.07099605  0.04931501 -0.00394667
  0.03329663  0.07043576  0.07044011  0.01699174  0.07775977  0.03312483
  0.04876217  0.01290824  0.01110562  0.04746622  0.07982391 -0.07420643
 -0.00741245 -0.07807155  0.06890114  0.01165082 -0.07584936 -0.03096638
 -0.03046144  0.07983419 -0.02113967  0.0125864  -0.06808991 -0.00792285
 -0.02621029 -0.02234388 -0.07389882  0.08471596 -0.03622148  0.041649
 -0.00211374 -0.08371782 -0.06668426 -0.04658617 -0.03885845  0.0636322
 -0.04286354  0.029564    0.04935379 -0.03895225 -0.0235584   0.00920963
  0.06684773  0.03320509 -0.07296715  0.08295341 -0.07267248  0.05529122
 -0.06217792  0.06203907 -0.04303896 -0.03844027 -0.04971901  0.07609522
 -0.08059554  0.04383979  0.02070908  0.06227367  0.00592112 -0.0047599
 -0.07946215  0.02436525  0.01353935  0.01995726 -0.03285427  0.06214364
 -0.00143245  0.01155341  0.06176362 -0.0307088   0.00712754 -0.03707298
 -0.02614249  0.04985476]
[ 0.02455959 -0.07331445 -0.00831371 -0.0727106  -0.05640732  0.01476755
 -0.01567674 -0.04112251  0.00086909 -0.01741997 -0.04569234  0.02058303
  0.06481031 -0.04490133 -0.02877855 -0.05356765 -0.05122062 -0.01546855
  0.07476808 -0.04983136 -0.07630414 -0.00904059  0.063076   -0.06451619
  0.01494112  0.07898188 -0.05024978  0.03672453 -0.03672737  0.06428156
  0.02930427  0.03012873  0.01809248 -0.08448313  0.07082362  0.08180534
  0.04790663  0.02618423  0.00425543  0.0354726  -0.06858748 -0.07863393
  0.0828113  -0.00705341 -0.05825552  0.04446648 -0.08407246 -0.07442307
  0.00544634  0.07080639  0.0572366   0.06709348 -0.05295501  0.0821028
 -0.0689136  -0.06740221  0.03255975  0.07772429  0.00735017 -0.00770365
 -0.04390145  0.08170132  0.0094821  -0.0737939  -0.0137804   0.00880425
 -0.08221772 -0.00717086  0.03384692  0.00614124 -0.04243917  0.0359269
  0.07335652  0.07931012 -0.07467542  0.00122357  0.00669179  0.06098742
  0.04936685  0.00679427 -0.04089272  0.05499941  0.02657559 -0.02383897
 -0.07400046  0.07477897 -0.02765824  0.00284488 -0.01216678  0.01092466
 -0.07259903 -0.0210049  -0.08202879 -0.05465846  0.02550572  0.07796408
  0.02805144  0.00058223  0.0707041   0.00019423 -0.05459677 -0.04761665
  0.01726666 -0.00881954 -0.0595874   0.02716872 -0.02420693 -0.00113157
  0.05735895  0.01786222  0.05599551 -0.02869897  0.07489328 -0.05182479
 -0.03215931 -0.05855383 -0.04922896 -0.02404376 -0.04417397 -0.00849359
  0.04843582 -0.07750999 -0.01704059 -0.08319191  0.06331444  0.02715501
  0.00938892  0.0544698 ]
[ 0.07576343  0.07643538 -0.01133201  0.05381144 -0.01242412 -0.0071403
  0.03125107  0.04255506  0.05808436 -0.00132196  0.02291364  0.01535404
  0.03613051  0.00693501  0.02466314 -0.0638653  -0.00923224 -0.01788235
 -0.05899368 -0.01715436  0.01579431 -0.06507897  0.06067514  0.01186439
  0.02510698 -0.0092033   0.02665855 -0.06164077 -0.04354783 -0.06195917
  0.03075154 -0.04656484 -0.01507291 -0.01721587  0.0888971   0.06899603
 -0.03273007  0.06373362  0.02450198  0.01727396 -0.02813074  0.06812254
  0.04306793 -0.06812749  0.01545821 -0.07205548  0.05073391  0.07535234
 -0.06951116 -0.06110958 -0.04147279 -0.02182313 -0.04640529  0.05997796
 -0.01427883  0.07320827 -0.07099413  0.08531696  0.02627865 -0.02232412
 -0.05773866 -0.00572948 -0.00980489  0.02861291  0.06674542 -0.06243686
 -0.00923885  0.02767037  0.01062918  0.02193921 -0.07264014  0.08430625
  0.00151459 -0.06543797 -0.06697372  0.01233341 -0.07540918  0.02015861
 -0.07580428  0.07062323  0.03481646  0.05317831 -0.0298857   0.03412997
  0.01260612 -0.00544619  0.02893578 -0.07807995 -0.01208045 -0.03704938
 -0.07086463 -0.03698423 -0.08708962  0.08090223  0.00975029  0.04686207
 -0.07371023 -0.05274628  0.0455666   0.05544937  0.06238778 -0.00569801
 -0.06374646  0.03324215 -0.01540719 -0.02418275 -0.06143649 -0.06904872
  0.04038887  0.04270046  0.0449027   0.0718183  -0.03554517 -0.06586442
  0.04042633 -0.02727329 -0.08292674 -0.03556294  0.02338658 -0.04102511
 -0.01880056 -0.08122671 -0.0825858   0.04253192  0.01198376  0.03236308
 -0.04168285 -0.04239709]
[ 0.04326304 -0.02415262  0.05683996 -0.05857482 -0.08830391 -0.0050608
  0.0626394   0.03080804 -0.05896026 -0.05603248  0.04326981  0.01144675
  0.00170342 -0.07624307  0.02051515 -0.03942976  0.05487455 -0.05743348
 -0.0606048  -0.05638418  0.05786221  0.03320347  0.012686   -0.01622146
 -0.06742695  0.00986131 -0.02126524 -0.06861142 -0.03602279 -0.06617606
 -0.0704653  -0.0301432   0.07343448  0.00640187  0.04422224  0.06102138
 -0.01628686  0.05015396  0.00283703  0.06494746  0.04521509  0.05490921
  0.03245911  0.05195931  0.05481232  0.01113426  0.04743898  0.06359509
  0.04290294  0.06972738 -0.05225741  0.01489968 -0.0839758   0.01138914
  0.05176037  0.04511596 -0.01704439 -0.01289538  0.06474444 -0.00726266
  0.02790424  0.05672944 -0.0475103   0.01612568 -0.0508084  -0.00946834
 -0.00182463  0.07656169  0.07871227 -0.0366654   0.02706351  0.05298075
 -0.0530096   0.04579375 -0.0090738   0.00064682  0.02496115  0.03753834
 -0.04850245 -0.03517627  0.07268034  0.07659284  0.03211185 -0.00399439
 -0.01388876  0.01055551 -0.08543354  0.02978653  0.023285    0.07192887
 -0.05929406 -0.05415428 -0.06239748  0.04968413  0.00211621  0.08546283
 -0.04848113  0.02729333  0.0461097  -0.02072912 -0.06541723 -0.01706982
 -0.04637984 -0.00276425 -0.03591854  0.03669857  0.05488827  0.05889408
  0.04366715  0.0089696   0.05044995  0.03289822  0.02170663  0.08240622
 -0.08225486 -0.04252644  0.04907666 -0.06808788 -0.05245263  0.06292285
 -0.02630419 -0.03245979 -0.01035193 -0.01513631  0.07417162 -0.0549404
 -0.05701726 -0.08097234]
[ 0.05238485 -0.05670575 -0.08601281  0.03089675 -0.07048052 -0.06374961
 -0.01105084 -0.0162235   0.01816381 -0.03007605  0.08071037 -0.04618419
 -0.01693266 -0.07063586 -0.04980155 -0.07882717  0.0213169  -0.01135355
  0.05613183 -0.01938244 -0.08574814  0.04832813 -0.0779788  -0.0282039
  0.05138031  0.01482815  0.06152382  0.03681216 -0.07020668  0.0245969
 -0.03159801  0.06556059 -0.01289003  0.06255116 -0.04199581  0.00727325
 -0.07726265 -0.05404236  0.08295494 -0.08378123  0.07164036  0.05725463
 -0.03658412 -0.08831226  0.03544468  0.05982342 -0.0569235   0.08137768
  0.07034712  0.0481671  -0.03847253  0.05869935  0.02817493  0.06938422
 -0.00047381  0.05497399  0.01981523 -0.06060473 -0.03919207  0.00667552
 -0.03275522  0.01860679 -0.06157603 -0.02347767  0.0396672   0.03885439
  0.01518387 -0.03890731 -0.07359086 -0.00719221  0.05443396  0.0577102
  0.05756884 -0.03258082  0.07129918 -0.01016805 -0.08360399 -0.02893138
  0.03492761 -0.05552607  0.06162371  0.04534018  0.05089345  0.05027895
 -0.00114903  0.05900929 -0.08300906 -0.01594475  0.02023281  0.08377283
 -0.07945745 -0.02760305  0.00778567  0.00250743 -0.00919901 -0.01746116
  0.08210341  0.07262702 -0.03455657 -0.06579981  0.05935919  0.04908377
 -0.0480394   0.03089667 -0.02935293 -0.07373316  0.06808459 -0.08282848
  0.02771918  0.0430331  -0.05629076  0.06361087  0.04494265  0.04744203
 -0.04907504 -0.06664597  0.0830611   0.04650989 -0.01961387 -0.05681109
  0.06042587 -0.0703975  -0.05678309 -0.06167779 -0.05486445 -0.00759204
 -0.05113008  0.0667209 ]
[-0.0147438  -0.01470928 -0.04884572  0.00666958 -0.003921    0.07813194
  0.05436057  0.04257969 -0.03084497  0.05565296  0.01552675 -0.00342554
 -0.03766013  0.0488969   0.04390334  0.02116944 -0.0819838   0.0220066
  0.03027629 -0.05982814 -0.04568333  0.06467983  0.08323111  0.00658511
 -0.05967813 -0.00634402  0.06151703  0.01469452  0.00709703  0.07745421
 -0.04468291 -0.08180626 -0.0750436  -0.08000341 -0.08214626 -0.05800785
  0.01481166  0.0141333  -0.01290025 -0.06155883 -0.07800372  0.08113624
 -0.04682737 -0.01243548 -0.08507115  0.00155947 -0.02035105 -0.06369771
 -0.06613248  0.08091832  0.08107182  0.06283835 -0.06364345  0.02174354
 -0.03714343  0.02090249 -0.08481944 -0.01340433 -0.04457025  0.00463049
  0.0061661   0.06382625 -0.01260657  0.07473164 -0.07129188 -0.01321926
  0.06542735 -0.06008482 -0.03328888 -0.01275501 -0.00077453 -0.02803245
  0.04989908 -0.00502544 -0.04625507 -0.0132539   0.04535892 -0.04147325
 -0.02259985 -0.02377843 -0.05966589  0.06571935 -0.04754741 -0.0649225
  0.01987538  0.08934038  0.02030765  0.04290365  0.04471057 -0.0466387
 -0.05529679  0.01329037 -0.05070407  0.06613253  0.01736327  0.01299284
 -0.00968842 -0.04460795  0.0326191   0.08758658  0.02615895  0.07645835
 -0.00842343 -0.00907758 -0.00580713 -0.03376205  0.02512733  0.01961881
 -0.02102241  0.03114042 -0.01037543 -0.00552172 -0.03978555 -0.04030614
  0.02275195 -0.07923277  0.07062566 -0.03777518  0.04927428 -0.01488909
 -0.06989796  0.02680946  0.03955999  0.0612244  -0.08297927  0.00956103
 -0.06439353 -0.03264431]
[-0.06778072 -0.03842776  0.04450877 -0.0720337   0.07380681  0.01562384
  0.05067035 -0.03260518  0.04877453 -0.03052647  0.00418622  0.02109058
 -0.0547036   0.05080793 -0.03336953  0.00023637 -0.0106715   0.07121322
 -0.02309177 -0.0018547  -0.01876642  0.05107202 -0.07045023  0.00386053
  0.04187011  0.04065593 -0.04909963 -0.03469672  0.00556912 -0.07466325
  0.05795798  0.01765423  0.04434159 -0.03192334  0.0697065   0.02635304
 -0.0048662   0.06989301  0.05246235 -0.052844    0.03207454 -0.04821689
  0.0197188  -0.04603115  0.04766124 -0.07828514  0.02267785 -0.07500742
 -0.07292491  0.01258946 -0.04302039 -0.07234919  0.00774509  0.01503884
  0.05878939  0.06243018  0.03793607 -0.05494265  0.08189773  0.04806784
  0.01797051  0.04461771  0.05453582  0.07538628 -0.03816288 -0.02062414
  0.06123063 -0.05361384  0.07610642 -0.07355471  0.06438036  0.00390265
  0.02227961 -0.01952132  0.04854878  0.03929976 -0.04181416 -0.02182622
  0.04926337  0.00220552 -0.07631221 -0.04795458  0.07764068 -0.01836106
  0.03597269 -0.06759667 -0.07186367  0.06262016  0.07732312  0.07598664
 -0.07211357  0.00985122 -0.01582977  0.02152297  0.03583315  0.06619687
 -0.02508563  0.07851338 -0.01270816 -0.03200008  0.04275884 -0.04208422
  0.02644943  0.02256977 -0.00338815 -0.04648439 -0.04224927  0.0205202
 -0.04011131  0.02503299 -0.02198474  0.01313928  0.05509459  0.02646073
 -0.05538009  0.01951015 -0.05529254 -0.02382486  0.0519419   0.02744588
  0.07609561  0.04559909  0.07537883  0.07001777 -0.03359276  0.05045416
  0.05028764  0.07964909]
[ -7.52032772e-02   7.74503499e-02  -1.22728217e-02   3.65397111e-02
  -2.96123568e-02   1.68072637e-02  -7.12174475e-02   3.94050684e-03
   6.56359792e-02   1.57194417e-02   4.76091616e-02   6.13109581e-02
  -8.07505772e-02   1.85641833e-02  -3.49884257e-02  -7.92830363e-02
   2.86273062e-02   4.20490578e-02  -7.68446364e-04  -6.53502792e-02
   2.24575158e-02   3.95971388e-02   2.28346661e-02   5.12677617e-02
  -5.83937094e-02   8.30027685e-02   1.67740416e-02  -4.33666147e-02
  -2.44509336e-02   4.70694155e-02  -6.95375651e-02  -1.84774883e-02
  -2.94280965e-02   1.91795509e-02   1.46895051e-02   2.01435667e-02
   2.52580829e-02  -8.41731429e-02  -7.41513148e-02   6.10420369e-02
  -3.35493404e-03  -7.12159425e-02   5.28382212e-02  -5.76095730e-02
  -3.71909775e-02   6.38877824e-02  -8.20072461e-03  -7.80966505e-02
  -3.95550989e-02   8.17771107e-02   4.65115085e-02  -6.82760030e-02
  -7.74691999e-02  -5.37193716e-02  -2.98399087e-02  -2.11206563e-02
  -1.56424455e-02  -3.68191935e-02   4.82976809e-02  -7.26448186e-03
   2.96313651e-02   5.22641465e-02   5.42952493e-02   4.87176664e-02
   7.61927515e-02  -7.09546804e-02   5.29030897e-02  -4.47933227e-02
   1.42129678e-02  -3.91006358e-02   3.55331860e-02  -3.90752666e-02
   3.07713058e-02  -6.41913339e-02   5.00593781e-02   3.09637114e-02
  -5.24088070e-02  -5.07104211e-02   2.78870743e-02  -2.46769120e-03
   5.53097948e-02   1.90925486e-02   3.71989049e-02  -9.37766302e-03
  -4.86571901e-02   4.33344841e-02  -2.24158354e-02  -6.19886722e-03
  -3.12873982e-02  -3.24588344e-02   2.77106203e-02   8.23985934e-02
   9.19774920e-03   2.78068474e-05  -8.00537392e-02  -7.33598247e-02
   6.65505454e-02   5.23429215e-02  -4.85206544e-02  -3.23657170e-02
   4.35323864e-02   2.06035227e-02  -5.35629950e-02  -7.68877491e-02
  -8.05842504e-02   7.16041997e-02   3.91039513e-02  -2.03090776e-02
   1.21288616e-02  -5.00415303e-02   7.21496791e-02  -3.92520800e-02
   4.04812582e-02   3.22812572e-02   3.69924083e-02   2.24564243e-02
   3.57418731e-02   5.09749986e-02  -5.03971279e-02  -4.98269983e-02
  -1.08299805e-02   8.50818604e-02   1.80504229e-02  -4.82475832e-02
   4.25806940e-02   7.63443634e-02   4.75960225e-02  -5.49288243e-02]
[ 0.05497102  0.01150472  0.02010155  0.00457914 -0.08029412  0.03192904
 -0.02969392  0.05837361  0.05583663  0.05422056 -0.05664308 -0.06955963
 -0.00164459 -0.01971909 -0.04257773  0.00957119  0.06216973 -0.06709818
  0.06193413  0.08118775  0.07213359 -0.03089857  0.06227173  0.05355252
  0.05730347 -0.01585706  0.05604126  0.0152132   0.04603302 -0.02591881
  0.01238503 -0.08441775 -0.04559289  0.02585691  0.06828076 -0.02052848
 -0.04555774 -0.00520368 -0.00839679  0.02817403  0.04706192 -0.00682473
  0.03152498  0.02438195 -0.02791726 -0.0065476   0.04940019  0.07117174
  0.0308812  -0.04934878  0.04227966 -0.08108984 -0.01664724 -0.07917656
  0.07497771 -0.05928002 -0.05131778  0.01749034 -0.07224188  0.06076573
 -0.02925491 -0.00148783  0.04722507  0.04696871 -0.05813257  0.04183263
 -0.03513778  0.02510175  0.07850304 -0.04310118  0.00865919  0.04655438
  0.00148178 -0.0336863   0.05609671 -0.07274041 -0.06344265 -0.0862921
 -0.01617332 -0.02040274 -0.03832255  0.06857532 -0.03468002 -0.06003659
  0.06277576  0.06564819  0.0618928   0.07326908 -0.07877932 -0.07237152
 -0.06895723 -0.05351201  0.00051819 -0.01514784  0.03303738 -0.06241551
 -0.03738282  0.08435814  0.06647908 -0.01630819  0.07048345  0.0641278
  0.0250573  -0.05362563  0.04346519  0.02838859  0.08213349 -0.04459709
 -0.02412082  0.03305624  0.03492137 -0.06170408 -0.04447648  0.01530269
 -0.04696219  0.0360211   0.02782832  0.01096797  0.03906078  0.0042658
  0.01693888  0.05816854 -0.01148057 -0.05923383  0.04769889  0.08395596
  0.01657635 -0.02184215]
[ 0.00585342  0.03285519 -0.00537948  0.0114134  -0.07174379  0.05984898
  0.00154165 -0.0574515   0.0776738  -0.02527509  0.03356886 -0.05036699
 -0.05290397  0.05973847  0.0041757  -0.08340783 -0.03759775  0.05407746
 -0.00783796 -0.00454024 -0.02925371  0.04262625 -0.08093736 -0.02062183
 -0.01475075 -0.07058698 -0.04174672  0.02741399  0.06220841  0.02292192
  0.0063098  -0.06020543 -0.02114098 -0.05388871 -0.06437159 -0.08047301
 -0.0472669   0.01752875  0.07040971  0.03104806 -0.08120878  0.01175505
  0.04556638 -0.01222532  0.0152281  -0.07336926 -0.07531323 -0.07785079
 -0.04904913  0.07836157  0.07328068  0.03225421  0.07694332  0.07878902
 -0.01305924  0.00600341  0.05982466  0.06132988 -0.01009693 -0.04605242
  0.02491367  0.00544694 -0.01162283 -0.04566558 -0.0661682  -0.01271807
 -0.06421059  0.07847158  0.05538638  0.05239724  0.00095844  0.0794264
 -0.04898642  0.07305086  0.04018824  0.03382018 -0.06331781  0.0817595
  0.01758219 -0.03988873 -0.04498076 -0.02463689 -0.0700648   0.06078491
  0.07678016  0.08315508  0.04066947 -0.06800213  0.01394163  0.03525127
 -0.02522787 -0.04548088  0.04552282  0.01578644  0.06047865 -0.02350516
 -0.02094708 -0.00254536 -0.02819246  0.06037546  0.05161209 -0.02944192
 -0.04438584  0.04684073 -0.07881165 -0.02919433 -0.01476803 -0.06680174
 -0.07960113  0.03543     0.05040836 -0.0404105  -0.00181033  0.06387333
 -0.03262024 -0.04846138  0.01799577 -0.07537475 -0.08783165 -0.01361067
 -0.03549816  0.01307935 -0.0611684   0.05633051  0.02912939 -0.05794883
 -0.03460201 -0.02245216]
[  2.07530204e-02  -3.26649062e-02  -5.82350940e-02  -2.99178213e-02
  -3.22541259e-02   6.92186598e-03   7.66690969e-02   2.31949277e-02
  -3.22448313e-02  -2.97820140e-02  -6.61200583e-02  -7.70570263e-02
  -5.81620708e-02  -2.40814053e-02   6.58075586e-02   5.35538495e-02
  -1.03077404e-02   6.92340285e-02   6.00663945e-02  -2.45207623e-02
  -3.47422063e-02   3.95049155e-02  -7.28487149e-02  -7.32029974e-03
  -9.91882849e-03  -4.47904617e-02  -5.81460074e-02  -3.92897017e-02
   3.03642526e-02  -4.68285009e-02  -7.58930594e-02   1.30578894e-02
   6.75539225e-02   4.12705429e-02  -8.34886283e-02   2.75180452e-02
   4.64992411e-02  -3.04221734e-02  -7.66935125e-02   5.23822196e-02
  -3.02563179e-02   5.69083467e-02   1.59219261e-02   7.18304738e-02
  -7.65612572e-02  -9.11747385e-03   5.88384271e-02   2.13187598e-02
   1.62107826e-05   7.55942464e-02  -4.43529040e-02  -2.82417387e-02
   9.46991332e-03  -8.07474926e-02  -3.16637903e-02  -7.88785964e-02
  -8.26112404e-02   1.41462730e-02   1.26847541e-02   5.66690341e-02
   4.36355397e-02   3.97237353e-02  -1.91397481e-02   6.35762513e-03
   8.04063231e-02   2.41470393e-02   1.81120336e-02  -4.48792055e-02
   5.67981414e-02  -6.09170608e-02   4.67365142e-03  -3.65151912e-02
  -2.64340788e-02   2.13651918e-03   5.64156771e-02  -5.53305112e-02
   2.67415401e-02  -1.28081441e-03   7.08331317e-02  -3.02491076e-02
  -3.81899811e-02  -4.28400002e-02  -3.20494100e-02  -6.00862689e-02
  -5.47621734e-02  -7.55300820e-02  -3.41582187e-02   6.96039870e-02
   3.29686850e-02  -3.11392862e-02   4.74764481e-02  -3.62911914e-03
   9.11294390e-03  -7.97874406e-02  -1.89119037e-02   3.40835452e-02
  -7.29234368e-02  -8.32332857e-03  -6.49438724e-02  -3.59566533e-03
   1.07386047e-02  -7.09494296e-03  -5.13611548e-03   2.72136740e-02
   2.85589155e-02   6.81238025e-02   4.50075492e-02   2.60196254e-02
  -2.37799473e-02  -4.25291248e-02   7.26771280e-02  -6.62548095e-02
   1.46997273e-02  -6.27157763e-02  -2.89370548e-02  -5.66675141e-02
   3.80397923e-02   1.86931249e-02  -5.75661659e-02   5.98159358e-02
  -1.78210642e-02   6.90374672e-02   1.45105608e-02  -3.48690152e-02
   7.76140466e-02  -1.60993617e-02  -1.31423781e-02  -8.29472840e-02]
[-0.03197482 -0.01312562  0.06182553 -0.07659183 -0.02268158  0.01075465
  0.02840997 -0.07799149  0.03708801 -0.01506025  0.01753059 -0.07593313
  0.01383302  0.03371507 -0.01237802 -0.04598765  0.00776159 -0.07403285
  0.0364751  -0.05375601  0.01269232 -0.07065681 -0.02346935  0.08165075
  0.0401442   0.00209306 -0.03025564  0.07216809  0.04328077  0.08554336
 -0.00370965 -0.00373978 -0.02189258  0.04257212 -0.0751127   0.07871492
 -0.05026445  0.06494486  0.02024682  0.0720479   0.01625944 -0.02045127
  0.0134105  -0.05411337 -0.07262958 -0.01940791 -0.07670733  0.02387937
 -0.00781073 -0.08751491  0.06496728 -0.07108532 -0.03856739  0.061674
  0.07769959 -0.00113403 -0.04199051  0.02452536 -0.06308556 -0.05398409
 -0.06632043  0.01990603 -0.02446428 -0.08075742  0.0534156   0.04078729
  0.04178913 -0.06384709 -0.0443496   0.07850894  0.02827531  0.02476884
  0.01097311  0.06037777 -0.04278646 -0.0193501  -0.07929214  0.04618736
  0.02152747 -0.0650025   0.06949792  0.05874953 -0.05009537 -0.01605873
 -0.05568085 -0.02916916  0.00935017  0.02152058 -0.05938463  0.05684745
  0.03296234  0.04775834  0.03475225  0.07685216 -0.04305761 -0.03280973
  0.07702756  0.07089683  0.00536247  0.07973251 -0.01757582 -0.03209134
  0.07547844 -0.01154024  0.04283765 -0.08419391  0.0446569   0.05567907
 -0.04254014  0.0373531   0.0684991   0.04490148 -0.04094388  0.04740225
  0.07913727 -0.03906346  0.05202873 -0.05363695  0.05949002  0.01320166
  0.04075888  0.05103705 -0.03346053  0.07759065  0.07453402  0.04118309
  0.00559971  0.07468946]
[-0.03624241  0.08100345 -0.02920307 -0.03016335 -0.02641381 -0.08311242
 -0.0767823  -0.05251957 -0.0743238  -0.00816544  0.05434773 -0.06259423
 -0.04337287 -0.01662458  0.0199525   0.04484249 -0.05227523 -0.04895715
  0.00281175  0.00043796 -0.02155603 -0.0318739   0.06721587  0.07737247
  0.0112764   0.01507598  0.01593313 -0.006668   -0.0342989   0.06103573
 -0.01176429  0.05514025  0.07625494  0.02933561  0.03883041 -0.00912279
  0.07082635  0.07116561 -0.01164819 -0.06665473 -0.04582475 -0.01189232
 -0.07189956 -0.01698721  0.03030961 -0.01207794 -0.0305149   0.03352979
 -0.06148402 -0.08086964 -0.03507196 -0.0831237  -0.01860438  0.04187445
  0.00583695  0.01316076  0.06824113  0.0360253  -0.04122942  0.03306006
 -0.0325555   0.01034032 -0.07672796 -0.02684359  0.02600704  0.08251589
  0.08060496  0.00390184  0.00137388 -0.03419948  0.05054765 -0.02246396
  0.03811708 -0.02018181  0.08108374 -0.00715562  0.02852091  0.08581415
  0.04012331  0.03935447 -0.01814705 -0.04336487 -0.02203887  0.06417403
 -0.05920953 -0.03748178 -0.00729272  0.01115492  0.03373149 -0.02064253
 -0.00858325  0.08077534 -0.06144233  0.01556776  0.00305102 -0.07354037
 -0.00794277 -0.02187759 -0.01136262  0.03837887  0.07476979 -0.03563537
  0.07632723 -0.04778942  0.06711653 -0.08249974 -0.0685107  -0.03942682
 -0.07339091 -0.00872646 -0.00868244 -0.03571271  0.05016637 -0.08564816
 -0.02840118  0.07493373 -0.02197755 -0.08257988  0.02417508 -0.0162424
 -0.00585866 -0.02155995  0.0327411  -0.06657674  0.06778251 -0.03772696
  0.02052541 -0.07927681]
[-0.01545558 -0.00715702  0.03073706 -0.0515945   0.07611658 -0.07411009
 -0.05853061 -0.03154247  0.06905364  0.05845992 -0.05224302 -0.01073669
  0.01158406 -0.05777896 -0.02607244 -0.07943597  0.03094819  0.0794497
 -0.05329077  0.05323333 -0.08085068  0.05429489  0.07296906  0.04151462
  0.03041218 -0.04650323  0.03766971 -0.03489569 -0.0135022  -0.00348886
  0.0082864  -0.01079178 -0.08822518 -0.06700008  0.0401027  -0.05525866
  0.00551959 -0.00188997  0.046534   -0.04657405  0.07347018 -0.03673798
 -0.04212853 -0.02347426 -0.05905906  0.08433886 -0.00784599  0.04008743
  0.06292836  0.05963314  0.02215751 -0.06806443  0.0684144  -0.0463017
  0.06246082  0.05329657  0.01230899  0.01121955  0.01740066  0.07929125
 -0.00491547 -0.06849881  0.02989239 -0.03496847 -0.02537932 -0.03900304
  0.00601544 -0.05118728 -0.0161476  -0.02740148  0.04586717  0.07509875
  0.05346858  0.04607338  0.01856482  0.00900953  0.05105418 -0.03361203
  0.07929814  0.02667933  0.05154606 -0.00122454  0.04307639 -0.02653204
 -0.0266509   0.03425537  0.04714532  0.0526566  -0.03595404 -0.02572056
 -0.01673731  0.00323328  0.07184584  0.07910426  0.07864165 -0.03291149
 -0.04379745  0.01190531 -0.02857043  0.00406104  0.02663806  0.01311032
  0.05497556  0.08381704  0.02611408 -0.05329424  0.03950612 -0.05202022
 -0.0089416  -0.01129842  0.02434558  0.03963434 -0.05816926  0.03546623
  0.03337635  0.06076308 -0.08107677  0.03453185 -0.04601971 -0.01384373
  0.06753755 -0.03681071  0.07356923 -0.07278769  0.01701182  0.02389836
 -0.04008496 -0.0735215 ]
[ 0.00442045 -0.07540097 -0.05722591 -0.0405459  -0.02039377 -0.08523179
  0.04547398 -0.01627979  0.0321043   0.04036622  0.05699879  0.01482801
  0.03147515 -0.04728974 -0.03033269  0.03780848  0.02378407 -0.04563922
  0.02431764 -0.07984381 -0.0100691  -0.05761485  0.07872031 -0.0251447
 -0.04913333 -0.03191349  0.02805198 -0.00057689  0.08568253 -0.06243137
 -0.06164932 -0.00110877 -0.06530227 -0.03341979 -0.0479363   0.00466301
  0.01181575 -0.02949051 -0.03971241  0.04782595  0.043995    0.00542871
 -0.02177879 -0.02103017 -0.02724138  0.00485271 -0.05138911 -0.02221739
 -0.02628179 -0.07829336 -0.07766578  0.06763747 -0.0638428   0.09214382
 -0.05295494 -0.08426047  0.00976386  0.04539213  0.0672418   0.02911546
 -0.07645468 -0.07673107 -0.07812938 -0.08821706 -0.06117217 -0.04730839
 -0.0189111  -0.08362877  0.06252797 -0.05738664  0.00844905 -0.04528092
 -0.02597787  0.03863718  0.06804693 -0.05400318 -0.06872939  0.03657184
 -0.03343118 -0.04541325  0.02947613 -0.03432985 -0.00676003 -0.0524382
  0.08528489 -0.04388422  0.04605892  0.03956391 -0.04593204  0.01818063
  0.08121765  0.06942359 -0.06289368  0.05731441 -0.08080001 -0.00876906
 -0.02039136 -0.02966566  0.07085618 -0.07469757 -0.03415958  0.03491428
  0.03750508  0.00869488  0.01795908 -0.02685772 -0.01654907 -0.03467067
 -0.01362264  0.04229944 -0.05085701  0.0011238   0.03610671  0.05944417
  0.01817757 -0.05560438 -0.01544292 -0.0632726  -0.04486468 -0.00667332
 -0.0083363   0.02416841  0.01132107  0.07742926 -0.04529172  0.08284232
 -0.06861683 -0.05449655]
[ 0.03894445 -0.06445587  0.00318752 -0.03780094 -0.01994747  0.00732967
 -0.03953762 -0.05720394  0.05971798  0.025886    0.04199309 -0.07778378
 -0.02584301 -0.05573529  0.01717096 -0.0224801   0.03552694  0.05734766
 -0.06333827 -0.07168134  0.03132904 -0.06967807  0.04765037  0.07755569
 -0.01277527  0.05726898 -0.08317006  0.01538292  0.06550138 -0.0801258
 -0.02030504 -0.01107872 -0.01048341 -0.06955066  0.04857311  0.03499926
 -0.01148757 -0.05486814 -0.04201533 -0.07776029 -0.0545591  -0.05755497
  0.02770309 -0.00190937  0.03320168  0.03416666  0.07070966 -0.05458502
 -0.00576372 -0.00741735 -0.07696566  0.05817367  0.05098039 -0.07036306
  0.02905059  0.02346214  0.0626805  -0.04841513  0.00450553 -0.01927931
  0.00924334 -0.02642964  0.02746612 -0.01063158 -0.05622387  0.00403826
  0.02111838 -0.01825135 -0.0255007  -0.06649132 -0.01805747 -0.0818506
  0.03231978  0.0566737  -0.02044726  0.0619239   0.05969538  0.03414428
 -0.07334206  0.05921332 -0.05590664  0.08136249  0.04854405 -0.03399656
 -0.06606902 -0.07187706 -0.05369896  0.01874873  0.01996955  0.02907582
  0.0828063  -0.05130111  0.07927649  0.04121131  0.07771132  0.06134717
  0.05560833  0.06422434 -0.00819678 -0.06548408  0.02011414  0.01789504
  0.03278005 -0.0761448   0.04160672 -0.0322196  -0.07013573  0.00251717
 -0.04989798 -0.04602001  0.03848239 -0.03817851  0.0579242  -0.08253208
 -0.00252253 -0.03373132 -0.06170895 -0.00139516  0.0709842   0.05369459
 -0.00770677 -0.01056216  0.07798421 -0.02231504  0.04919425  0.00189835
  0.02277551 -0.03958548]
[ 0.00251874 -0.04498902  0.04860875  0.06657705 -0.02479558  0.04161152
 -0.08411419 -0.05039938 -0.05726222 -0.03423537  0.03375831 -0.05400771
  0.0415201  -0.05013144  0.02246819  0.04777168  0.06434527 -0.08276121
  0.06963947  0.04815729 -0.0295142   0.01228491 -0.05475863 -0.04763348
 -0.05819711  0.06959829 -0.04913371  0.00438867  0.06552748 -0.08238631
  0.00039339 -0.07424638  0.07363106  0.00792615  0.02056361  0.0032203
  0.00834603 -0.00054671  0.06457601  0.0025985  -0.07011662 -0.06736547
  0.07930626  0.01042455  0.07269268 -0.0230012  -0.01641963 -0.0785899
 -0.0633089   0.03523839  0.00213608  0.06293861 -0.08227103  0.03298861
  0.02822974 -0.07636934 -0.08553934 -0.05703819 -0.05980139  0.06569268
 -0.0183512   0.0859757   0.0109752   0.03645876 -0.01557545  0.05199234
  0.05012518  0.06109727  0.06257079  0.07304892  0.0123683   0.0643135
 -0.05019668  0.03548029  0.03135871  0.01174774  0.03946933 -0.05531847
  0.06533306  0.05247829  0.05345782 -0.00280054  0.02167618 -0.0378468
  0.00743373  0.05085667 -0.02974162  0.05426675  0.02848019  0.04605427
  0.05295498 -0.06064034  0.00713524  0.03588317 -0.05296714 -0.00535159
 -0.04312184  0.04147565  0.0149914   0.02846029 -0.07245147 -0.00561184
 -0.01154594  0.0218765   0.01278299  0.00921022 -0.02530223 -0.0371831
 -0.01596549  0.03467568 -0.00975493 -0.02182328 -0.04563125 -0.041946
  0.03943507 -0.02284468 -0.02769367  0.07131697 -0.04713913  0.0892361
  0.07989911 -0.08318304 -0.01608648 -0.05522206 -0.0813905  -0.07297093
 -0.07892475  0.05254157]
[ 0.03817843  0.07647637  0.0187411   0.04009884  0.00450751  0.0190965
  0.00153491  0.06490006  0.03300236  0.02533564 -0.07234459  0.05955179
  0.05233353  0.04909307 -0.01841044 -0.05907128 -0.05035368  0.07471451
 -0.06323548 -0.06847969 -0.00537162  0.01963893  0.05364901 -0.07560907
  0.08531023 -0.01000061 -0.0034041  -0.00734792  0.07221394 -0.05755546
  0.07336663 -0.02922272  0.07377511  0.02605898 -0.07926311 -0.03890409
  0.06479754  0.05628346 -0.01256305  0.04368493 -0.05630969 -0.00657666
  0.07218929 -0.01857596  0.05553728 -0.04318042  0.07379521 -0.02118707
  0.00562445  0.0500323   0.0475882  -0.01340615  0.0051298   0.0687995
  0.00934749  0.07545782  0.00413292 -0.07588125  0.06098808  0.03131181
  0.04939986 -0.04443168 -0.0551296   0.03392718  0.005969   -0.00198286
 -0.00035227 -0.03123198 -0.05138751  0.03891677  0.07616094 -0.03070681
 -0.05779538 -0.00425785 -0.03710781 -0.04686647  0.04727756  0.0117034
  0.06082646 -0.06614457  0.02377181  0.03888634 -0.07286044  0.04601812
  0.04874574  0.02034955  0.05910927 -0.01727893  0.0425842   0.02804491
  0.07975997 -0.01537689  0.06125523  0.04990724  0.01932177 -0.07355276
  0.00906096 -0.03411537 -0.03136086  0.08932359  0.04540323  0.0505577
 -0.05202369 -0.06315214 -0.00038844 -0.07788487  0.04974969 -0.00120739
  0.07910605 -0.05647552  0.0758182   0.00060646 -0.01817077  0.04040242
  0.07031146 -0.02694402  0.04464237 -0.05180264  0.01435073  0.01867843
  0.01752077 -0.06867702 -0.08964396 -0.08017477  0.05328874 -0.0265207
 -0.03787952  0.08403087]
[ 0.04244925  0.08659152 -0.06005658  0.03873379  0.07392061 -0.02145392
 -0.00750672 -0.08396491 -0.02739055 -0.01235027 -0.00140057 -0.06757405
  0.04769548  0.06138213 -0.06476658  0.03703323  0.02005844  0.02027041
 -0.06739882 -0.01933597  0.03555192  0.0310972  -0.05458166  0.00148004
 -0.064997    0.0263088   0.01627113 -0.03481594  0.04469417 -0.06652483
 -0.07447922 -0.07401065 -0.08196066  0.06498122 -0.01547072  0.06192469
 -0.02053194  0.05432777  0.01399186  0.05123642 -0.05715066  0.03271921
 -0.0739113   0.05539411 -0.06343727 -0.01773171 -0.05517932  0.03965305
  0.00915012  0.03393856 -0.01702421  0.00636624  0.0777143   0.02736964
  0.05265413  0.04155931 -0.0590019   0.04932636  0.01542448  0.07541864
 -0.00538571  0.04141138  0.04258673  0.03354835 -0.06273703  0.0170382
 -0.03662367 -0.02259304 -0.03023154 -0.02808879  0.01492894 -0.00421577
 -0.04191447 -0.06892353  0.0500996  -0.03600784 -0.08119693  0.06023648
  0.08159106  0.06269728  0.06840912  0.01562819  0.07196378 -0.07009339
 -0.00209474 -0.08164448 -0.05116839 -0.04193202 -0.01125205  0.0350944
  0.01494414 -0.051624   -0.0544509  -0.03505212  0.02107773 -0.04125785
  0.05391877  0.07675023  0.01348374 -0.03427952 -0.0345424   0.07594293
 -0.06601457  0.0143651   0.05191452 -0.0861589   0.00756014 -0.03112303
 -0.00780481 -0.02004767  0.07861267  0.06833468  0.00101258  0.0551386
 -0.00903802  0.06666425  0.02735099  0.04248137  0.01730733  0.07790343
  0.02914651 -0.07753966 -0.03822125 -0.02391187 -0.02615318 -0.0035498
 -0.06506731 -0.06443857]
[ -1.45485736e-02   1.68115310e-02   1.86543036e-02   1.14446338e-02
  -8.76560807e-03   3.14074499e-03  -1.73695311e-02  -8.65745321e-02
  -8.15120339e-02   1.02448007e-02   6.49814308e-02   9.55609418e-03
   5.06407768e-02   7.91266784e-02  -6.34094626e-02  -6.74132556e-02
  -7.61037469e-02   1.35270301e-02   8.88593495e-05   2.91134883e-02
  -1.66125074e-02   7.31163695e-02  -3.28232646e-02  -4.85022776e-02
  -4.06927243e-03   8.28176811e-02   1.68103855e-02   5.34238815e-02
  -5.82598113e-02  -4.39779982e-02   7.74004683e-03  -3.44930403e-02
   5.83422408e-02   7.74861649e-02   4.46828716e-02   3.93803455e-02
   6.57270625e-02   1.70885399e-02  -4.17954996e-02   7.34301209e-02
   2.23559085e-02  -7.31973201e-02  -5.02037294e-02   1.34398658e-02
   6.06397912e-02   2.52209026e-02   3.57879736e-02   1.25704464e-02
   4.60651331e-02   7.90238306e-02  -3.16724740e-02  -5.42784296e-02
  -5.27255163e-02  -8.04958958e-03  -2.41718208e-03   4.60531227e-02
  -7.18046650e-02  -6.29621148e-02  -4.59926650e-02   3.83546613e-02
   6.45015165e-02   5.37740923e-02  -1.06245503e-02   7.47521408e-03
  -4.38252203e-02   7.63866305e-02   3.53692994e-02   7.29678944e-02
  -1.83597207e-02  -2.05303021e-02   2.58810185e-02   1.31068993e-02
  -7.31705278e-02   1.89887658e-02  -4.55755182e-03   4.44999337e-03
  -2.72645075e-02  -6.21476956e-03  -5.11239544e-02   7.35983476e-02
  -1.21082477e-02  -7.25677311e-02   2.47027371e-02   4.11301777e-02
   3.38778528e-03  -2.68747099e-02  -5.05622849e-02  -1.03441179e-02
   4.65712957e-02  -6.69389591e-02   1.87772326e-02   1.21440422e-02
  -6.49543554e-02   2.24194471e-02   6.87979832e-02   1.13064665e-02
   2.21820064e-02  -5.03551066e-02   5.12511358e-02   6.26397431e-02
  -5.22757620e-02  -1.48183797e-02   6.78539127e-02  -2.90309135e-02
  -8.47888961e-02   6.77404776e-02  -5.69450147e-02  -1.52483035e-03
   3.42947692e-02  -1.83918830e-02  -6.58026636e-02   2.68315785e-02
   7.84624275e-03  -2.32610442e-02  -6.50734529e-02   7.62082338e-02
  -1.30776828e-02   2.50616204e-02  -1.13126179e-02   5.56406528e-02
   4.77095693e-02   4.28781696e-02   6.58939257e-02   5.37724644e-02
   3.05521376e-02   8.02456811e-02  -5.83856329e-02   8.21032189e-03]
[-0.07314767  0.04245743 -0.0784448  -0.06973971 -0.04905904  0.00120068
 -0.06049553 -0.02577027 -0.0328382   0.05544356 -0.07726949 -0.03177255
 -0.06422583 -0.05287835 -0.03119033 -0.03246827  0.0819154  -0.01182888
  0.06021434 -0.05963222  0.04822737 -0.05798633 -0.07884151 -0.01566848
  0.07451596 -0.01484911 -0.03231646 -0.06516118  0.0680339  -0.07591098
  0.08062231 -0.08564561 -0.04357494 -0.03343774  0.05884267 -0.07881229
  0.00147368 -0.026225   -0.00224077  0.01193736  0.0272813   0.0389696
 -0.08509352  0.02590509 -0.03400134  0.03855048  0.07823591  0.00618684
  0.03078002  0.02988563 -0.04834609 -0.04948474 -0.0505455  -0.04076612
  0.03958344  0.00693747  0.0472521  -0.02521266 -0.00286641 -0.00935867
 -0.02062736 -0.00631    -0.00730734 -0.03632853 -0.00252895 -0.06077118
 -0.02894008 -0.02257275 -0.04693162  0.00389708  0.03823667 -0.01957032
 -0.04022302 -0.08448783 -0.01640083  0.07105903  0.05090616  0.02499512
  0.05188075  0.02447952  0.04944195 -0.07134747 -0.05878473 -0.03551762
  0.00076014 -0.0315231  -0.08400683  0.00319431 -0.06232211  0.05098102
 -0.05659819  0.0286253   0.00126931 -0.04886656 -0.02061312 -0.07997056
  0.00705562 -0.03102331 -0.02437109  0.03963175  0.03161064  0.0284087
  0.00245949 -0.00545617  0.08070267 -0.01923758 -0.0200758  -0.05509149
  0.05197614  0.03072674  0.01143011 -0.02196523 -0.00718172 -0.07873794
  0.0257014  -0.06076197  0.00396323  0.04632324  0.0487917  -0.01013833
 -0.0301121   0.02078774  0.02969429  0.02765332  0.00839579  0.08189922
  0.02820128 -0.04744751]
[-0.05655453 -0.07993416  0.05989889 -0.05674095  0.01026013  0.05176106
  0.0386296  -0.06648082  0.04076958  0.02047861 -0.01049991  0.06388491
  0.04524672 -0.00476651  0.04284031 -0.0512346   0.0776905  -0.00934119
  0.06574404 -0.04786913 -0.04772055  0.01387937 -0.01994199 -0.01642007
 -0.00647553 -0.06409827  0.00883219 -0.08489165  0.06299309  0.03079127
  0.00652463 -0.01148205  0.03233279 -0.0536887  -0.07156088 -0.0183224
  0.04460723  0.07057313 -0.05699149  0.02995665  0.06604675  0.00750548
  0.0676056  -0.03082461 -0.04399773 -0.04550822  0.05737495 -0.01432024
 -0.0673067  -0.08180831  0.0365451  -0.03179568 -0.06298729  0.01959819
  0.02236483 -0.03273554  0.01498807 -0.06444709  0.02583414  0.01376816
 -0.06863397 -0.07176848 -0.06164952 -0.02452615  0.03442938 -0.01107394
  0.08302239  0.04035123  0.06204098  0.04880802  0.06225248 -0.05028433
 -0.08191768  0.08095136  0.02384395  0.02572922 -0.04513621  0.02690083
 -0.0627957  -0.03000746 -0.06320251  0.00280003 -0.05107467  0.0385265
  0.03913153  0.06945319 -0.02411121 -0.05940809 -0.03140875  0.00617569
  0.08023398  0.02520729 -0.01676776  0.02914286  0.0557124   0.04604693
  0.00734733 -0.01965515 -0.06739424  0.01278754  0.0426931  -0.05443627
  0.01416214 -0.05106575 -0.04000465  0.03247831 -0.01277747  0.04617189
  0.0226563  -0.07574473  0.01966002  0.01734127  0.041033    0.06978764
 -0.0141889  -0.06589263 -0.07824147 -0.02252224 -0.07595831  0.03713917
 -0.06162    -0.03300136  0.01547869  0.00595647  0.05534903 -0.03544883
  0.05809664 -0.06483804]
[ 0.04488915 -0.00364944  0.01993899 -0.03771888 -0.00295449 -0.01470017
  0.02877938 -0.07407931  0.04722679 -0.02841179 -0.03386141  0.05239894
  0.00321778  0.05552658 -0.03759382  0.07366753  0.05121034  0.05875055
  0.0769725   0.0156915   0.01846668  0.06980854  0.05109945  0.0156379
 -0.05300389  0.0579363   0.05428188  0.02046129  0.00699864 -0.00604177
  0.02742962 -0.00735689 -0.00061855  0.08094738 -0.00364809 -0.00669646
  0.05642656 -0.00783907  0.02328202  0.07359176 -0.04050606  0.00100723
 -0.05514878  0.03155039 -0.07919347  0.01970859  0.01010949  0.06926167
  0.06133159 -0.01642358 -0.07855222  0.05680034 -0.07986698 -0.05708639
  0.02469269 -0.0752034   0.03791241  0.05623792 -0.06623253 -0.06970374
  0.00446456  0.01284394 -0.06684906 -0.07371043  0.07302897 -0.07240137
 -0.07550805  0.01983647 -0.00112733  0.06870893 -0.04376564 -0.00737994
  0.05924112 -0.0737581  -0.03986768  0.02397265  0.08248492 -0.07409866
 -0.04701698  0.06440061  0.08273537  0.07885832 -0.03229275 -0.04777529
 -0.02453808  0.04942971  0.0126865   0.07498166 -0.07813229 -0.01365317
  0.03858491  0.07738596 -0.01577022 -0.01480832 -0.06442972  0.0014459
 -0.04956114  0.07544725 -0.08048832  0.04852713  0.07840664  0.06976435
  0.02558188 -0.02375452  0.03627515 -0.0386641   0.05984382 -0.04633957
 -0.078936    0.05279922 -0.04868332  0.00986988  0.05353756 -0.08239584
  0.07582396 -0.0294449   0.00870805  0.01717712  0.04339703 -0.06709126
  0.01770698  0.0729828  -0.01378304 -0.02746292  0.05944591  0.0008004
  0.06931806 -0.07514442]
[ 0.02548802 -0.01856586  0.01633893  0.07009502  0.00147292  0.08313953
 -0.04181821  0.06694902 -0.01917484  0.08106293 -0.07467999 -0.02644741
 -0.0505454   0.05756571 -0.04667107 -0.07767684  0.03183696 -0.04045562
 -0.05365248 -0.06972747 -0.01359844 -0.04556211 -0.03621605  0.00381414
 -0.03914503  0.06844459  0.0388827  -0.01908547 -0.02980566 -0.06887547
 -0.03024191  0.04839963  0.00418493  0.0548181   0.00172087 -0.03861596
 -0.02466474 -0.02072618 -0.00595199 -0.03843186 -0.07048815  0.00973543
  0.05119754  0.02105837  0.0397481  -0.06684566 -0.03179236  0.07400186
  0.07735927  0.01743849 -0.02793582  0.05947704 -0.04948156  0.05340981
 -0.05151253  0.00060315  0.0008119   0.01330853 -0.05304587 -0.03697493
 -0.0445605   0.0536513   0.01924262 -0.07922218 -0.03272473  0.04540297
 -0.04044978  0.0096488   0.03179945 -0.07743084  0.01449157  0.0777881
 -0.08142807  0.05040625 -0.06154807 -0.06505742  0.00663027  0.022255
  0.0620424  -0.0747      0.01818718  0.01395924  0.04431361 -0.05261432
 -0.04849756  0.02661901 -0.00895431 -0.05405932  0.02550363  0.07188129
 -0.07209284  0.03466742  0.08222862  0.08067442 -0.07437114 -0.02246005
  0.06414712 -0.03155412  0.00076851 -0.05545368 -0.01508179 -0.04409039
  0.03630403 -0.00525148 -0.00684997  0.07124108 -0.02609257 -0.03562441
 -0.05307451  0.05967317  0.06576795  0.04392254 -0.07285596  0.07187524
  0.00803117 -0.04716931  0.03572378 -0.05555145  0.06153137  0.00929577
  0.07151276  0.02640723  0.01528838  0.01195889  0.01207932  0.02404252
 -0.03786293  0.03656771]
[ 0.07430442 -0.01819443 -0.05243346 -0.02661136  0.04306976 -0.05131998
 -0.0287033  -0.03185086 -0.0220684   0.00876604 -0.06212953  0.04765407
 -0.04009575 -0.04364439  0.00477799  0.05740432  0.03076691  0.00261426
  0.02683936  0.04669407 -0.04540222  0.0784414   0.03682635  0.01392405
  0.02881662 -0.0018863   0.01441137  0.02319537 -0.03278477 -0.08313388
  0.04196554 -0.02060924 -0.00809838  0.00578643 -0.04884414  0.07079945
  0.00115376  0.02772379 -0.00952531  0.0632069   0.0803497  -0.02455814
  0.03620466 -0.00447724 -0.05818418  0.06078347  0.07825971  0.01540734
 -0.01656117  0.0628266   0.05685882  0.05784949 -0.03723991 -0.07796874
  0.02694901  0.03742818  0.01017316 -0.02261425  0.04171885  0.03665828
 -0.04212414  0.00079376 -0.04502946 -0.08021322 -0.0197674   0.00938047
  0.00847786 -0.05069978  0.01114492 -0.04419347 -0.07363769  0.03104344
  0.07722444 -0.02868153  0.00724548  0.05294098 -0.06055336  0.06048525
  0.08358222 -0.05853496 -0.07614419 -0.04046494  0.03154195 -0.06572394
  0.07317157 -0.00700163  0.06413543 -0.01016022  0.0392677  -0.01343838
  0.06529839  0.01536621  0.00845888  0.05608503  0.02187021  0.03826183
 -0.06507251 -0.05444238 -0.0644184  -0.06437828 -0.03553282 -0.03650737
  0.00263944  0.06672576 -0.0247294  -0.02481749  0.05282543 -0.08047832
 -0.06086633 -0.05507061  0.00232852  0.05135946  0.06899031 -0.00104757
 -0.07992138 -0.05470961  0.0601264  -0.0078493   0.03740893  0.01629525
 -0.01128642  0.03562525  0.03672933 -0.02461687 -0.00931604  0.06830392
  0.00388436  0.05907055]
[-0.04416163  0.01593124  0.01037064 -0.08079357 -0.02734076 -0.08285113
 -0.01795768  0.00986881  0.07790004  0.02415211 -0.0469945  -0.03135934
  0.00798445 -0.03237068  0.08214618  0.04740882  0.06810211 -0.04183075
 -0.05942332 -0.07570282  0.02511601  0.0503193   0.0604667  -0.07571729
  0.06794264 -0.04771163  0.0615077  -0.05245366 -0.06405615  0.05178885
  0.03111332  0.0344056  -0.03629635  0.03263756  0.07594964  0.01476523
 -0.06841265 -0.06723979  0.01605775  0.00107322 -0.05810025 -0.08054894
 -0.01063392  0.04321387 -0.03289491 -0.04431158  0.044057   -0.02470632
  0.02002095 -0.0107533   0.05203966 -0.04510478 -0.03290779 -0.0306809
 -0.00308255 -0.07258799  0.00805569  0.0740152   0.0521523   0.00221749
  0.04975924 -0.00547541  0.01496232  0.03490163 -0.01915043  0.07334334
 -0.00903727 -0.05207641 -0.04424049 -0.02489347  0.06231502  0.08180502
  0.06132552  0.04512306 -0.00913619 -0.07322244  0.06753486 -0.00563153
  0.06343579 -0.03008381 -0.06923668  0.00910248 -0.0386119   0.06475995
  0.04287325 -0.00278965 -0.00561279 -0.06216239 -0.03592565 -0.07644718
 -0.08514239  0.03835808 -0.06380931  0.05450368 -0.03855826  0.01691041
 -0.05445286 -0.00356424 -0.07330503 -0.05507724 -0.00138287  0.06679951
 -0.00201237  0.06375982 -0.05610027  0.03200512 -0.04141127  0.07034584
  0.00148591  0.00503843 -0.00461719  0.06405414  0.04691425  0.07342191
 -0.0313827   0.05371166 -0.06917726 -0.0303479  -0.02240511 -0.06987877
  0.01390419 -0.06509554 -0.06796977  0.02494753 -0.07388581  0.0456724
 -0.08454254  0.02989621]
[ 0.0736511  -0.04103456  0.03471972 -0.02506583 -0.05551951  0.03081332
 -0.01656031  0.02446822 -0.0046425  -0.08180904  0.04333274  0.01939453
 -0.06972887 -0.02894452 -0.07010487 -0.02004893 -0.0872557   0.02907326
 -0.02699012  0.00982911  0.07642319 -0.03383338 -0.07990622  0.08350695
  0.07345594  0.04196306 -0.08657219  0.06795012 -0.00931867 -0.07149528
  0.08299081 -0.00258798  0.01308046  0.07780126  0.0498673   0.04320289
  0.07967579  0.04514388  0.05635006 -0.01059278 -0.03106058 -0.08074784
  0.02231528 -0.00187836  0.08236577 -0.05270649 -0.08089825 -0.02389222
 -0.05308979  0.08414098 -0.07779732  0.02436352  0.00613801  0.07830777
  0.06728425  0.01342877 -0.00990494  0.01391193  0.07886165 -0.05158766
  0.07195882 -0.00248562  0.00421704  0.03519614 -0.04286069 -0.04226814
 -0.02455906 -0.07763233  0.07887086  0.03989529 -0.07438013  0.0773717
  0.05557415  0.0286767   0.00631501 -0.04078877  0.0604756  -0.03401204
  0.03096278  0.05233559 -0.05600549  0.05904005  0.01807469  0.01308611
  0.07548162 -0.06101406 -0.02564141  0.06458623 -0.02669144 -0.00171908
 -0.08384414 -0.00719826  0.01718211 -0.08109942  0.00803753  0.02257415
 -0.00182594  0.03472922 -0.02287443  0.01581032  0.00920793 -0.07681114
 -0.07514106 -0.01890158 -0.02694259 -0.04923603 -0.02425716 -0.01953558
 -0.04167061  0.02274593  0.07645762  0.06916264 -0.0078616  -0.04523733
 -0.01282142  0.01381865  0.04431233  0.02990514  0.00429604 -0.03443606
  0.0333039   0.02677841 -0.08572374  0.0495751  -0.04400837  0.07839412
 -0.04839607  0.06070758]
[ 0.07254273 -0.01037187 -0.02919011 -0.02045205  0.06932738  0.03744598
  0.05893449 -0.01607481  0.05252315  0.0137997  -0.01589232  0.06590836
  0.01734682  0.01849415  0.02587866 -0.04005956 -0.08411537  0.02850712
 -0.03840965 -0.06378747 -0.01524315 -0.06419036  0.06273107  0.07618981
 -0.05047194 -0.06428256  0.02529581  0.05060129 -0.03043196 -0.02942291
 -0.08069449 -0.01212939  0.06568925  0.00836972 -0.05021989  0.07440686
  0.03507382 -0.06885607  0.00310684  0.06225113 -0.01702242 -0.00603802
  0.05064221 -0.06293715 -0.03970025  0.08555605  0.04543105  0.02151753
  0.01985947  0.08079498 -0.03559332  0.03722739 -0.06627673  0.02891936
 -0.0689219   0.01428236  0.05976225 -0.05240139 -0.05275976 -0.08301487
  0.02502526 -0.01773824  0.0348704  -0.01535396 -0.04136364  0.0220165
  0.00503066 -0.00991649 -0.00898779  0.03266375 -0.07290305  0.06323747
  0.07289087  0.00189775 -0.02085075 -0.05515414 -0.0708951   0.03072445
  0.02647347 -0.06071782 -0.04978722  0.05815272 -0.05492828  0.02321682
  0.03884262  0.07220434 -0.03075449  0.06224079  0.05215229  0.02682797
  0.06353664 -0.05557453 -0.01799179 -0.03399659 -0.03027713  0.08172946
 -0.03823451  0.02759593  0.03095254  0.0325171   0.05825083  0.00924112
  0.07099538 -0.07489129 -0.05698242  0.00011604 -0.03388811 -0.03640052
 -0.01749617  0.04474089 -0.07215182  0.03078708 -0.00353427  0.03112511
 -0.04580121 -0.08675396  0.06644008 -0.02864123  0.02410975  0.04524768
  0.01056132 -0.00024927  0.01734411 -0.03508982  0.06396223  0.00352312
 -0.00521033  0.04424755]
[ 0.01020378 -0.00313602 -0.0147813  -0.02195861  0.06298977  0.06429033
  0.01006113  0.01405564 -0.01199236 -0.00967671  0.00830095 -0.05125829
  0.03488813 -0.02748599 -0.00979128  0.08281554 -0.02423875  0.04842136
 -0.04294019 -0.01903418 -0.0327736  -0.01319392 -0.03986524  0.02780468
  0.08227573 -0.04281829  0.06177053  0.02979713  0.02277511 -0.08067485
 -0.0634013  -0.07222758  0.05646909  0.07537775 -0.02146544  0.03464613
 -0.068816   -0.07337376 -0.07182933  0.01765081  0.06421953  0.00885661
  0.01306735 -0.08002678 -0.06454434  0.01861108 -0.01153665 -0.00772001
  0.04225734  0.06283301 -0.04426328  0.0809354   0.04225416  0.03968982
 -0.00322451 -0.04778575 -0.0224409   0.06167937  0.06773636 -0.00679414
 -0.00283225  0.03755082 -0.03676472 -0.06287374 -0.00505971 -0.05925034
  0.03280358 -0.04290004 -0.07686029 -0.08355992 -0.04932082  0.07370254
 -0.05904147 -0.03037412 -0.07698517 -0.01103956  0.02151821  0.05339848
  0.04730796 -0.02374868  0.05909679 -0.02243576  0.05429571  0.08195899
 -0.0461028   0.05869844 -0.03526564  0.001013   -0.08096648 -0.07530998
 -0.04922275 -0.04954655  0.01164741 -0.04341935  0.07555558 -0.05402498
 -0.00524593 -0.00050497 -0.03235293 -0.06935644  0.06706162 -0.00374913
  0.04580373  0.00372145 -0.03764588 -0.06361943  0.03700944 -0.01392856
  0.05436258 -0.01355929  0.00808293 -0.02939717  0.01126407 -0.06975971
 -0.00149474 -0.08961563  0.0347153  -0.01829668 -0.02143238 -0.04138565
 -0.05961801 -0.03993788 -0.03662503  0.04900624  0.00319124 -0.04775438
  0.02807666  0.08441445]
[-0.03598711  0.03190554 -0.04506304 -0.04584494  0.0483359  -0.03520789
  0.07148726  0.0142326   0.05464554  0.06139582  0.04515877 -0.0085204
 -0.04249464 -0.00871855  0.04237297 -0.02208933 -0.05271462  0.03971909
  0.02633129  0.00923782 -0.0660703   0.06034417  0.05369912 -0.04784329
 -0.06073304 -0.03697065 -0.00714133 -0.06712803  0.06845914  0.02049186
 -0.00939231  0.06026119 -0.06822487 -0.05075436 -0.02659591 -0.06638539
 -0.05570183  0.02147421 -0.02665446 -0.00903104  0.00256914 -0.05293172
 -0.05299107  0.06359314  0.04030606  0.04854742 -0.00046322  0.06033547
 -0.05861941  0.05184028  0.03744547 -0.03697485  0.04568963 -0.01636663
 -0.02678555  0.03254079  0.05687317  0.04496964 -0.02949049 -0.04899812
 -0.06389809  0.02802553  0.05860226  0.02003045  0.0758516  -0.0200658
 -0.01801342 -0.0757269   0.00451438  0.013939   -0.04539647  0.00167047
  0.08461241 -0.02513697 -0.03499165  0.07712132  0.03999623  0.06591032
 -0.00570619  0.0833161   0.0150048   0.02051149 -0.05655371 -0.04535775
  0.01286382  0.08463186 -0.03913275 -0.03306051 -0.0490457  -0.02646419
  0.01589839  0.007208   -0.02333771 -0.01186377 -0.02669355  0.02780968
 -0.0801322   0.04700953  0.00115158 -0.06353277 -0.05293533  0.06606659
  0.0725947   0.03115575  0.06321149  0.04936441 -0.03440236 -0.00151954
 -0.04318688 -0.03448582  0.00811646 -0.00249184 -0.08164404 -0.0849252
 -0.03064749 -0.04928934 -0.02376634 -0.01221019 -0.00209388  0.05814458
 -0.04027335 -0.03180234  0.04631904  0.00976225 -0.03853483 -0.07405087
  0.07316723  0.03473176]
[-0.05829669  0.01705325 -0.08614084 -0.05164686 -0.03414862 -0.08216438
 -0.03057797  0.02074866  0.02192587  0.07152167  0.01079565  0.02800763
 -0.07887531  0.05248543 -0.06139642 -0.0102513  -0.00531865 -0.00220125
 -0.03640452 -0.02570959 -0.05562172  0.02486873 -0.00064745  0.0280365
  0.06567628  0.07846884  0.05288515 -0.03366208  0.07765196 -0.03502007
  0.0096491  -0.00139624  0.03720267  0.00403021 -0.00300111 -0.04139962
 -0.0058305   0.05069886 -0.06596088  0.06304721 -0.0220231  -0.00307292
 -0.04095712 -0.07684447  0.07746096  0.06563865  0.00467195 -0.03440558
 -0.07156553  0.01480174  0.06640504  0.04820778 -0.02565854 -0.02418348
  0.03355878 -0.04188393 -0.05590827  0.0136205   0.07768169  0.05981948
  0.04998076  0.07236584  0.0587189  -0.05797811  0.05341482 -0.04820424
  0.05974377 -0.07495046 -0.04122885 -0.07867748 -0.0195017   0.05377899
  0.02800386  0.0437204   0.02963037 -0.00238226  0.02108575  0.04309307
  0.03183541 -0.06222103 -0.01816547  0.05078133 -0.02648133 -0.06710166
  0.03554028 -0.04268603 -0.04689922 -0.08914995 -0.05989608 -0.07572103
  0.05805894  0.03028905  0.05552159 -0.0439841  -0.05799129  0.0180552
 -0.07059929 -0.0319126   0.07365148 -0.01051163  0.04041716  0.0768748
 -0.02218663 -0.05972888 -0.02956171  0.03207565 -0.06535807 -0.02192611
  0.02813008 -0.00855592 -0.00256176  0.00214369  0.00162598 -0.02004937
  0.01529896  0.001326   -0.02038611  0.07841572 -0.04792968 -0.06408484
 -0.06316297 -0.03123878  0.06240279 -0.01882391  0.00091715  0.07762419
  0.0726731   0.07528943]
[ 0.04022875 -0.06324145 -0.03273145  0.0029718  -0.0536399  -0.00589171
  0.0473952   0.00830476 -0.02503689  0.05323172 -0.04420723  0.04414289
  0.07423746 -0.07724693  0.04711323  0.04568247 -0.01151754 -0.00860667
  0.05158192 -0.08026417 -0.06762603 -0.0617028  -0.0851921   0.07041268
 -0.03193691 -0.06847524 -0.06653237 -0.06934879  0.07623129 -0.01270358
 -0.03637949 -0.02922221  0.02695834 -0.06465168  0.04750898 -0.05227197
  0.00145411 -0.07186929 -0.07007521 -0.05554644  0.05328478 -0.0096113
 -0.06597608  0.00833583  0.01928933 -0.05847773 -0.00539873  0.06566762
 -0.06615711  0.05966621 -0.04709111 -0.04849946 -0.05150475  0.02639665
  0.00411113  0.02608879 -0.03644329  0.08659896 -0.05483052  0.0519309
  0.06464672  0.05247156 -0.02013414 -0.00695352  0.00294881  0.073896
  0.04956964 -0.00084409 -0.0022639  -0.01759836  0.06841142 -0.01962399
 -0.05213162 -0.0742301   0.00675482 -0.06400606 -0.06588493  0.03591795
 -0.02400769  0.01935937  0.06999137 -0.02318887 -0.05393824 -0.06780354
  0.04834868  0.07347739 -0.05373494  0.04527539 -0.04038599 -0.0736851
  0.07230536  0.02945134 -0.02751733  0.07371449 -0.08094338  0.07300946
 -0.03454598  0.02315425  0.00243482  0.02412465 -0.03159719 -0.02269497
  0.05442577  0.00334112  0.03090008 -0.05487418 -0.04725063 -0.04823626
 -0.00509266 -0.03137856  0.02607255  0.04404585 -0.06598122 -0.01012476
 -0.00710911 -0.06403332 -0.05311881 -0.08135919 -0.00163747 -0.04339757
  0.02954279  0.03473954  0.03859833 -0.05246682 -0.03844873  0.08069772
  0.04769617  0.03355856]
[ 0.04501062 -0.05141745  0.04197433  0.05523635  0.03977595  0.01671189
 -0.06345218 -0.07962815  0.01019858 -0.0568189  -0.05135554  0.05266463
  0.07287778 -0.03201329 -0.03488152 -0.07864683  0.06306404 -0.05172462
 -0.03400427  0.06840047  0.06978489 -0.07881892  0.04822771  0.03723843
 -0.07647001  0.02860045 -0.04376169  0.00206315 -0.07282355 -0.04811323
 -0.03331431 -0.08476531 -0.02370653 -0.00697942 -0.07429373 -0.01851766
 -0.06791178  0.03218727  0.00250595  0.0535053   0.07867461 -0.07721826
  0.06371689  0.03568001  0.06958086 -0.03678332  0.02740521 -0.0707736
  0.06977074  0.07618933 -0.03112326 -0.00874756  0.04224942 -0.07985303
 -0.08151035 -0.05812312 -0.06218952 -0.07873548  0.05769406 -0.00858861
  0.01557964 -0.08078504  0.01854031 -0.03135227 -0.00464181  0.00593371
  0.00223984  0.05132791  0.00474978 -0.0024832   0.01058919  0.00491002
  0.06028309  0.02965871  0.03055476  0.04511324 -0.00771187 -0.05330501
  0.01245152  0.02141386  0.05144864 -0.02962053  0.02080198 -0.06784788
  0.07758886 -0.00136642  0.06764879 -0.06647676  0.01182752  0.0345731
 -0.08370141 -0.07043687  0.00915786  0.05974033  0.06367197  0.08064454
  0.0374058  -0.00533258  0.03568669  0.06773648  0.03356978 -0.04327685
 -0.08350591 -0.05060247 -0.0447409  -0.08498815  0.01428679  0.04127313
  0.00535928  0.0398077   0.05087252  0.01010993  0.05066367 -0.05525403
 -0.00345651  0.05086455  0.04309345  0.0491334  -0.08311351  0.04909449
 -0.04354616 -0.05981841 -0.0026889   0.03708934 -0.01131049 -0.00144535
 -0.05044117  0.07165322]
[ 0.02967619  0.01197617 -0.08520327  0.02420872 -0.02701267  0.00205567
  0.06096619  0.04252224  0.0275722   0.08314536 -0.06502472 -0.00042022
  0.04962775  0.06546268  0.00336422  0.01311854 -0.00778281 -0.07753903
 -0.01865183  0.00762951  0.04558875 -0.03920503 -0.00442955  0.01508001
  0.01130956 -0.02992867 -0.07877676  0.03325133 -0.00534472  0.06715626
 -0.03100359  0.03284669  0.06172216 -0.01999022  0.0039489   0.03371112
  0.03739753 -0.05904819 -0.00182686  0.01951427  0.02088925  0.08095953
