layers 12
layer 0 Convolution2D
4 1 3 3
[ 0.17996478 -0.31125134  0.10190094]
[-0.30649242  0.18109763  0.60764629]
[-0.27765304  0.729846    0.55104142]
[-0.04402122 -0.40443975 -0.61021   ]
[-0.22882399 -0.54959613  0.09756619]
[ 0.4701764   0.73828781  0.21899973]
[ 0.30452034 -0.20077728  0.68612856]
[ 0.09711523  0.02476205  0.50496328]
[-0.36651096  0.24182199 -0.41573772]
[-0.3075861  -0.52090561  0.94192123]
[ 0.23565334 -0.50123763 -0.14594743]
[-0.75956434 -0.20008822  0.69621849]
[-0.04614198 -0.01777781  0.00265164  0.01838504]
layer 1 Activation
relu
layer 2 Convolution2D
4 4 3 3
[-0.22526024 -0.00154156  0.40878093]
[ 0.31737694  0.2501176   0.14632209]
[-0.12197118 -0.27627856 -0.22000009]
[ 0.14610751 -0.09319764 -0.29717413]
[ 0.38827288  0.44154543  0.45706668]
[ 0.23579839 -0.06946921  0.15499043]
[-0.0953309  -0.21614453  0.15161434]
[ 0.15173694  0.26986378  0.39120707]
[ 0.25878543 -0.28965467 -0.1465982 ]
[-0.05591317 -0.10934155 -0.23795255]
[-0.43848982 -0.43163255 -0.27995235]
[-0.06024721  0.05825036 -0.36918542]
[-0.11616533  0.15288942 -0.61182827]
[-0.03325306  0.10539979 -0.42246211]
[ 0.30548531  0.19687304  0.09320145]
[ 0.85485905  0.36433524  0.27349478]
[ 0.41642773  0.64075834  0.52359599]
[ 0.18000129 -0.03190381  0.56900907]
[-0.29091239 -0.38817397 -0.68130392]
[ 0.12629139  0.0631986   0.09284441]
[-0.18026651 -0.130429    0.00779913]
[-0.51478761 -0.27847111 -0.21128941]
[-0.2274438  -0.37310335 -0.45551613]
[-0.44491273 -0.22887853 -0.04388077]
[ 0.03281656 -0.07561702 -0.13675383]
[ 0.29821754  0.16125454 -0.17646514]
[ 0.46676931  0.50329834 -0.3383165 ]
[ -1.95313409e-01   1.18635828e-04  -6.44151941e-02]
[-0.52190518 -0.18253379 -0.28058749]
[-0.065076   -0.52908719 -0.11428533]
[ 0.17335397 -0.30342376  0.13565467]
[ 0.25410295  0.04310269 -0.35074097]
[-0.08914779  0.1367124  -0.40155801]
[ 0.17272834 -0.14428017  0.10711626]
[-0.01149198  0.04641487 -0.33094195]
[ 0.40056509  0.43548143  0.17965643]
[-0.05198665 -0.29156721 -0.04743629]
[ 0.14517957  0.02180092 -0.20192365]
[-0.25285292 -0.38369188 -0.15465181]
[-0.47960868  0.2495672   0.33135918]
[-0.54429215  0.26950422  0.21751656]
[ 0.04541163 -0.01083596 -0.17406636]
[ 0.26833993  0.09090646  0.02772848]
[ 0.13793525  0.36494827  0.13020566]
[ 0.14129606  0.30832076 -0.04351361]
[ 0.44112438  0.02005084  0.00365441]
[-0.08226774  0.27463806  0.34255451]
[ 0.27201262  0.38150051  0.08709202]
[-0.14309876 -0.10046645 -0.18425216 -0.05736568]
layer 3 Activation
relu
layer 4 MaxPooling2D
2 2
layer 5 Dropout
layer 6 Flatten
layer 7 Dense
576 6
[-0.0435742   0.07946382 -0.0934797   0.00027787  0.02433158  0.01897741]
[-0.02035185  0.04073593  0.02213341 -0.03621802 -0.03435167 -0.0467062 ]
[-0.06474879 -0.06449158  0.02142481 -0.01017129 -0.04111329  0.00790105]
[-0.07488175 -0.05045423  0.01949196 -0.03079004  0.10582139  0.08391624]
[ 0.03825687  0.06046212  0.10977349  0.05231487  0.14745101 -0.00861594]
[-0.06543852  0.03513627  0.13637458  0.15830843  0.09691012  0.15331675]
[-0.00898073 -0.0436466  -0.04875431  0.08186221  0.05804777  0.2167249 ]
[ 0.10814707  0.11381155  0.16355492  0.10048151  0.08742376  0.21534258]
[ 0.22601035  0.03700235  0.11436893  0.18428847 -0.01844101  0.26909342]
[ 0.33083686 -0.01780094  0.26104224  0.24323158  0.00988065  0.27511635]
[ 0.11255451 -0.10049851  0.06795684  0.03104672 -0.10323881  0.05807885]
[ 0.04771049 -0.01098096 -0.06386755  0.04515204 -0.00971635 -0.07175223]
[ 0.03175501 -0.03090967  0.0061224  -0.05014922 -0.04833865 -0.06867796]
[ 0.00766     0.02166566 -0.0672735  -0.02493826 -0.05296784  0.03894871]
[ 0.04465198  0.03366157  0.05913683 -0.06201475  0.04250198  0.17228423]
[-0.04676059  0.06480853 -0.10783641 -0.04958865  0.08150837  0.13243818]
[-0.04856536  0.11924508 -0.09911562  0.03980304  0.09711877  0.0328262 ]
[-0.1858118   0.01440423 -0.04300169  0.05257787  0.03865489  0.039354  ]
[-0.11883935 -0.00618049  0.02157464  0.0736169   0.02183235  0.05793965]
[-0.00805186  0.0715118   0.08213685  0.05597054  0.020044    0.0646198 ]
[-0.0218428   0.00426322  0.09655979  0.09720492 -0.12780918  0.08322121]
[ 0.14361618  0.03705439  0.16959088 -0.05974754 -0.12106429  0.02898981]
[ 0.11457734  0.02535702  0.15192018  0.02812452 -0.08124831  0.03230789]
[ 0.00599607 -0.06432418  0.05077726 -0.11384938 -0.05110817  0.01207466]
[ 0.10620676  0.04220805  0.09669507 -0.07437117 -0.02766336  0.00131031]
[ 0.02182017 -0.04309385 -0.04502733  0.00457069 -0.00863274  0.1443806 ]
[ 0.02355774  0.01440178 -0.10282501 -0.06569567  0.13366863  0.02011278]
[-0.03085261  0.02396373 -0.12041976  0.06369073 -0.03155481  0.11897613]
[-0.05549923 -0.04828734 -0.12582727 -0.0089946   0.03300459  0.04564298]
[-0.14101079  0.03978777 -0.06532039  0.02480679  0.10375217 -0.03615319]
[-0.03638305 -0.01543817 -0.1772718   0.03619514  0.13221322  0.01076954]
[-0.11349406  0.06299026 -0.11764415  0.07148979  0.14252861  0.03711452]
[-0.04458547  0.01809113 -0.05045632  0.0005031   0.05619227 -0.01142347]
[ 0.02397694 -0.07455309  0.02574491 -0.08770824 -0.11454071 -0.05473919]
[ 0.04611075 -0.04653379 -0.02519739 -0.07323196 -0.05608089  0.07079426]
[ 0.06083389 -0.17487389 -0.08971868  0.06186521 -0.06296316  0.07137745]
[-0.08113952 -0.05004817 -0.04218282 -0.10401338  0.07982675  0.06131273]
[ 0.01920122 -0.06185514  0.02605307 -0.0540547   0.01997108  0.1375524 ]
[-0.07928189  0.01989245 -0.12831572 -0.07908765  0.11322268  0.01867085]
[-0.0201443  -0.09303134 -0.10008799 -0.03417024  0.1268526   0.01590321]
[-0.0604567   0.01435988 -0.0906506   0.02130258  0.15010409 -0.04293145]
[-0.04242994  0.04054536 -0.06655984  0.00135851  0.14632212 -0.0189409 ]
[-0.02054621  0.0912829  -0.07792769  0.00628035  0.1743838  -0.01795246]
[-0.15275028 -0.08742732 -0.04517154 -0.07655497  0.12029835 -0.00074473]
[-0.063344   -0.09912501 -0.00418683 -0.12524867  0.07336188 -0.03009897]
[-0.07937068 -0.07087199 -0.03322845 -0.11827046 -0.02448285 -0.00383191]
[-0.02269212 -0.07985736 -0.13922049  0.02878508 -0.06787726 -0.05152325]
[-0.10416437 -0.13242315 -0.03659196 -0.07917819 -0.0843605   0.09709717]
[ 0.03949927 -0.11412632  0.04970045 -0.00710367  0.14441171  0.10702811]
[-0.04711874  0.02550012 -0.11059715 -0.02833678  0.06498792 -0.09900124]
[-0.07579505 -0.02599665 -0.05004439 -0.10462962  0.09424398 -0.08406685]
[ 0.03626908 -0.05681471 -0.03962991 -0.04308446  0.08444367 -0.02572997]
[-0.02787843  0.0331739  -0.12066639 -0.01390907  0.08691389  0.00176138]
[-0.01115485 -0.05968249 -0.03269341 -0.09604304  0.13876678 -0.01866887]
[-0.09205762 -0.03835311  0.02388191 -0.10414993  0.12356776  0.10273102]
[-0.15389132 -0.13759305  0.06417633 -0.05381956  0.06438789  0.01969422]
[ 0.04893316 -0.13736258 -0.07368571  0.09699545  0.03094956 -0.03561392]
[ 0.03278859 -0.11392502 -0.00308719  0.10555218 -0.04925459 -0.01917318]
[-0.09741546 -0.09325057 -0.02171026  0.00237283 -0.08557171 -0.10729883]
[-0.07783213  0.08225883 -0.1088663  -0.02017205 -0.10808971 -0.02851188]
[ 0.06015186 -0.03266867  0.07823673 -0.02780847 -0.00618602  0.05047521]
[ 0.04819053  0.04580708 -0.09456417 -0.07931859  0.08000845 -0.01567489]
[ 0.0591343   0.01906379 -0.00747946 -0.06088065  0.00548899 -0.14665078]
[-0.00149188  0.02901659 -0.13490337 -0.03638567 -0.06962716 -0.20589088]
[-0.00361836  0.05222822  0.02101363  0.02608603 -0.05177637 -0.05999503]
[ 0.00868714 -0.00576234 -0.07371833 -0.05331226 -0.06449497  0.03592287]
[-0.02623121 -0.14710528  0.15235688  0.04980778  0.05760831  0.0922437 ]
[ 0.09380458 -0.1493039   0.05055923  0.14894505 -0.00109227 -0.01210188]
[ 0.13636823 -0.1151481  -0.10360534  0.17625168  0.04998795  0.00882232]
[ 0.08881718 -0.0023676   0.03200419  0.06334124  0.02770839 -0.08405207]
[-0.02266845 -0.00458413 -0.0322741   0.1156685  -0.0677576  -0.03523024]
[-0.06495532 -0.00247461 -0.00823865 -0.02876845 -0.15152299  0.07114178]
[ 0.03598243  0.08232559  0.04693964 -0.02701095 -0.04379147 -0.0489376 ]
[ 0.07999377 -0.11677091  0.05993298 -0.14491478 -0.07413918 -0.07190181]
[ 0.01630553  0.06232766 -0.09047626 -0.00814269 -0.0030336  -0.12856235]
[ 0.07536444  0.13311124  0.00792392  0.0116215   0.07619639 -0.13749459]
[ 0.03686303  0.03196873 -0.08710606  0.09576354  0.06218504 -0.06525727]
[ 0.06132504 -0.02058779  0.055702    0.08533853 -0.00811017 -0.01039373]
[ 0.08797314 -0.01915287  0.11459211  0.1102225   0.04923271  0.02104508]
[ 0.15826787 -0.02430733  0.0677916   0.0951179   0.00744924  0.09992713]
[ 0.19149715 -0.06005283 -0.03295301  0.11443752  0.15663949  0.06980281]
[ 0.07638667 -0.03547318  0.08928891  0.01923093  0.03066699 -0.08294662]
[ 0.03665523  0.0843902   0.15585448  0.06812941 -0.07675995 -0.1071175 ]
[ 0.05243795 -0.01453943 -0.0285987   0.11121293 -0.00693244 -0.00677196]
[ 0.0753656   0.02223516  0.02890224 -0.07190286 -0.05625441 -0.0808993 ]
[-0.07256866  0.05851175 -0.13187607 -0.00318309 -0.00473336 -0.01007487]
[ 0.04485538  0.1065442  -0.10558075  0.00975204  0.12711896 -0.09244566]
[ 0.03570839  0.14031292 -0.12361038  0.05942979  0.02166838 -0.10117728]
[ 0.01605839  0.01921772 -0.12471447  0.16496672  0.05909787 -0.12829871]
[ 0.09510976 -0.09403259  0.05589623  0.15867937  0.06872558 -0.02711365]
[ 0.14836681 -0.05630782  0.15498699  0.10265952  0.05925136  0.0354476 ]
[ 0.15936849 -0.12742962  0.03185499  0.02047039  0.09099595 -0.00058004]
[ 0.11740173  0.01336842 -0.00920748  0.01919442  0.07353135 -0.01991965]
[ 0.03220642  0.01918926  0.04211557 -0.01590881  0.06367341 -0.01043449]
[ 0.01111369  0.10696004  0.05827002  0.07420214  0.00241655 -0.05493755]
[-0.11321738  0.04597656 -0.03568663  0.04355328  0.07678463  0.04824403]
[-0.16423564 -0.06349859 -0.13262214 -0.09352694 -0.1336266  -0.01336872]
[-0.0353194   0.04959812 -0.0442261  -0.05827256 -0.09276106  0.00635129]
[-0.06494139 -0.01019697 -0.16200386 -0.01761378  0.01220099  0.01967713]
[ 0.05374346  0.07296328 -0.05527176  0.04839765  0.02131206 -0.06063366]
[ 0.08010361 -0.00595312 -0.10327432  0.0920388   0.03298443 -0.05582891]
[-0.03991569 -0.00154809  0.03832472  0.08039492  0.00744677 -0.06870129]
[ 0.08860184  0.06764776  0.07236736  0.03704285  0.0813003  -0.00893382]
[ 0.08345627  0.07049481 -0.04009599  0.04682774 -0.05953899 -0.04318919]
[ 0.04649349  0.13768862  0.08630335  0.04049235 -0.13975686  0.08147656]
[ 0.01839531  0.12682584  0.03735112  0.03163437 -0.024028    0.10484396]
[-0.1658974   0.20248052  0.03534744  0.03432924  0.01660028  0.01523894]
[-0.08974097  0.15236421  0.03046596  0.18162835  0.10359599  0.05126103]
[-0.14295562 -0.07927237 -0.0623722   0.09369925 -0.08027072  0.14619437]
[-0.15510122  0.06260028 -0.07179902 -0.00891009 -0.05448955  0.12198457]
[-0.12806569  0.05689464 -0.0488598   0.06645645 -0.07574416  0.16328357]
[-0.09530593  0.07132821  0.07799707 -0.01488859  0.03786908  0.0983129 ]
[-0.15715249  0.10698962  0.04976924  0.07132007  0.03432418  0.00999147]
[-0.01548353  0.10108622  0.03087033 -0.0212968   0.02798669  0.00977657]
[ 0.06048151  0.01540384  0.02979625  0.07771509  0.00864813  0.10215032]
[-0.03696485  0.13090931 -0.04817308  0.07324296  0.00682058  0.1681723 ]
[-0.06408671  0.0922281   0.00340409  0.06486328 -0.03503111 -0.00242099]
[-0.13209008  0.16300412 -0.10342972  0.08267015 -0.03619904  0.05020035]
[-0.15571612  0.11020456 -0.02125586  0.15248293  0.06728064  0.03317798]
[-0.06478558  0.06257129  0.01353426  0.17647178  0.21227722 -0.01782897]
[ 0.04361174  0.05972181 -0.07591628 -0.06477676  0.03198908  0.11072381]
[-0.07003237  0.09186612 -0.00665899 -0.01862129 -0.03079293  0.03299974]
[-0.25460428 -0.02610982 -0.10813765  0.01644155 -0.04948016  0.03232525]
[-0.04148991  0.0359976   0.00403425 -0.07155683 -0.02617116  0.06545872]
[ 0.00439988 -0.02282881  0.05501095  0.02341241  0.01386293  0.0938635 ]
[ 0.05924671  0.05867703 -0.10356511  0.05415022 -0.07082613  0.13242999]
[-0.02315675  0.06016176  0.00280748  0.0998944  -0.10011407  0.15078069]
[-0.12205193  0.0288185  -0.04124548  0.05225937 -0.194713    0.07418624]
[-0.13671832 -0.01028446 -0.05044162  0.05387181 -0.03934048  0.06913095]
[-0.19401452  0.03192421 -0.07961541  0.07250035 -0.02458729  0.05575237]
[ 0.00982723  0.04522764  0.02030183  0.07117251 -0.00162849 -0.14500193]
[-0.11184313  0.08372821 -0.05740776  0.04927925  0.13838835 -0.12859263]
[ 0.03495707  0.05532506 -0.09641472  0.08671185 -0.06985787 -0.00467896]
[ 0.02295875 -0.05143518 -0.01571808 -0.01457015 -0.12230276  0.08212698]
[-0.11071603  0.00640275  0.10873148 -0.10012855 -0.11975259 -0.02869565]
[-0.10912463 -0.04207179  0.02115497 -0.0714608  -0.1782604   0.05261282]
[-0.05653534 -0.03513017 -0.1390233   0.02315031 -0.21516417  0.04388805]
[-0.2350975   0.02632777 -0.14342804 -0.02884251 -0.19837798  0.04567025]
[-0.19294308  0.00985756  0.00134695 -0.00130575 -0.095573    0.0179885 ]
[-0.00935828 -0.12238142  0.0710383  -0.00296947 -0.12722325 -0.049079  ]
[ 0.11764063 -0.09810384 -0.10641151  0.07486776 -0.10989452 -0.00469959]
[-0.01901971  0.06768367 -0.02193567 -0.01236276 -0.03242128 -0.05798129]
[ 0.07576956  0.05153101  0.06401902 -0.11453868 -0.08620268  0.01318469]
[ 0.06078902  0.00109411  0.06450303  0.02190667  0.07478341  0.08491135]
[-0.04720632 -0.00176722  0.0016718   0.01005444 -0.04916003 -0.02426552]
[-0.04909418  0.02181129  0.02552806 -0.01152957  0.03105666 -0.06364542]
[-0.09468946  0.0272794   0.04555097 -0.01891716 -0.01782295 -0.03635533]
[-0.05608501 -0.06047122  0.07997062  0.06592642  0.11215233 -0.08940019]
[ 0.04891901  0.07291616  0.05728579 -0.05134976  0.05764335  0.07830116]
[-0.11856007  0.01863328 -0.07362272  0.11112794  0.04445248 -0.08075269]
[-0.0983007   0.02698511  0.10009148  0.13279259 -0.07438685  0.11009788]
[-0.05719481  0.10241894 -0.0229343   0.09786829  0.09345974  0.00548315]
[ 0.02461019  0.06599764 -0.03414895  0.00609676  0.03459543  0.00415714]
[ 0.01100475 -0.03266648  0.02579114  0.12101142 -0.05633941  0.12998179]
[ 0.06999317  0.07228461 -0.02848869 -0.05348928  0.04627509 -0.00731131]
[-0.0621434   0.09250473 -0.06228493 -0.05794273 -0.03298004  0.10754901]
[ 0.09114324 -0.0833099   0.08150404  0.06633653 -0.06514181 -0.02363124]
[-0.0899828  -0.06600107 -0.04011394  0.09941173  0.00266078  0.06296148]
[ 0.00763101  0.0029772  -0.02871608  0.07443253  0.03337814  0.05638239]
[-0.07151595  0.05790275 -0.11434795  0.01019293  0.02340007  0.10292902]
[-0.14116988 -0.0134761  -0.08990342  0.07795344  0.21908998  0.1209225 ]
[-0.1826981   0.11109056 -0.13005437  0.00989294  0.05726924  0.10516414]
[-0.15197773  0.09286488 -0.20510869  0.03025085  0.13097872  0.00128495]
[-0.03517665  0.09378081 -0.08432412  0.00530925  0.0409591   0.0039599 ]
[-0.03778149 -0.02661766 -0.06233207  0.15340002 -0.00799747 -0.07077035]
[ 0.05251649  0.08560518  0.1018063   0.07113286 -0.01066841 -0.01016918]
[ 0.14977621 -0.09330799  0.13413304  0.09319536  0.00550075  0.09685338]
[ 0.06727467 -0.09679417 -0.06887149  0.02665465  0.06234642 -0.09097845]
[ 0.04968631  0.021405   -0.0297307   0.07084467 -0.08518494  0.05893084]
[ 0.06185578 -0.06689292  0.04202303  0.03268854  0.06496433  0.00243345]
[ 0.00808849  0.01514182  0.0248286  -0.01719059  0.17236049  0.1260709 ]
[-0.11871096  0.06311803 -0.19897333 -0.0094427   0.15383613  0.15936035]
[-0.1955501   0.03310562 -0.11246025  0.01236307  0.15565445  0.17799059]
[-0.18659483  0.07243489 -0.23428614  0.01262578  0.06007081  0.13876611]
[-0.21307175  0.07268421 -0.3042812   0.03499082  0.16311811  0.04819986]
[-0.23877333  0.04899169 -0.29789078  0.0499832   0.19114885 -0.04733176]
[-0.10630257  0.08284847 -0.0600937  -0.04648615  0.10066191 -0.02305933]
[-0.04765547 -0.06209929  0.01832993  0.01076533 -0.0410306  -0.04640851]
[ 0.03357688 -0.17371836 -0.05860346 -0.07593186 -0.03136624 -0.02647566]
[-0.08030178 -0.06367806 -0.06775021 -0.060653   -0.05144463 -0.03706799]
[ 0.06439732  0.02627535  0.07913038 -0.10009127 -0.03978472  0.05319121]
[-0.07542153 -0.03789035 -0.11052735 -0.01033313  0.01717339  0.04854355]
[-0.15078898 -0.00470159 -0.1620191  -0.01289529  0.13963316  0.00264924]
[-0.15724431  0.01055848 -0.22306743 -0.00297106  0.17491142  0.17231041]
[-0.25134522 -0.03482665 -0.07689805  0.01399776  0.1055704   0.08650471]
[-0.07745369  0.01555923 -0.16755654 -0.00398481  0.08794124  0.11617482]
[-0.08270356  0.04675592 -0.23866065 -0.00497984  0.1358351  -0.01620639]
[-0.12961029  0.02829519 -0.12722808 -0.01443233  0.04414773 -0.05666885]
[-0.16965634  0.020468   -0.17188285  0.01719207  0.0377627  -0.05349293]
[-0.11025536 -0.06644841 -0.09670163 -0.00815016 -0.06064263  0.0187167 ]
[-0.11425094 -0.1058846  -0.06088773 -0.11730807 -0.05349099  0.15727818]
[-0.10844996 -0.1246207  -0.11613224  0.03210357 -0.17229666  0.14157891]
[-0.07140687 -0.01344478  0.06704283 -0.02349725  0.04682431 -0.0290538 ]
[-0.01072974 -0.00353479 -0.06176227  0.04933264  0.02127363  0.04630996]
[-0.05807224 -0.01991347 -0.06452272  0.07831851  0.1508235  -0.01145366]
[-0.20965457 -0.05862128 -0.21106815  0.09663549  0.10443651  0.02086825]
[-0.16694248  0.0078641  -0.20390935  0.02157705  0.194379   -0.04097582]
[-0.23084314 -0.01052866 -0.08491149  0.01050085  0.17414592 -0.03889063]
[-0.20554806  0.04965964 -0.17794016  0.0155275   0.19526669 -0.09485608]
[-0.19119613  0.10131375 -0.17553177 -0.05109161  0.08964645 -0.11093994]
[-0.18039443  0.06546189 -0.13939051 -0.12490457 -0.0747849   0.02843057]
[-0.09501845  0.01734585 -0.05334024 -0.01894235 -0.21283539  0.06135052]
[-0.16596819 -0.03944033 -0.14258906 -0.00299327 -0.10505082  0.1932946 ]
[-0.06842392 -0.07053382 -0.13886119  0.01107106 -0.15595885  0.12675798]
[ 0.06000392 -0.03870098 -0.03048905  0.06438806  0.11233687 -0.07766645]
[-0.09460818 -0.0961979   0.02572342  0.06351762  0.12452521 -0.0264629 ]
[-0.09963429 -0.07661959 -0.12161586  0.03300774  0.11400631 -0.11435603]
[-0.08574507 -0.15755817 -0.19106644  0.00065203  0.07582764 -0.12533446]
[-0.04804932 -0.17170189 -0.27157846 -0.01614529  0.03250814 -0.05377065]
[-0.11129252 -0.19836695 -0.22173873 -0.12702881  0.03282459  0.02403414]
[-0.15797555 -0.07302202 -0.07562096 -0.20865598  0.04392435  0.16793121]
[-0.19164836 -0.06133687  0.03677168 -0.05038484 -0.01961371  0.05356934]
[-0.04902652 -0.06453456 -0.0424792   0.07181241 -0.17723309  0.07839224]
[ 0.02407549 -0.05995505  0.04467843  0.05306756 -0.23295408 -0.06631688]
[-0.03249705  0.00408929 -0.14530721  0.03912951 -0.10427387  0.08755215]
[-0.15388298  0.05113669 -0.1019664   0.04866929 -0.02458229  0.0624513 ]
[-0.01770873 -0.00840487 -0.02229948 -0.01429906  0.03667951 -0.08040364]
[ 0.04280536 -0.06417821  0.02464288 -0.08888692 -0.07086958 -0.10935962]
[-0.017398   -0.13611367 -0.00300536 -0.11406767 -0.01479996 -0.06881853]
[ 0.00423655 -0.24169916 -0.10232384 -0.05501551 -0.01301116  0.05694152]
[ 0.05947401 -0.12983704 -0.1979858  -0.17134924 -0.07174601  0.10272178]
[ 0.03853672 -0.13090415 -0.19494757 -0.16379404 -0.16721973  0.15307304]
[-0.02296551 -0.19944476  0.02462978 -0.10336655 -0.12322605  0.18083319]
[-0.00752577 -0.27565092  0.02491831 -0.05091596 -0.13150735  0.17763224]
[ 0.03439996 -0.26236185  0.01073724  0.05651252 -0.16074954  0.07965081]
[ 0.04460785 -0.1495717  -0.01920449  0.07499854 -0.08958812  0.07108872]
[ 0.1042881  -0.17203014  0.05874077  0.05915882 -0.05146896  0.0091619 ]
[ 0.00314081 -0.01936629  0.01215739  0.14007567  0.00844393 -0.10596221]
[-0.00497079  0.02994947 -0.03443645 -0.03091853  0.0403451   0.03914642]
[ 0.19558068 -0.18193807  0.07196777 -0.12562478 -0.07482972 -0.0167605 ]
[ 0.10905925 -0.20902628 -0.04083762 -0.17872389 -0.03922687  0.01637352]
[ 0.0841748  -0.12886098 -0.13074042 -0.1588902  -0.05293262  0.12027596]
[ 0.1458766  -0.12607354 -0.21974383 -0.19701062 -0.02892899  0.12940526]
[ 0.08827533 -0.10624813 -0.13655521 -0.09130489 -0.09194952  0.04538681]
[ 0.0396524  -0.1167419   0.00016852  0.01472494 -0.13212591  0.0847732 ]
[-0.00805581 -0.14241089  0.00128929  0.04749661 -0.1226622   0.04155303]
[ 0.06304543 -0.10946606 -0.13951753 -0.01632364 -0.07923338 -0.0217982 ]
[ 0.03925781 -0.06032475 -0.02440843 -0.03816797  0.00484232 -0.03513178]
[ 0.0402582   0.08753552 -0.06139418  0.10145611  0.02762014 -0.02839457]
[-0.05410233  0.09692619 -0.07522702  0.10956052  0.08243911  0.05414302]
[-0.16723235 -0.00372211 -0.00883499 -0.03127918 -0.02084182 -0.05675598]
[-0.09952796 -0.08846116 -0.08518454 -0.0635707   0.04399689  0.07683345]
[ 0.02976303 -0.04252831 -0.03951529 -0.10730645 -0.12831098  0.07261905]
[ 0.11681005 -0.05686823  0.04392083 -0.11025683 -0.03007712  0.13932686]
[ 0.08617468 -0.07324178 -0.1156617  -0.11611694 -0.06120463  0.0571349 ]
[-0.00291587 -0.06904124 -0.01048838 -0.04996302 -0.08309593  0.05940292]
[-0.00020363 -0.07463257 -0.03659753  0.06255694 -0.18966806  0.04575125]
[-0.04962042  0.014955   -0.07177711  0.10373511 -0.07438936  0.01917299]
[-0.0500337   0.08857027 -0.07220511  0.0913417   0.01996998 -0.03894584]
[-0.00618066  0.1819032   0.01682494  0.13549499  0.09998697  0.04469578]
[-0.1243704   0.05579717  0.13617876  0.01780536  0.02991083  0.05244434]
[-0.07002209  0.17451666 -0.05595784  0.19187334  0.15734445 -0.02830848]
[-0.00550578 -0.05362282  0.01305439 -0.00314075  0.04427388  0.0987106 ]
[-0.17042519 -0.00437989 -0.06562012  0.02736661  0.01512267  0.11812139]
[ 0.02091119  0.00356222 -0.06216351 -0.09440134 -0.0223022   0.06548784]
[-0.0358004   0.04534969  0.00671187  0.00446338 -0.04056734  0.16501617]
[ 0.06143409  0.06670809  0.07439399  0.08753361 -0.03021983  0.19034398]
[-0.06516908  0.03911337  0.08933385  0.17669779 -0.06057014  0.20711598]
[-0.0582253   0.03748049  0.07123872  0.11079347 -0.05267178  0.18670925]
[ 0.01266256  0.12152927  0.04615252  0.12775737 -0.03265062  0.03331647]
[-0.00218865  0.12629066  0.1052145   0.16583104  0.07657775  0.07503808]
[-0.02201352  0.15558669  0.0693581   0.10246235  0.0917494   0.06622364]
[-0.01507903  0.15093125  0.03812143  0.14276287  0.0686441   0.05648991]
[-0.102468    0.13878323  0.07940348  0.20899206  0.14046146  0.06954765]
[ 0.02158439  0.08912446 -0.03616762  0.00599125  0.01114045  0.15914294]
[-0.11880106  0.13428673  0.03270261 -0.04067368  0.02753843  0.08336553]
[-0.13153473  0.01517211  0.03646991  0.00722171 -0.03804222  0.00988638]
[-0.15224211  0.04551512 -0.01776784  0.0124613  -0.05044368  0.02287734]
[-0.04219916  0.10394952  0.04234564  0.03554058 -0.08051518  0.06564979]
[-0.08282439  0.03563428  0.04323058  0.00578852 -0.19954854  0.04108706]
[-0.00353419  0.05767839  0.06456223  0.05520861 -0.16544931  0.01791642]
[ 0.07866832  0.11519889  0.11392793 -0.03132015 -0.00694942  0.01744533]
[ 0.05165958  0.01506866 -0.03218089  0.05933498  0.08971371 -0.06413296]
[-0.03851692  0.0453455   0.0187801   0.17980301  0.08039781  0.02615802]
[-0.03004958  0.01058072 -0.15476984  0.17154677  0.09085288  0.01580371]
[-0.00179254  0.06365208  0.00860913  0.1207817   0.0536949  -0.11633857]
[-0.10549004 -0.04263834 -0.07800983  0.0667841   0.04351537  0.17116508]
[ 0.03228171  0.06258874 -0.00849981 -0.02543102  0.04355586  0.02134632]
[-0.19633628  0.00843587  0.0428628  -0.0235528  -0.00512069  0.03873717]
[-0.07011715 -0.01141969  0.01718188 -0.01926224 -0.05722856  0.03039438]
[ -1.60580650e-01   3.23510976e-05  -4.47395518e-02   3.45104150e-02
  -1.54227838e-01   2.27738153e-02]
[-0.17329723  0.01680397 -0.08485071 -0.01764349 -0.21456648  0.04271787]
[-0.17080663 -0.02104163  0.00654417 -0.03180172 -0.14698057 -0.03439965]
[-0.09595591  0.03502936  0.05612234 -0.0180279  -0.08495162 -0.08980463]
[-0.03191468  0.04282076 -0.03282483 -0.00622816 -0.0161125  -0.13067119]
[ 0.08535563  0.04945493 -0.06543414  0.01651511 -0.00921813 -0.05475194]
[ 0.08883305  0.07402909 -0.04061092  0.04031349 -0.11014774 -0.01667668]
[ 0.06018514  0.06944975 -0.05013873 -0.0175735   0.12072589 -0.11221218]
[-0.07284851  0.06165196  0.00134534  0.00462084  0.03077376 -0.02033049]
[ 0.05346988 -0.0428587  -0.08193988 -0.06462584 -0.08328577 -0.07953741]
[ 0.07221325 -0.09347616 -0.05042757 -0.04318041  0.04196398 -0.04180043]
[ 0.03060735  0.0867888   0.05360683  0.13834141  0.05010982  0.05408903]
[-0.01314203  0.08589712  0.10626099 -0.01053961 -0.10143398  0.05465155]
[-0.03365875  0.04608481  0.09310135  0.11472507  0.00404955  0.12733848]
[-0.02251911  0.10065813  0.16985662  0.14086446 -0.03503874  0.04417671]
[-0.03041408 -0.10159265  0.14406049 -0.0364156   0.01570707  0.10131228]
[ 0.04873737 -0.04897942  0.12985641  0.01906012 -0.10470629  0.12392665]
[ 0.11569839  0.00104181  0.07033645 -0.04913298  0.04225685  0.0340712 ]
[ 0.08700657  0.0246562  -0.01643254 -0.06609105 -0.1033771  -0.01442846]
[-0.00156873  0.04840281  0.0659325  -0.07250458  0.05794653 -0.10253797]
[-0.06356493  0.05135911 -0.01329631 -0.04633365  0.09575465 -0.08402949]
[ 0.02916173 -0.06953871  0.03704667  0.00981223  0.03105149  0.07433669]
[ 0.05829786  0.00477094  0.08056038 -0.07965432 -0.01506419 -0.04521669]
[-0.01021793 -0.10441916  0.00827139 -0.00997652 -0.04300212 -0.03370082]
[-0.00201383  0.08709677  0.12534387  0.0953242  -0.00201286  0.03884463]
[ 0.07941028  0.04228242  0.07140903 -0.03345672  0.08912387 -0.0044834 ]
[ 0.09011929  0.11961555 -0.02880631  0.03169228  0.08842444  0.08927583]
[ 0.19317739 -0.0966326   0.07069802  0.0655199   0.0542979   0.12364996]
[ 0.19362259 -0.10714084  0.15048553  0.02524321 -0.09899532  0.16443852]
[ 0.08217095 -0.09103462  0.09612963  0.04589023 -0.02384846  0.08329979]
[ 0.07017696  0.00386587  0.10258797  0.06565443 -0.09314737  0.06448957]
[ 0.11974846  0.00600131 -0.01383849  0.02346028 -0.00931357 -0.03475936]
[ 0.05479753  0.07585368  0.03789831 -0.08219881 -0.01352396  0.10483606]
[-0.05270487  0.00638098  0.03049892 -0.05187751  0.07401746 -0.0723884 ]
[ 0.09987385 -0.02121251 -0.0871807  -0.08343321 -0.0029567   0.01898228]
[ 0.09701921 -0.02513197  0.00427569  0.02114503  0.02214281  0.04870242]
[-0.01159364 -0.01866646 -0.05617217  0.03311266  0.07445762  0.02640782]
[ 0.03770046 -0.04181297  0.11030227 -0.06832781 -0.01947373  0.028191  ]
[-0.100228    0.0766131   0.08172655 -0.01336957 -0.14149301  0.03600162]
[-0.01000058  0.06204095 -0.00708324 -0.03328201 -0.08565419  0.00473632]
[ 0.01598738 -0.00263724 -0.0279671   0.00729479 -0.0483484  -0.07560834]
[ 0.12282245 -0.07386868  0.04724674 -0.07590184 -0.11973641 -0.08050164]
[ 0.08581076 -0.02902412  0.04474125 -0.01800102 -0.11966383 -0.05166342]
[ 0.04100072 -0.09168099 -0.11319774  0.03754855  0.03622166 -0.00882748]
[ 0.0448161  -0.02439858 -0.01501805  0.07002381  0.06976829 -0.01116724]
[-0.04085184  0.00213254 -0.0983353  -0.00337066  0.04673457 -0.03389906]
[ 0.0193507  -0.06741214  0.08559451  0.0515678  -0.05806495 -0.03648764]
[ 0.09458353 -0.09578204  0.04719862 -0.05054451  0.01053411 -0.03965794]
[-0.03681324 -0.01550341 -0.07223824  0.07717166 -0.15120958 -0.04127423]
[-0.05751992  0.0137592  -0.03233829 -0.03062039 -0.10552419 -0.0476848 ]
[-0.00986294  0.01830149  0.01573767 -0.12097153 -0.00086403 -0.04866112]
[ 0.0193435   0.05247395 -0.08985978 -0.06064857  0.1042083  -0.04885178]
[-0.06241729  0.02265366 -0.11430436 -0.02479962 -0.02170371 -0.1170781 ]
[-0.02228514  0.06298948 -0.14458352 -0.0662007  -0.0508503  -0.15116298]
[ 0.0916004   0.06314307 -0.02800802 -0.01353931 -0.07236101 -0.11464094]
[ 0.01083975 -0.07329999  0.02291558  0.04465199 -0.08169345  0.09353516]
[-0.10241212 -0.00442327  0.047448    0.02235076  0.06645121 -0.01848622]
[ 0.03019191 -0.05060934 -0.05061276 -0.00029521  0.01331875  0.02816488]
[ 0.05233391 -0.06253234 -0.05777173  0.03427405 -0.06704664 -0.06137187]
[ 0.13428095 -0.00489727 -0.05622505  0.05754892 -0.01581431 -0.1235802 ]
[ 0.08009399  0.00668178 -0.04873374  0.00655109  0.04039806 -0.1365618 ]
[ 0.04043051  0.01554988 -0.07711197  0.05697928  0.02965115 -0.1704687 ]
[-0.08060301  0.08869641  0.11388525 -0.08163574  0.05509227 -0.10576101]
[-0.03411242  0.16541506 -0.08543041 -0.13500713  0.14104173 -0.18435578]
[ 0.0409174   0.17600456 -0.20480101 -0.1717307   0.03293722 -0.19166386]
[-0.00591524  0.0961841  -0.18877037 -0.11567026  0.04209869 -0.17238502]
[-0.00412077  0.0196466  -0.14806032 -0.01337314  0.04092948 -0.23527722]
[-0.13846381  0.03522018 -0.08152935  0.04286448 -0.04604089 -0.03981633]
[ 0.1120388  -0.02849662 -0.10976289 -0.07361359  0.03172028  0.02048165]
[ 0.00219822 -0.08657531  0.00869193 -0.13543522  0.10050032 -0.05322412]
[ 0.08754257 -0.12517047 -0.00240596 -0.06311142 -0.04679431 -0.19823021]
[ 0.05273474 -0.09455636  0.07488356 -0.05780851  0.01703512 -0.18291093]
[ 0.11180725  0.02828503  0.00473285 -0.02769845  0.00128071 -0.11755016]
[ 0.05983813 -0.11943396 -0.06167646 -0.04577799 -0.14083201 -0.03212121]
[-0.16138585 -0.08325733  0.15126486 -0.15543181  0.01657783 -0.12175502]
[ 0.07037721 -0.03999811 -0.06695276 -0.14113349  0.15002096 -0.13779666]
[ 0.07176288  0.05419436 -0.21254003 -0.08391943  0.09936316 -0.16252765]
[ 0.03266811  0.16848877 -0.14254278 -0.00058064  0.06567127 -0.20062701]
[ 0.0115281   0.24341647  0.02100627  0.02583347 -0.10019512 -0.28616977]
[ 0.00400764 -0.01251871 -0.06235547 -0.01431139 -0.03847455  0.01433233]
[-0.01448889 -0.09833199 -0.08459684 -0.05564557  0.07886396 -0.01798415]
[ 0.06694785 -0.04912691 -0.09149478 -0.1497311   0.00081445 -0.1917515 ]
[ 0.12330361  0.00088213  0.09426807 -0.25417095 -0.07144056 -0.14334302]
[ 0.11794349  0.05689018  0.04994118 -0.16520503 -0.03363772 -0.05184642]
[ 0.09415425  0.02093096 -0.07243016 -0.0467414  -0.11098757  0.07750271]
[ 0.017225   -0.1614808   0.04192023 -0.05375109 -0.28278199  0.05298201]
[-0.14001288 -0.19046257  0.15686646 -0.14395992 -0.01236687 -0.02742718]
[ 0.14090748 -0.14877445 -0.06660596 -0.01285358  0.08489237 -0.0406954 ]
[ 0.06258664 -0.02420448 -0.09807073 -0.00595592  0.10618812 -0.11627402]
[ 0.07045284  0.12770802  0.03184679 -0.05700389  0.05950304 -0.18939348]
[ 0.07608337  0.16212721  0.11733808 -0.05256597 -0.11720699 -0.14452505]
[-0.03461712  0.03637423  0.11648191 -0.0364434  -0.14018807 -0.03380129]
[-0.07745062  0.07568369  0.05129045 -0.06093076  0.09158454 -0.07569592]
[ 0.04090038  0.15312606 -0.0888571  -0.12508002 -0.01818951 -0.17926329]
[ 0.13208432  0.08933657  0.05469231 -0.07100707 -0.05063546 -0.10421597]
[ 0.08765082  0.13395749  0.04203849 -0.08845755 -0.06084478 -0.03967774]
[ 0.08817896  0.07660073  0.02794003  0.09034539 -0.07161308  0.05259212]
[-0.10804833 -0.12380295  0.14756936  0.10956488 -0.11548438  0.01001455]
[ 0.01641469 -0.16580194  0.17792213  0.06324655 -0.01239827  0.03269174]
[ 0.18934649 -0.15591061 -0.04464458  0.05347201  0.10392452 -0.04884621]
[ 0.03068013  0.04516423  0.06527115 -0.08354516  0.09917148  0.00655184]
[ 0.03466338  0.05459817  0.1676577  -0.02959723 -0.12140155  0.03026883]
[ 0.10793377  0.12333325  0.12934677 -0.09580504 -0.11882184 -0.05954954]
[-0.03782307  0.06402506 -0.03003462  0.06128575 -0.10798989  0.10563239]
[-0.13194203  0.07382517  0.01939819 -0.02588716 -0.07128189  0.17440601]
[-0.10372773  0.00600644 -0.00826316  0.04432202 -0.0328119   0.01873679]
[ 0.13825792  0.10940532 -0.02111908  0.01045468  0.0157247  -0.07547513]
[ 0.11227105  0.22137405  0.07670411  0.07662724 -0.05177081 -0.13090174]
[ 0.03947499  0.05983316  0.03867231  0.2532503  -0.03309928 -0.09127202]
[-0.04742749  0.0438643   0.13757378  0.12532215 -0.0299403  -0.07185035]
[ 0.06756333 -0.12043208  0.13739435  0.11470666  0.06186707 -0.01721471]
[ 0.09458754 -0.04019833 -0.11136827  0.10420877  0.07020809  0.04652018]
[ 0.01324286 -0.01429228 -0.01379715  0.00426685 -0.05864317  0.05478174]
[ 0.03192288  0.00825994  0.1645627  -0.08095574 -0.14055701  0.10055473]
[-0.05242281 -0.0451133   0.0799128  -0.06762103 -0.12821364  0.02383551]
[ 0.00038665  0.0507902  -0.05084676  0.05324727  0.08965267  0.09553463]
[-0.09067856 -0.11848214 -0.00546453  0.0773586  -0.00170245  0.25090596]
[-0.1996627   0.07721378 -0.12357784  0.01164664  0.00497414  0.01847244]
[-0.05155333  0.12404615 -0.0866684   0.08346596  0.04461138 -0.02991832]
[-0.12395542  0.13107793 -0.04330122  0.15753362 -0.02054385 -0.03931855]
[-0.03591134  0.1243845   0.10378946  0.19747166 -0.01235416 -0.06895963]
[ 0.04465865 -0.01687565  0.21332154  0.05113159  0.08088644 -0.11715414]
[ 0.10365427 -0.03261378  0.08438874  0.09004675  0.1225221  -0.08453386]
[ 0.03236893 -0.02957631 -0.02902338  0.08846159 -0.003139    0.03607812]
[-0.00091792 -0.01587399 -0.0019843   0.01892985 -0.04463531  0.08706108]
[-0.05053528 -0.03061146 -0.04630137 -0.0168516  -0.13437307  0.0936429 ]
[-0.14696476  0.04899856  0.07795103 -0.04385299 -0.06774795 -0.01016086]
[-0.01803461  0.16933423 -0.01999566  0.15569924  0.12539315  0.02332549]
[-0.03044968  0.04656798  0.03973758  0.0739243  -0.12893945  0.04377742]
[-0.12632887  0.15694767 -0.1363036   0.07691952  0.06936069  0.03070995]
[-0.23569323  0.14123242 -0.1047587   0.04359063 -0.05361195 -0.04566119]
[-0.16749386  0.11116854  0.05896028  0.06162401 -0.03273009 -0.06122503]
[-0.12059585  0.02609687  0.06370131  0.07596767  0.00376843 -0.13664944]
[ 0.0518394  -0.05063424  0.04746702 -0.01722785 -0.00524386 -0.11647893]
[ 0.03424713 -0.02033527  0.07335591  0.03778193 -0.06831671 -0.08084594]
[-0.0240252  -0.03540621  0.01614595 -0.03663472 -0.08946868 -0.03493157]
[ 0.00667203 -0.04030035 -0.05078093  0.04003689 -0.12080462 -0.02614964]
[-0.061669   -0.01503397 -0.01544312  0.01157858 -0.09802394  0.00030443]
[ 0.0458516   0.14237213 -0.12104203  0.15781145  0.06649724 -0.02946622]
[ 0.05153908  0.08618064 -0.05593969  0.06575775  0.14983134 -0.01647445]
[-0.01231478  0.03825534 -0.05852873 -0.01561247 -0.09838178  0.03103642]
[-0.10287657 -0.03792383  0.05456645 -0.05116726  0.0347314   0.16602145]
[-0.04990464 -0.05434348  0.03122986 -0.00745095  0.00462837  0.01733784]
[-0.04675271 -0.05251297  0.06066624 -0.06131962 -0.04000919 -0.04252709]
[ 0.09523481 -0.09014115  0.0652749  -0.06504476  0.04058588 -0.05378006]
[ 0.04713884 -0.01232249  0.02605042 -0.10051386  0.06835008 -0.10771341]
[-0.03011509 -0.12158932  0.03575879 -0.15939505  0.01178971 -0.1072796 ]
[ 0.03070965 -0.12111085  0.11605374 -0.18259725  0.04534749 -0.16189249]
[ 0.05625983 -0.00116918 -0.01608526 -0.14056659 -0.02222672 -0.0932223 ]
[ 0.13389967  0.07055481 -0.06275163 -0.03673595 -0.004492   -0.04351193]
[-0.03129614 -0.0084146  -0.09318522  0.01492018 -0.07051354 -0.07516213]
[ 0.01288791 -0.05730323 -0.08190937 -0.05898139  0.09135604  0.00019091]
[-0.05583676 -0.045608   -0.05773949 -0.09319045  0.02899407 -0.08281724]
[ 0.04609235 -0.02812036 -0.07833052  0.01364184 -0.02361352  0.11994122]
[-0.04837182 -0.03717064  0.01207537  0.05768713 -0.01035215 -0.00523843]
[-0.02669459  0.00802506  0.03103527  0.12528256  0.08063618  0.18940444]
[-0.03896287  0.04514873 -0.03714175  0.12901589  0.12945125  0.1629418 ]
[-0.08710773 -0.02524641  0.07637842  0.055884    0.00916923  0.0648343 ]
[-0.07954042 -0.07095181  0.04342549  0.03476688  0.07245265 -0.03262476]
[ 0.00503928  0.02297856  0.10779992  0.05067543  0.05286431  0.01785555]
[ 0.09667945  0.06227956  0.08780961  0.01617843 -0.01116732  0.10172118]
[ 0.07299965 -0.03871233  0.11570971  0.03357197 -0.05551513  0.0376029 ]
[ 0.09970745 -0.12285914  0.13458739  0.08504365  0.0526451   0.03367731]
[ 0.09248687 -0.08781113 -0.04494517 -0.04958952  0.02349219  0.0486685 ]
[-0.06910894 -0.06722727  0.06863649 -0.04078512 -0.09080348  0.12598442]
[-0.06611262 -0.00583837 -0.09472262 -0.03874479 -0.03662044  0.12735502]
[ 0.07194103 -0.14853066  0.00101971  0.07882272 -0.06477685 -0.02595523]
[-0.01304792 -0.03584946 -0.07267521  0.02326842 -0.05617434  0.09540464]
[-0.02912208 -0.01105197  0.00309253 -0.0692816  -0.02403867 -0.04766083]
[-0.07399284  0.05142529 -0.03932469 -0.10818274  0.0130948  -0.09002104]
[-0.12844808 -0.00213636  0.02668912 -0.06409176  0.00512591  0.03090171]
[-0.05634065 -0.0420601  -0.00772743 -0.08127118 -0.06139719 -0.08138012]
[-0.03622739  0.05961892 -0.00778875 -0.04005058 -0.05512445 -0.0159236 ]
[-0.03086188 -0.03543727  0.09830695 -0.02089404 -0.07953459 -0.07255867]
[ 0.06286064  0.00535593  0.07653081 -0.04371526 -0.04774088 -0.10231349]
[ 0.10817184 -0.04743174  0.0818251   0.00823076 -0.14172889  0.01507411]
[ 0.03091579 -0.1123521   0.00894927  0.05680255 -0.04066726 -0.07474717]
[-0.04485448 -0.02969901 -0.01801782 -0.02026606 -0.05677259 -0.01758047]
[ 0.01451331 -0.09634701 -0.01555482  0.03219726 -0.02954734 -0.05476303]
[ 0.12994032 -0.075888   -0.09473813 -0.04734662 -0.03364331 -0.10119646]
[ 0.09499719 -0.0509325  -0.09170841 -0.10380849  0.00077681  0.0241592 ]
[-0.01345722  0.06383395 -0.06197201 -0.04803086  0.01574519 -0.05137248]
[-0.02837509 -0.00485868  0.04626027 -0.03866274  0.126706   -0.06624462]
[ 0.0036826   0.08241647  0.00958009 -0.11444821  0.06628498 -0.17608376]
[-0.00751257  0.01782203 -0.14042707 -0.13505867  0.10897527 -0.12739499]
[ 0.01998222 -0.00729383 -0.11836218 -0.08426642  0.05369012 -0.09634419]
[-0.02149411  0.02696046 -0.20205331 -0.07053032  0.02393552 -0.0618162 ]
[-0.10189092 -0.01980186 -0.02978049  0.04680533 -0.12546989  0.08681952]
[ 0.00729548  0.00044867  0.02633054 -0.11663283  0.15234049  0.06800117]
[ 0.00212098 -0.15849409 -0.06539719 -0.10519179  0.11622502 -0.05251906]
[ 0.05571874 -0.02134131 -0.08376337 -0.13182633  0.06730586 -0.10152109]
[ 0.1144428  -0.07071606 -0.11249724  0.00979083 -0.00553844 -0.06019286]
[ 0.08524714  0.0216446  -0.17126693  0.06383508  0.09999622 -0.12618592]
[-0.02885831 -0.02269529 -0.01786115 -0.00093943  0.05195665 -0.1729169 ]
[-0.16414183 -0.00976191  0.13402992 -0.10553961  0.14719382 -0.16238953]
[-0.05285512 -0.10457107 -0.0296539  -0.11397591  0.13831559 -0.23889837]
[ 0.05059994  0.01291239 -0.12212974 -0.1699973   0.14372957 -0.21477216]
[ 0.0018841   0.02655401 -0.13784395 -0.10637186  0.09490754 -0.12750633]
[-0.15929422  0.13369302 -0.03679307 -0.09282047  0.0249822  -0.20457025]
[-0.13944124 -0.01721175 -0.15992482  0.06043724 -0.04693786 -0.0883508 ]
[-0.08206148  0.01021193 -0.05093516 -0.0292925   0.08553784  0.02397901]
[ 0.09029575  0.00225702 -0.08048653 -0.0734741  -0.02605657 -0.0153286 ]
[ 0.18097471 -0.10723986 -0.04393358 -0.11078888 -0.03483527 -0.04910382]
[ 0.20336844  0.06651222  0.04570291 -0.08378521 -0.06683973 -0.06742133]
[ 0.15435438  0.03987049 -0.06211466 -0.09683207 -0.10895009 -0.06608178]
[-0.00657428 -0.12280131  0.07272188 -0.08334411 -0.17378268 -0.03931359]
[-0.03525718 -0.11976497  0.16037351 -0.18240866 -0.00476616 -0.05404425]
[ 0.11189186 -0.10636304 -0.03103707  0.02624642  0.07893727  0.00029449]
[ 0.09357709 -0.14399418 -0.04594558  0.11174206  0.092617   -0.07092639]
[ 0.11814038  0.08041712  0.04929174  0.12068114  0.06318339 -0.15295179]
[ 0.09375353  0.00349894  0.04813275  0.06373382 -0.03916793 -0.10996111]
[ 0.01336703 -0.04486104  0.1075301  -0.07995357 -0.20756055 -0.06540062]
[-0.05310829  0.08107352 -0.06897462 -0.07824565  0.10427741 -0.08492045]
[-0.04142675  0.03890241  0.05819536 -0.08818604 -0.06572033 -0.17987654]
[ 0.04329528  0.11940765  0.06960537 -0.03390109 -0.1068955  -0.08153161]
[ 0.15754752  0.03909658 -0.00411201 -0.00028441 -0.06737485 -0.00139204]
[ 0.10183901  0.10027004 -0.04491846  0.00434889 -0.11678248  0.06676119]
[-0.09018305 -0.1113642   0.05984162  0.02308556 -0.05261746  0.10880204]
[ 0.00561279 -0.07986408  0.25325087  0.01043379  0.03083579  0.05744454]
[ 0.2064001  -0.09175257  0.0634393   0.14296494  0.05019899  0.07684869]
[ 0.15500885  0.02235401  0.03169412  0.00192851  0.02479761  0.13861693]
[ 0.11769552 -0.08950756  0.00553581  0.02364661 -0.0679699   0.00601778]
[ 0.08873714  0.00278825  0.1080121   0.01794223 -0.1007041   0.11283161]
[ 0.10290037 -0.04206754  0.03329391  0.06723884 -0.1513589  -0.04684985]
[ 0.00060877  0.00428056 -0.06871375 -0.0585099  -0.0416825  -0.09409391]
[-0.03750946  0.16265193  0.04625097 -0.1317551   0.00693603 -0.12652573]
[ 0.04128418  0.08981559 -0.02674742  0.00256237  0.05818903 -0.1076399 ]
[-0.00908378  0.16582666  0.00264588  0.07531375  0.06211074 -0.08297786]
[ 0.06787832  0.11541171 -0.01151693  0.19802743  0.07983543  0.06006502]
[-0.02021079 -0.08452246  0.1343812   0.13542445  0.01984351  0.0760349 ]
[ 0.09471812 -0.02071064  0.1429112   0.11488225  0.02472567  0.09488364]
[ 0.14253281 -0.07097349 -0.06277795  0.04529534  0.05356167  0.02726443]
[ 0.07732095  0.07280016 -0.01400849 -0.01730471 -0.10805531  0.13909814]
[ 0.04059476 -0.04682679  0.11509778 -0.0215521  -0.17083018  0.03031439]
[ 0.10566459 -0.0562081  -0.01163921 -0.07134998 -0.10937141 -0.00998177]
[-0.13723692  0.04815337  0.0321863   0.00818662  0.03375291 -0.04123038]
[-0.10867562 -0.04846418 -0.12532675  0.0686467   0.020773    0.05248325]
[-0.04157689  0.0220059   0.00076129 -0.03994201  0.11184409 -0.06740642]
[-0.09541003  0.05160451 -0.09156919  0.04330206 -0.0045285  -0.10076474]
[-0.06639154  0.12423571  0.03077185  0.09870833  0.05577501 -0.08542832]
[ 0.06177322  0.07137597  0.0996484   0.06322988  0.05150498 -0.06934951]
[ 0.0382824   0.0554942   0.21308731 -0.03212439  0.07656189 -0.07535204]
[ 0.13514964 -0.00680695  0.10495583  0.01866775  0.01393785  0.02050735]
[-0.0365449  -0.03291869 -0.14498124  0.08888602  0.00423603  0.14116091]
[ -1.22599304e-05   8.19268525e-02  -1.05727352e-01  -4.94608656e-02
  -7.44481832e-02   1.39796153e-01]
[-0.0619607  -0.01202304 -0.04402166  0.05821758 -0.02307298  0.08014426]
[-0.06102992  0.05822606 -0.00609783 -0.0429145   0.01355615  0.08176179]
[-0.04648288  0.03126292  0.05728776  0.10063612  0.14689033 -0.04134665]
[ 0.04851219 -0.11995669 -0.03284403  0.01710144  0.05405861  0.24637447]
[-0.15579088  0.10926056 -0.14697354 -0.04033954 -0.03499269  0.07699335]
[-0.13898256 -0.04317073  0.055792   -0.06140096 -0.02846781  0.07689519]
[-0.15272416 -0.02451694 -0.01406829  0.05091514 -0.03329676 -0.02191684]
[-0.0782055   0.08149303  0.10905617 -0.04498819 -0.01797406 -0.00398117]
[-0.02640648  0.06433291  0.10202301 -0.08872236 -0.09142889 -0.0655959 ]
[ 0.10527924  0.03077373 -0.02753685 -0.03757763  0.02733086 -0.00300132]
[-0.04218279  0.07544647 -0.07884189 -0.06853518 -0.05687748  0.03130994]
[-0.0558269   0.16900522 -0.0157525   0.13050942 -0.06655183  0.04529576]
[-0.18003522  0.18177363 -0.08411116  0.09469464  0.04730093  0.19184691]
[-0.03204069  0.12724654  0.00793152  0.19659764  0.12561911  0.07626149]
[-0.07895165  0.1024793  -0.09531578  0.11957484  0.18008569  0.03541445]
[-0.07419712 -0.05906185 -0.01063539  0.03642735 -0.00841742  0.11734089]
[-0.03420053 -0.08894841 -0.03711664  0.07544687  0.04522474  0.15414457]
[-0.14239486 -0.0147714  -0.04565303 -0.08375961 -0.02293894  0.19035621]
[-0.21539247  0.01713808 -0.07940371 -0.02124313 -0.0533967   0.16173783]
[-0.09150777  0.03572323 -0.04623616 -0.07440893 -0.1252214   0.12776704]
[ 0.02334854 -0.04509483  0.0081012  -0.04372141 -0.03599084  0.02687642]
[-0.02421147  0.0451562  -0.05283318 -0.04246738 -0.06631918 -0.01771407]
[-0.06888087  0.00160825 -0.01883427  0.05120591 -0.09182127 -0.07614288]
[-0.02566727  0.03239696  0.01606773  0.16692552  0.02812501 -0.02082535]
[-0.10751604  0.07631941 -0.09974718  0.24272981  0.11069673  0.01091655]
[-0.09603207  0.18803537 -0.14059138  0.07312957  0.21023902  0.04452725]
[-0.00400739  0.06675119 -0.05609382  0.01262076  0.17185301 -0.09513367]
[-0.1185066   0.01369935  0.00265572 -0.10351463 -0.05287576  0.06190537]
[-0.06168613  0.00881541  0.03462268 -0.09624845  0.00649088  0.07286647]
[ 0.03866751 -0.01009381  0.09824051 -0.09572286 -0.00897513  0.06882761]
[ 0.08002033 -0.09772085 -0.04723207  0.0486663  -0.12090556  0.23517346]
[-0.0854328  -0.16027784 -0.1256921  -0.03253996 -0.08854774  0.20748563]
[-0.09774519 -0.04959567 -0.13576977 -0.0595106  -0.03032859  0.05252874]
[-0.04868491 -0.03823697 -0.04007478  0.03939215 -0.05656549  0.05855354]
[ 0.00913034 -0.09846771 -0.02793527  0.03583504 -0.07782638 -0.06450257]
[ 0.0040234  -0.00670838  0.1050391   0.03562669  0.0376642  -0.1062535 ]
[-0.03720276  0.0093183   0.04365749  0.0412386   0.11356425 -0.15802827]
[ 0.08017641  0.10312933 -0.0891083   0.10773843 -0.04183027 -0.02443147]
[-0.03061518  0.06079709  0.08883242 -0.04926349 -0.06301594  0.05048121]
[ 0.08033617 -0.10140166  0.07598749  0.08542179  0.02849285 -0.00799316]
[ 0.07796758  0.06211554 -0.03410227  0.05603848  0.01170217 -0.00205765]
[-0.06411436 -0.00894994  0.08361562 -0.18636884  0.13706139  0.09034394]
[ 0.13144234 -0.05034136 -0.03056932 -0.0521957   0.15042298  0.0705772 ]
[ 0.07814634 -0.19955756  0.06730431 -0.15211153  0.11442032  0.0227113 ]
[ 0.01104025 -0.08445498 -0.04115538 -0.16120148  0.04221492 -0.06270579]
[ 0.12729964 -0.07735404  0.06414784 -0.07106809  0.09540164 -0.0718689 ]
[ 0.06886315  0.02205192  0.03876175 -0.14872289  0.16521773 -0.07146718]
[ 0.04901467 -0.029067    0.02741223 -0.04288561  0.04904927 -0.07269899]
[ 0.10802164 -0.04307308 -0.03442827 -0.04152736  0.05803481 -0.05606899]
[-0.02128151  0.06586982 -0.04427957 -0.08790931 -0.00251669 -0.08384348]
[ 0.01853754 -0.06955398 -0.02699841 -0.05797321  0.01939602  0.02148554]
[ 0.11344729 -0.02781854  0.2882525  -0.12247562  0.03385048 -0.12749806]
layer 8 Activation
relu
layer 9 Dropout
layer 10 Dense
6 10
[-0.38257816 -0.87247497 -0.56773376 -0.57820404  0.54500377 -0.26984966
  0.3930319  -0.00400293 -0.31266367  0.40337661]
[ 0.34953082 -0.84392691  0.25401559 -0.46057749 -0.50243944 -0.77704716
  0.02025593 -0.55841422 -0.6138162  -0.44064948]
[-0.75762111  0.667584   -0.08952978 -0.79404342 -0.23628148 -0.53231299
  0.53528297 -0.73429155 -0.27925348 -0.73744851]
[-0.40164649 -0.17963678  0.46834841 -0.27328074 -0.44974491 -0.3212764
  0.43445817 -0.6727699   0.3227075  -1.01012528]
[-0.43924907 -0.32538301  0.40020159 -0.12775001 -0.43926525 -0.47975224
 -0.79421216  0.56364977 -0.21578546  0.38822523]
[-0.56035805 -0.6933111   0.08565956  0.31310835 -0.80353177  0.23001544
  0.15625025 -0.73900723 -0.19116265 -0.76996017]
[ 0.21697009  0.33338773 -0.75481015  0.10394611 -0.01463662  0.39984763
 -1.05041039  0.09386356  0.65151912  0.20803705]
layer 11 Activation
softmax
