layers 12
layer 0 Convolution2D
4 1 3 3 same
[ 0.13240455 -0.3946971  -0.05886048]
[-0.16273095  0.27228937  0.70811176]
[-0.0382412   0.91429335  0.72160947]
[ 0.41376242 -0.13718137 -0.55548507]
[ 0.06595672 -0.43903524  0.04035486]
[ 0.3448171   0.63220066  0.07781076]
[ 0.41419408 -0.1330601   0.7200048 ]
[ 0.28247148  0.10319194  0.50113189]
[-0.14225946  0.3303782  -0.40378648]
[ 0.2122862  -0.69273353  0.45505202]
[ 0.63414049 -0.75804985 -0.62078673]
[-0.58114344 -0.20503305  0.65040433]
[ 0.04864346 -0.02648391 -0.00558629  0.06567493]
layer 1 Activation
relu
layer 2 Convolution2D
4 4 3 3 same
[-0.10421875 -0.02785097  0.38203284]
[ 0.2905634   0.15197825  0.04869501]
[-0.09692656 -0.30311573 -0.26422369]
[-0.00276746 -0.19394563 -0.39375478]
[ 0.06125361  0.13863552  0.20455687]
[ 0.01164779 -0.23414078 -0.00473225]
[-0.06518498 -0.19672316  0.14905792]
[ 0.15651399  0.28914082  0.38651291]
[ 0.19000816 -0.37353933 -0.21590045]
[-0.03375068 -0.04178836 -0.27345946]
[-0.45986235 -0.19825423 -0.06968362]
[ 0.05288086  0.21991093 -0.36576429]
[-0.01610909  0.1149746  -0.61316377]
[-0.01072869  0.1425527  -0.40196282]
[ 0.38004231  0.1917249   0.06467063]
[ 0.59239107  0.29410565  0.20647261]
[ 0.09890058  0.51240301  0.27240336]
[-0.10265201 -0.17938407  0.43843648]
[ 0.08311749 -0.21888247 -0.61088902]
[ 0.26572415  0.08327027  0.01123055]
[-0.13556299 -0.17235644 -0.0074481 ]
[-0.58282799 -0.23719987 -0.02106573]
[-0.37426788 -0.43444756 -0.41671878]
[-0.48330826 -0.07184443 -0.24444638]
[-0.60360342 -0.4768126  -0.3459411 ]
[ 0.20064029  0.17831512 -0.0261257 ]
[ 0.45589587  0.49225864 -0.06326806]
[-0.29128221  0.09931397  0.24801996]
[-0.06581964  0.19527051  0.24315761]
[ 0.45251685 -0.08525247  0.35469434]
[ 0.11536153 -0.55935341  0.05506857]
[-0.17236996 -0.33490089 -0.6838659 ]
[-0.19986323  0.0626233  -0.37508476]
[ 0.13902189 -0.3072117   0.18993604]
[-0.13360977 -0.13865285 -0.38592911]
[-0.03786385  0.26306275  0.1445353 ]
[-0.06630998 -0.40632924 -0.23633753]
[ 0.19549589 -0.00670207 -0.32390192]
[-0.09911005 -0.36811453 -0.29338893]
[-0.27110463  0.43789908  0.40986049]
[-0.2690374   0.42322654  0.17070538]
[ 0.21714951  0.11392775 -0.21328914]
[ 0.30634668  0.04640932 -0.02356241]
[ 0.11048105  0.24086131 -0.04183688]
[ 0.1484458   0.25013152 -0.21424726]
[ 0.37809861  0.09550981  0.29315791]
[-0.05270181  0.12204742  0.32245016]
[ 0.35050908  0.36823261 -0.04089836]
[-0.12815933 -0.17673892  0.01161221 -0.07211177]
layer 3 Activation
relu
layer 4 MaxPooling2D
2 2
layer 5 Dropout
layer 6 Flatten
layer 7 Dense
784 6
[-0.03906742  0.06698083 -0.08050424 -0.00319093  0.01833775  0.00991163]
[-0.01495006  0.03293357  0.0197208  -0.04033855 -0.03371154 -0.04916967]
[-0.0560285  -0.06582659  0.00927044 -0.02810042 -0.04538313 -0.01811428]
[-0.04213877 -0.06204742  0.00786292 -0.08450735  0.06187302  0.02497161]
[ 0.04896152  0.02935885  0.09386396 -0.04570646  0.05239167 -0.08469185]
[ 0.01835042  0.04916621  0.12470286  0.00891533 -0.04932227  0.04197544]
[ 0.0627358   0.02127488  0.04012513 -0.06060422 -0.13253379  0.05847421]
[ 0.12982324  0.10105928  0.21342856 -0.08732845 -0.12440202 -0.03208781]
[ 0.07623587  0.05633752  0.07737942 -0.0296917  -0.14714886 -0.02166067]
[ 0.16959241  0.11041991  0.19505848  0.00311861 -0.04162548  0.04950374]
[ 0.07295122  0.07153662  0.07287914 -0.09814232 -0.11967845 -0.01919617]
[ 0.03707012  0.09931306 -0.03107041  0.02655092 -0.01263646 -0.08081397]
[ 0.04423667 -0.00867221  0.01667016 -0.04046617 -0.0504599  -0.07810739]
[ 0.00049676  0.03291545 -0.05188211 -0.03523895 -0.0487449   0.00134809]
[ 0.01925283  0.04327489  0.07676191 -0.06858168  0.05246273  0.08637736]
[-0.0391383   0.04089813 -0.04338755 -0.06232202  0.03502904 -0.00492453]
[-0.01337897  0.08926101 -0.04653127  0.00476701  0.08402186 -0.05002619]
[-0.00445589  0.00838481 -0.04894469  0.06226536  0.03247495  0.05359224]
[ 0.11980097 -0.08101542  0.07371083  0.10186742  0.0188344   0.02669875]
[ 0.19923729  0.04178631  0.10129342  0.00315004 -0.02827053 -0.03766492]
[ 0.07194329 -0.06360222 -0.02254308  0.08250532 -0.15655708  0.02502299]
[ 0.0967993   0.05437195  0.0428199  -0.00609905 -0.16727534  0.03721407]
[ 0.00803982  0.08278467  0.06190162 -0.00692335 -0.0830432   0.02458698]
[ 0.0809661   0.16214553  0.11075523 -0.05861258 -0.0690367  -0.03747397]
[ 0.21584366  0.20894384  0.20348014 -0.03105166 -0.08168394 -0.104252  ]
[ 0.10633729  0.1053123   0.05532461  0.00492275 -0.01648617 -0.02858953]
[ 0.07343981  0.07955445  0.00406284 -0.1350463   0.09071051 -0.0666609 ]
[-0.04112834  0.08011542 -0.02094875  0.0457891  -0.08394425  0.04739555]
[ 0.04340751 -0.04323348 -0.03977324  0.029741   -0.03849278  0.09510033]
[-0.07096317  0.07336214  0.01099949  0.04040894  0.07377584 -0.00709548]
[ 0.07882773 -0.07016724 -0.07656395 -0.06225074  0.03239924  0.08484577]
[-0.0390608  -0.07604287 -0.07036382  0.05022649  0.06826857  0.16075389]
[ 0.05868274 -0.00294229 -0.09052019  0.08513128  0.06857978  0.05488461]
[ 0.07210818  0.02842103  0.03118184  0.02777778 -0.06508811  0.03011955]
[ 0.02577191 -0.00216528 -0.04538133  0.03983227 -0.04444972  0.02814034]
[ 0.00989023 -0.0171911  -0.05992391  0.04526544 -0.06981328  0.0589002 ]
[ 0.01345127 -0.03591001 -0.01485784  0.00824047 -0.06265053  0.08473086]
[ 0.0287129   0.02361194  0.04635918 -0.00073329 -0.11096971  0.03686479]
[-0.05461305  0.13399798 -0.04151181 -0.01471004 -0.03385759 -0.02356919]
[-0.07658672  0.08487928  0.06285731 -0.11803009  0.02261231  0.0032327 ]
[-0.0593531   0.10544642  0.07836063 -0.06944307  0.02371276 -0.17641467]
[-0.06491436  0.06459506  0.05346632 -0.02125864 -0.00230505 -0.03430887]
[-0.02145559  0.04702919  0.04046459 -0.03417374  0.00791908 -0.05758656]
[-0.12696457 -0.08001454 -0.08423817 -0.03338544  0.03814337  0.04256222]
[-0.06056114 -0.00051538 -0.04495636 -0.00070647  0.00305808  0.02429795]
[-0.07350745 -0.02889903 -0.04967274 -0.07581174 -0.04283833  0.0307651 ]
[-0.02569571 -0.09465787 -0.0054801   0.0442072  -0.02736875 -0.0008958 ]
[-0.05284071 -0.07590025  0.02237807 -0.02403218  0.00089717  0.00054244]
[-0.01435299 -0.11837757 -0.01349877  0.00988217 -0.01841527  0.00264359]
[-0.05818344 -0.09152932 -0.03935111  0.06231183 -0.00294162 -0.0154073 ]
[-0.03307557 -0.10525659 -0.02241764  0.02028149  0.02561426  0.00384656]
[-0.02743093 -0.05859467 -0.01221527 -0.00461498  0.027101    0.02186193]
[-0.10393144  0.00701243 -0.02056713 -0.04508476 -0.06323298  0.0485119 ]
[-0.12013955 -0.03573345  0.04121689 -0.06994867 -0.01653156 -0.02954955]
[-0.11202007  0.00544479  0.04861622 -0.11717936  0.00877294  0.05966205]
[-0.10761393 -0.12025765  0.09506065 -0.09846677 -0.06385984 -0.00706126]
[-0.04523962 -0.05461986  0.00158466  0.05548373 -0.00193037 -0.05045157]
[-0.06085173 -0.05391663 -0.01233329 -0.01210866 -0.08770371  0.03171697]
[-0.13669038 -0.10556039 -0.00834509 -0.03938513 -0.14809531 -0.0092752 ]
[-0.03547231  0.00632178 -0.10543177  0.01324754 -0.05205647 -0.05102921]
[-0.04478104 -0.06328674  0.03889268 -0.01418427 -0.01351375 -0.02115389]
[-0.02551361 -0.05330035 -0.06344372 -0.07193804  0.025194    0.01447382]
[-0.01565367 -0.06582766 -0.03264344 -0.00252054  0.03280665 -0.03166911]
[-0.04884146 -0.09733902 -0.07943922 -0.00302823 -0.04236385 -0.06903205]
[-0.09653607 -0.05404683 -0.05871862  0.0152803  -0.04589059 -0.0063906 ]
[-0.12743057 -0.06528247 -0.15508503 -0.10875958 -0.0261357   0.03022597]
[-0.10855625 -0.07260162 -0.074726    0.00578794  0.02758324  0.0685404 ]
[-0.0212041  -0.05679055  0.09603128  0.01750012 -0.09669296 -0.07805046]
[-0.09110469 -0.06463158  0.06585389  0.00330144 -0.0898843  -0.0176103 ]
[ 0.02224934 -0.0066196   0.13158542 -0.0990872  -0.10756369 -0.02889673]
[-0.0445697  -0.0108994  -0.08682603  0.05705852 -0.00622619  0.00903386]
[-0.12899418 -0.01250588 -0.11728451 -0.10747644 -0.0724315   0.06194275]
[-0.08139974  0.02385194 -0.01709055 -0.01669969 -0.11002278 -0.00961977]
[-0.0432987  -0.11630281  0.11211186 -0.07596951 -0.00239592 -0.06798765]
[-0.07364783 -0.04755177 -0.02912026 -0.00833957  0.04815741 -0.18895441]
[-0.03474529  0.01868596 -0.01477652 -0.04469667  0.04789662 -0.12075884]
[-0.06177764 -0.04607395 -0.0152213  -0.02732975  0.04139465 -0.02353296]
[-0.13330099 -0.0065571  -0.03392528 -0.11689366 -0.08834337  0.07187809]
[-0.06189934  0.05249847 -0.11142993 -0.10368013  0.02576938  0.07690007]
[ 0.02531236 -0.01139268 -0.12611468 -0.09724372  0.04059975  0.04154505]
[-0.01147611 -0.04213808 -0.11520845 -0.01658877  0.08237383  0.04917121]
[-0.04941547 -0.0530251   0.06465709  0.05598478  0.00447673 -0.096274  ]
[-0.04844014 -0.00902562  0.1825815   0.11114651 -0.15210725 -0.18368635]
[ 0.04977536 -0.04202075  0.04880534  0.09028837 -0.07794984 -0.0135695 ]
[ 0.0737197   0.02134143  0.03950929 -0.0462447  -0.06542955 -0.04404024]
[-0.11784814  0.05312876 -0.12023605  0.03744376  0.01453782  0.04277182]
[-0.03628592  0.04788435 -0.03567402 -0.05353032  0.10789245 -0.11958146]
[-0.03160277  0.04862271  0.07829641 -0.02335909 -0.00032573 -0.1959053 ]
[-0.09877092  0.0563314   0.03377877  0.03512303  0.05049041 -0.13365415]
[ 0.00762664  0.01745778  0.09184486 -0.02832298  0.03992053  0.0698674 ]
[-0.002073    0.07375718  0.02974465 -0.07909031  0.04247065  0.10213133]
[ 0.0072324   0.01831096 -0.08343408 -0.15346451  0.04382224  0.01230229]
[ 0.10217623  0.01167685  0.00540792 -0.02553522  0.05552289 -0.01947979]
[ 0.1051753  -0.00784065 -0.08542132 -0.11327108  0.0997226  -0.03549052]
[ 0.05870311  0.11366849 -0.07332969 -0.04271901  0.11874867 -0.13107267]
[ 0.06873231  0.0966757   0.03740059 -0.01186925  0.06541399 -0.15281917]
[-0.00027911 -0.02707827  0.12996843  0.02023273 -0.10725679 -0.12667488]
[ 0.05440604  0.03363384  0.1277346  -0.0225022  -0.11709606 -0.08246225]
[-0.07478495 -0.01820216 -0.06289016  0.00661487 -0.02890408  0.0745672 ]
[ 0.05315992 -0.00774268 -0.01374838  0.0367431  -0.00135519 -0.06750099]
[-0.03885183  0.078731    0.02371076  0.02000865  0.16509889 -0.07409361]
[ 0.02051857  0.0620492  -0.00213284  0.10097466  0.06414624 -0.13120498]
[ 0.06285425  0.05325733  0.04649445  0.14846781  0.04864055 -0.02026583]
[ 0.13457911 -0.05248256 -0.05584738  0.0658607  -0.00522313 -0.05087091]
[ 0.12267353  0.05394119 -0.06588898 -0.01165382  0.04335695 -0.0288139 ]
[ 0.14390378  0.10954361 -0.04838681 -0.02016604  0.03786809 -0.05666345]
[ 0.14462857  0.06843994  0.02745681 -0.05879003  0.04786911 -0.07078739]
[ 0.12860371  0.06287124 -0.04283765 -0.02921912  0.08406696  0.00698227]
[ 0.00307442  0.07492835  0.00517123  0.02832259  0.00141279 -0.03315274]
[-0.03664148  0.18652251  0.09298031  0.01142789 -0.05174065 -0.01810236]
[ 0.06353163  0.02525969  0.10372193  0.02731319 -0.09390888  0.06205927]
[ 0.07241279  0.01047203  0.08987786  0.02021187  0.02901615 -0.0085895 ]
[-0.06564526  0.02128737 -0.02443759 -0.07290536 -0.01963918 -0.05623203]
[-0.10410901  0.04836388 -0.07412662 -0.01642562  0.01443276  0.02051037]
[ 0.00953597 -0.03415991  0.00981618  0.04472892  0.06925564  0.10029614]
[ 0.01554269 -0.03229947 -0.01203574  0.12803422  0.10587208  0.03710324]
[ 0.11929015 -0.05155373 -0.00730278  0.05756968  0.05656896 -0.10001389]
[ 0.13459337 -0.02842301 -0.16193452  0.02671673  0.04575611 -0.06020096]
[ 0.03446808  0.06116215 -0.10255815 -0.02697381  0.06089609 -0.05435224]
[ 0.15360142  0.07809708 -0.07819071 -0.0441137   0.10515326 -0.04624654]
[ 0.12455516 -0.00274724 -0.03359814 -0.06094876  0.06885181  0.01613077]
[ 0.05241011  0.0346547   0.05446958  0.02889932 -0.07364104  0.01123892]
[-0.01323362  0.05176432  0.02000827  0.11144421 -0.13222134  0.04050559]
[ 0.0139654   0.13095745  0.02711686 -0.03186904 -0.10700434  0.05891185]
[ 0.0383004  -0.10976599  0.05091104  0.07822295  0.00051993  0.07743206]
[ 0.15484606 -0.01745577 -0.12746601  0.04840966 -0.00309742  0.0357975 ]
[ 0.02922957  0.05066233  0.04701659 -0.05638792  0.05541472  0.0376308 ]
[-0.04514856  0.02194635 -0.0206228   0.03265413 -0.07245878  0.08555834]
[ 0.06741565 -0.08316624 -0.03128061  0.04865872  0.01566835  0.12975718]
[-0.02963229 -0.10759583 -0.0109818  -0.02771189 -0.02080986  0.1304608 ]
[ 0.03023408 -0.07968373 -0.01689306 -0.012643   -0.10188074 -0.02617634]
[-0.05032756  0.06735608 -0.08736093  0.05937961 -0.00524967 -0.02028056]
[-0.03421372  0.10130814 -0.06394602  0.04447417 -0.00839809 -0.03509625]
[ 0.03010298 -0.0515131  -0.04433104  0.03548456  0.03975222  0.00758502]
[ 0.00854352 -0.02776004  0.05805051  0.06378324 -0.08829922  0.03157673]
[ 0.0418159   0.00249218  0.08059049  0.09673769 -0.19465318  0.04820245]
[ 0.0700449   0.03535934  0.05061053  0.09118693 -0.21229585 -0.02301092]
[ 0.0308894   0.01046989  0.03040581  0.04241166 -0.17937417  0.03388511]
[ 0.11100614 -0.08605379 -0.04198907  0.1901321   0.00919448  0.04254378]
[ 0.1302619  -0.11809216  0.03116922  0.14583002  0.05218115  0.03234337]
[ 0.05639847 -0.08446451 -0.08791742  0.0619254  -0.03236663  0.07176449]
[-0.03110873  0.03326481 -0.09342308  0.00719841 -0.02181717  0.13209139]
[ 0.02926966 -0.0600758   0.01810196 -0.021138   -0.10274873  0.14875822]
[-0.01407832 -0.03772655  0.00997545  0.00261243 -0.0454341   0.14778776]
[-0.00864229 -0.01674396  0.01345736  0.03611073 -0.13224491  0.03311514]
[-0.06951353 -0.00159189  0.02223687  0.01239971 -0.04158153  0.00971508]
[-0.09682     0.01379257 -0.00054125  0.00312392 -0.01066516 -0.03672417]
[ 0.05549899 -0.08749796  0.04858853  0.06707745  0.01995481 -0.00362927]
[ 0.09252533 -0.01970576  0.08262434  0.02110154 -0.10228409  0.05909616]
[-0.05498302 -0.02594343 -0.00357718  0.05643745 -0.17565478 -0.02449325]
[ 0.04412678 -0.06540321  0.10419522  0.11233973 -0.19555742  0.10897975]
[ 0.15166393  0.01486794  0.01769829  0.12870768  0.00991943  0.0066396 ]
[ 0.10962523 -0.00414002 -0.09437566  0.15096907  0.08112746 -0.01150649]
[ 0.02475245 -0.03095607 -0.00947252  0.11180108 -0.02173203  0.07033351]
[ 0.04599787  0.06665192 -0.06099333 -0.06268867  0.05021445  0.01119815]
[-0.02999266  0.04205725 -0.11774008 -0.03122761 -0.04538905  0.16326748]
[ 0.04934233 -0.09535877  0.0114153   0.0672517  -0.11418027  0.04892547]
[-0.06355074 -0.10867448 -0.00195692  0.14663433 -0.07739542  0.10336427]
[-0.0261248  -0.0145377  -0.03547798  0.04451503 -0.02110007  0.10322532]
[-0.05150209 -0.01803391  0.00939813 -0.01876379 -0.05246141  0.0423463 ]
[-0.0876224  -0.11673236  0.05118607  0.01297365 -0.01001011  0.10524361]
[-0.08567179 -0.14249463  0.13776267  0.01439467 -0.1494005   0.07299086]
[-0.06279238 -0.10569571  0.09934899  0.04906247 -0.16361085  0.06625142]
[ 0.0522972  -0.09052105  0.13404101  0.0493039  -0.17941338  0.04353087]
[-0.0268683  -0.12129235  0.04753829  0.15620218 -0.10866007 -0.02461488]
[ 0.0339767   0.06308611  0.01684876  0.11957837  0.01646716 -0.12103686]
[ 0.13224643 -0.04496241  0.05914444  0.12491269  0.07710338  0.05791622]
[ 0.0412988  -0.07684769 -0.06245616  0.04562742  0.06254521 -0.06498001]
[ 0.03063324  0.03106824 -0.02559988  0.06763268 -0.0651234   0.05155628]
[ 0.04189022 -0.07840693  0.02341093  0.03584502  0.03472321  0.05307868]
[ 0.01396063 -0.00728494  0.0115317  -0.07698953  0.05941084  0.13373539]
[-0.06957012  0.07046435 -0.11192861 -0.06017026 -0.05490563  0.03300064]
[-0.14343467  0.08020709  0.01546188 -0.0441648  -0.00722429 -0.01022951]
[-0.09709038  0.01148857 -0.09649126 -0.05650254 -0.06844731  0.04289801]
[-0.09163193 -0.00832355 -0.0096154  -0.04997684 -0.08259017  0.01100055]
[-0.17413217 -0.03966005  0.00783407 -0.00765947 -0.00658655 -0.04461113]
[-0.07055371  0.02413097  0.03841667 -0.11819252 -0.16689403  0.05523548]
[-0.07620353 -0.07380176  0.01279749 -0.1244968  -0.01981781 -0.0294143 ]
[ 0.04515966 -0.12187949 -0.09689885 -0.13681798  0.06321789 -0.12640238]
[-0.04023913  0.00545568 -0.07380435 -0.03177956  0.04133965 -0.09878673]
[ 0.03876713  0.04780795  0.06613706 -0.0798581  -0.07041597  0.02009777]
[-0.01466717 -0.04095791 -0.06117681  0.017744   -0.02853148  0.02935289]
[-0.06306019 -0.0588049  -0.07670173 -0.02984815 -0.04393519 -0.01071882]
[-0.01691479 -0.03707276 -0.04221364 -0.03778722 -0.00076601  0.06874674]
[-0.07801819 -0.06891398  0.06429972 -0.00189043  0.03712596  0.0220933 ]
[ 0.02979842 -0.11590265 -0.14524508 -0.03976246 -0.08512571  0.03161069]
[-0.00075145 -0.05422278 -0.16947833 -0.09824593  0.07455432 -0.09075712]
[-0.03539257 -0.00773491 -0.07038279 -0.02245234  0.05691829  0.03691422]
[-0.10431595 -0.06712235 -0.18116838  0.01729528  0.05096268 -0.01168823]
[-0.00102107 -0.12141348 -0.15861224 -0.10181027  0.07429064 -0.10902477]
[ 0.00775752 -0.04790719 -0.07350549 -0.06977136  0.08977474 -0.10640194]
[-0.01784684  0.01781071 -0.10203142  0.04107929 -0.02521092 -0.0558735 ]
[-0.05395093  0.01020162  0.06169145 -0.0250671  -0.01564679 -0.03906799]
[ 0.04229081  0.01736699 -0.0441959   0.02952867 -0.06702921  0.0220938 ]
[ 0.06377815 -0.01866848 -0.00872547  0.05797683  0.0546702   0.0118074 ]
[-0.02050604 -0.0856597  -0.07597944 -0.00963104 -0.04709589 -0.00769084]
[-0.00340328  0.07873099 -0.02199689 -0.05687838  0.06580792  0.00297902]
[ 0.04022289  0.00317212  0.04879058  0.03770782 -0.03577699 -0.03475757]
[-0.00706839  0.00817533 -0.03345953  0.08339515  0.06095733 -0.08682188]
[ 0.02722257  0.02425286 -0.0345313   0.08355992  0.0522751  -0.0449243 ]
[ 0.00998011 -0.01105665 -0.02329639 -0.02217771  0.03242119  0.06061608]
[ 0.08399611 -0.02406195  0.02454117  0.07061335 -0.03615051 -0.02929047]
[-0.03101282  0.0241506  -0.03012298  0.04266731  0.02002876  0.00579006]
[ 0.08879535  0.02304467 -0.0211412   0.04518967 -0.06163095 -0.06453939]
[ 0.08748281 -0.01495793  0.02253911  0.07239141 -0.00243468 -0.05371052]
[-0.0288464  -0.04605389  0.08200455  0.04786542  0.01582255 -0.01059281]
[-0.06646664  0.02130977 -0.02211557 -0.06502445  0.02839461 -0.00296204]
[-0.0063191   0.02135059 -0.03310223 -0.0723725  -0.01088557  0.02342578]
[ 0.03307475 -0.00205816 -0.06744242 -0.00648706  0.0194298   0.0109417 ]
[ 0.07308613 -0.04531072 -0.06914005 -0.02438866  0.03880366  0.0083587 ]
[ 0.02373182  0.04986393  0.0046019  -0.05207611 -0.00573088  0.07560703]
[-0.00279333 -0.00783953  0.08252763  0.07336356  0.00140709 -0.03434109]
[-0.04199142 -0.00874342 -0.03191873  0.05077264 -0.02291997  0.06468598]
[ 0.03074641  0.00323414  0.07363074  0.01344378 -0.0344721  -0.07490882]
[ 0.05864272  0.06454521 -0.06300254  0.03239372 -0.00249343  0.02659347]
[-0.03440551  0.06376087 -0.02887102  0.08223612 -0.03262006  0.028701  ]
[ 0.01010473 -0.00904172 -0.01612562  0.08783603 -0.08671905 -0.02188782]
[ 0.07311524 -0.02435563  0.06883439  0.03148879 -0.11076439 -0.04429964]
[ 0.06303327  0.01264506  0.14135677  0.01972908  0.00872923 -0.07572689]
[ 0.04516438  0.01409933  0.12629776 -0.07746306 -0.11591296  0.0154198 ]
[ 0.11733776  0.05183875  0.02602149 -0.09596024  0.00783244 -0.01830325]
[-0.05513093 -0.0005425  -0.05468076 -0.05329437 -0.02899629 -0.03885645]
[-0.02990598  0.05032407 -0.02790986  0.01764168  0.07079449  0.06969907]
[ 0.07217807 -0.0403676   0.04199512 -0.04355459 -0.00424795  0.03450686]
[ 0.01203644 -0.07774626  0.05507603 -0.04055534 -0.07002122  0.01328743]
[-0.04818821 -0.01758004  0.05088844 -0.00749814  0.04058032  0.10315324]
[ 0.06443593 -0.05923148  0.02365677  0.00316905  0.03135337  0.13334034]
[ 0.06809913  0.01315044 -0.01585107  0.04918426  0.00850209  0.00988356]
[ 0.07368812  0.01316319 -0.09731585  0.01891902  0.00801433  0.12068653]
[ 0.09107487 -0.05991248 -0.0416344   0.01160707 -0.10218002  0.13151518]
[ 0.0075929  -0.08449198 -0.16844754  0.01386801 -0.09983787  0.08254603]
[ 0.00546959 -0.12577206 -0.2370593   0.0063289  -0.05404765  0.21107443]
[ 0.04833193 -0.15973665 -0.12746675  0.01278203 -0.00262     0.09800398]
[ 0.08713173 -0.03916504 -0.06439251 -0.01385434  0.05141734 -0.08583847]
[ 0.05299445  0.14401287  0.01017158 -0.04149881  0.02766349 -0.09185149]
[ 0.00038662  0.02805049  0.06326581 -0.07504413 -0.04173167 -0.10145889]
[ 0.05976153 -0.01742466  0.06341678  0.05602438 -0.07059323 -0.09018681]
[ 0.01108022 -0.03864975  0.02851808 -0.06720294 -0.0641618   0.0656224 ]
[ 0.02856216  0.07055982 -0.0516327   0.06126514 -0.06335178  0.06992489]
[-0.0226474   0.01859816 -0.08388673  0.01682108 -0.02590851  0.08928234]
[-0.10911218  0.01057276  0.02262469 -0.03718273  0.00135818 -0.03461535]
[-0.04477065 -0.07221308 -0.03108196 -0.00183364  0.01866932  0.03458802]
[ 0.00115267 -0.06592097 -0.13075642 -0.07985994 -0.10431945  0.06145225]
[-0.01576592  0.00800676 -0.09192829 -0.01888156  0.02111754  0.06716858]
[-0.03456831  0.06472317 -0.21096469 -0.03178708 -0.04704239  0.12340161]
[-0.00635046 -0.05227176 -0.09891178  0.05748897  0.02813037  0.09038561]
[ 0.01646156 -0.15380681 -0.06830676  0.00648039 -0.06387942  0.01933318]
[-0.06033362 -0.09666485 -0.03470277  0.06034535 -0.0975316   0.05255365]
[-0.03687569 -0.0993415  -0.08847667  0.08158992  0.00141663 -0.01972731]
[-0.00287533  0.04690231 -0.02634277  0.00471037 -0.0130585  -0.07336446]
[-0.08552708 -0.08550129  0.14672533 -0.14150301 -0.09082369 -0.01985498]
[ 0.02511594  0.03920835 -0.08183341 -0.00175885 -0.02925517 -0.06423401]
[ 0.04209926 -0.08868413  0.04160867 -0.02163641  0.02538341 -0.07373473]
[-0.1010308  -0.0986428   0.00304896  0.04347897 -0.06171658  0.03576428]
[ 0.0067595   0.02017583 -0.11227399 -0.0722459  -0.06970911  0.02627238]
[-0.01575013 -0.00687972 -0.02497358 -0.05909392 -0.11599397  0.00620192]
[-0.00582995 -0.10990651  0.00341508 -0.07777496 -0.1247621  -0.09949175]
[-0.1146011  -0.07505476 -0.09607786 -0.03088063 -0.16680256 -0.03121801]
[-0.08690009 -0.0560614  -0.13494045 -0.02908196 -0.10780253  0.03288224]
[-0.04528864 -0.1076269  -0.08480584  0.07087142 -0.0207957  -0.04462719]
[-0.15111348 -0.16765286  0.02092773  0.05209546  0.08606736  0.00502717]
[-0.07411224 -0.10411594  0.03319674  0.08239169  0.10579954  0.02374487]
[-0.00763382 -0.12334857  0.08693864  0.1009832  -0.03707933 -0.00459616]
[-0.07790287 -0.07505846  0.11518788  0.0271901  -0.04982936  0.02567972]
[-0.01085752 -0.02108231  0.11663555 -0.07947683 -0.03691655 -0.08533388]
[ 0.01284698  0.04319083  0.09651497 -0.11431589  0.01230511 -0.00311542]
[ 0.01906602 -0.08105582 -0.05718938  0.03989894 -0.00492739 -0.07123472]
[-0.01209347  0.05918924 -0.0064745  -0.02324463 -0.04660025 -0.01720418]
[-0.03998321 -0.057742    0.00606984 -0.01544448 -0.01927957  0.00780709]
[-0.16435651 -0.04937916  0.03275522 -0.08888157 -0.04324654 -0.10150622]
[-0.1195085  -0.0927972   0.05081523 -0.07332632 -0.01160533 -0.11926845]
[-0.12429184 -0.05160487  0.09920217 -0.1569006  -0.01110532 -0.16299205]
[-0.11686365 -0.03242993 -0.01932488 -0.105538   -0.0668654  -0.13319606]
[-0.14782012 -0.08558811 -0.02547188  0.05517824 -0.10985649 -0.06093978]
[-0.12791875 -0.18109021 -0.0137132   0.10693779  0.01094284 -0.05869336]
[-0.07214291 -0.11713588  0.04347655  0.11057276 -0.00462994 -0.08695465]
[-0.12860607 -0.10304765  0.12716164  0.18252248  0.04018193 -0.07817194]
[-0.01159177 -0.02519654  0.16372627  0.01329133 -0.02916685 -0.09670465]
[-0.12614983 -0.07885019  0.1887522  -0.17262572 -0.08638598  0.03756533]
[ 0.00875268 -0.10847837  0.060447   -0.09786192  0.00160857 -0.02058518]
[ 0.06909539 -0.04950211 -0.00288423  0.02066973 -0.05376922 -0.07762387]
[-0.0743156  -0.03282371 -0.049174   -0.0579727  -0.07078676 -0.00918986]
[-0.08920636 -0.05451258  0.00686067 -0.05586632  0.04931226 -0.03772787]
[-0.10032101  0.05828017  0.06278359 -0.07885227  0.09543181 -0.19087867]
[-0.11047769  0.00621471  0.07614942 -0.1074705   0.09285109 -0.13230141]
[-0.10786752 -0.10159542  0.078937   -0.16805221  0.11080863 -0.10216288]
[-0.20107399  0.01537382  0.05700956 -0.21065061 -0.13443078 -0.01154445]
[-0.18496245  0.08148761 -0.15201776 -0.1333576  -0.02321572 -0.01183301]
[-0.11402053 -0.06084961 -0.03581725 -0.03327165  0.03821985 -0.04533264]
[-0.01624173 -0.07790975  0.04551652  0.01745803 -0.02982145 -0.12480363]
[ 0.01769882 -0.04275395  0.15404397  0.16352721 -0.0070789  -0.22040054]
[ 0.01117153  0.05379868  0.24829371  0.17850293 -0.02290346 -0.08285067]
[-0.041535    0.02230919  0.11049986 -0.09049124 -0.13301167 -0.0365572 ]
[-0.03630528  0.01687351  0.0036604  -0.0079483   0.01041406  0.03271633]
[-0.04517176  0.06207936  0.03069755  0.06896499  0.01395735 -0.04435896]
[-0.09688668 -0.08676144 -0.05385501 -0.12382042  0.08324645 -0.03318273]
[-0.13742279  0.02406723  0.04640945 -0.01621927  0.06602018 -0.0502358 ]
[-0.07473893  0.04026656  0.06028713 -0.10495937  0.13855422 -0.12766787]
[-0.10651978  0.03429694  0.0453842  -0.10229695  0.089798   -0.04196031]
[-0.13032116 -0.04043767  0.11250037 -0.19748117  0.14628577  0.02734786]
[-0.2281898   0.11965806 -0.03218152 -0.2079038   0.1644658   0.06393484]
[-0.07006571  0.10467546  0.02071477 -0.18452959  0.06919634  0.03106326]
[-0.03559869  0.02725671  0.03675464 -0.20351872  0.02323214 -0.04322458]
[-0.05047734  0.0274868  -0.00218128 -0.08532494 -0.10196718 -0.06309889]
[-0.04747171  0.14822921  0.23301755  0.04975885 -0.0221993  -0.138142  ]
[ 0.11581983  0.1191036   0.3581551   0.00564651  0.05509091 -0.15107012]
[ 0.10870869  0.06199757 -0.00569339 -0.00700571  0.01480637 -0.01425134]
[ 0.07747076 -0.09602889  0.04439136 -0.01127195  0.03467309 -0.07501525]
[ 0.02426844 -0.0556615   0.00642693 -0.05767361 -0.08362609  0.02029406]
[-0.09816963 -0.02658927 -0.01496939 -0.10540567  0.0186364   0.08163155]
[-0.12812947  0.06017309  0.0594814   0.04228844  0.02789038 -0.04322789]
[ 0.00902575  0.07005557  0.04662625 -0.00793591  0.11771549 -0.09565743]
[ 0.00804522  0.05894411  0.09210335 -0.01404388  0.10033886 -0.00780972]
[ 0.05670876 -0.05379381  0.08547708 -0.01229659  0.12814473  0.03154402]
[ 0.07123813  0.15409257 -0.08224359 -0.16866289  0.06741116  0.09393469]
[ 0.05850526  0.13926496  0.00874372 -0.1721634   0.01771166  0.05755531]
[-0.08185121 -0.05465638  0.02915156 -0.10413718  0.0523418   0.07561127]
[-0.04534182  0.03318585  0.09185751 -0.09925876 -0.00177417  0.09427543]
[-0.00602875  0.0983023   0.16971701 -0.05565072 -0.06988478 -0.00386549]
[-0.06408703  0.06344851  0.18636824 -0.01032427 -0.02741268  0.0303303 ]
[ 0.05786565 -0.03625297 -0.00456094  0.07288188  0.06470376 -0.05072777]
[  8.11063051e-02  -5.44092171e-02   5.30218035e-02  -5.36613278e-02
  -9.26311538e-02  -5.50373516e-05]
[ -3.53034399e-02   7.34884739e-02  -2.10967064e-02   8.20050482e-05
  -5.33712767e-02   9.64357108e-02]
[ 0.05584728 -0.07564961 -0.15007761  0.05104483  0.02999228  0.12481855]
[-0.02329849 -0.06109238  0.03707461  0.08997536 -0.02453284 -0.060306  ]
[-0.00600581  0.03801842  0.00207626 -0.00619096  0.08539892 -0.02032568]
[ 0.05329441  0.01990468  0.07880566  0.03468896  0.08287045 -0.12279331]
[ 0.17008577 -0.02420184  0.10956053  0.03707286  0.08192559 -0.1354226 ]
[ 0.00689569  0.16682149 -0.07182215 -0.01286905 -0.01786527 -0.05141585]
[ 0.01732593  0.02000136 -0.0973085  -0.13509239  0.01723162 -0.04194544]
[-0.00428405 -0.08683667 -0.01248469 -0.10953967 -0.03168369  0.00840245]
[ 0.03923728 -0.03976212  0.06191825  0.02809906 -0.00890678  0.06491701]
[-0.00244017 -0.02708974  0.0430252   0.02165688 -0.11158521  0.06028536]
[ 0.06191676  0.03464043 -0.01934943  0.0534176  -0.10207894 -0.02903006]
[ 0.18077523  0.04433472  0.0029261   0.08369823 -0.06648031  0.00327891]
[ 0.06779092 -0.02453737  0.03696441  0.10139661  0.0057073   0.06533522]
[-0.08305582  0.00392416  0.03467767  0.04304846 -0.02512644  0.00148449]
[ 0.02378439 -0.04447499 -0.13727947  0.03278318 -0.02362916  0.23397964]
[-0.09663738 -0.1198082   0.00401883  0.04943705 -0.07798277  0.11937254]
[ 0.01367958 -0.04242943  0.05436372  0.06366228 -0.10846024  0.01615125]
[ 0.04725939 -0.03958575  0.09791604  0.0699836  -0.05288414  0.01660226]
[ 0.06723897  0.0582828   0.13796994  0.12947826 -0.08482495 -0.07867576]
[ 0.090046    0.1179004   0.07024732  0.03698653 -0.0888445  -0.05824908]
[ 0.06089487  0.12994711 -0.03104217  0.0472847  -0.00590138 -0.0695614 ]
[ 0.10000876  0.01841038 -0.05483289  0.05167149 -0.01115393  0.08897471]
[ 0.09150526  0.02289854 -0.03368928  0.03180742 -0.0349074   0.06696739]
[ 0.11248625 -0.1272292  -0.04288002  0.04027555 -0.02649303  0.07953002]
[ 0.12766027 -0.04065712 -0.04956887  0.10743551 -0.02775032 -0.04729912]
[ 0.15002051 -0.06368937 -0.10485335  0.07553529 -0.06773705  0.02015027]
[-0.02768589 -0.03655818  0.0231731   0.00530615  0.08075526  0.02742437]
[-0.05100084 -0.01623904 -0.02910976  0.02831373 -0.00286221 -0.06059257]
[-0.01781598 -0.07093478 -0.05223222  0.06764248  0.05424672  0.09459552]
[-0.06132458 -0.06580081 -0.01659306  0.02639494  0.0153851   0.02701483]
[-0.00202236 -0.1176753   0.02013252  0.00271924 -0.05775876  0.08950241]
[-0.02002474 -0.02891427  0.0519837   0.04681497 -0.14171694  0.04950734]
[-0.00093729 -0.00549903  0.07312109  0.0467235  -0.08189212  0.02488072]
[ 0.04781966  0.06862625 -0.00383239  0.00413803 -0.07412495 -0.01267268]
[ 0.05001339  0.13050376 -0.05133764  0.08162124 -0.04806523 -0.08597046]
[ 0.0484248   0.07477362 -0.05059952  0.03143325  0.00115334 -0.07796589]
[ 0.08966986  0.0020333  -0.15589207  0.03598303  0.08351295  0.04372055]
[ 0.06886586 -0.06364699 -0.14838384  0.10187613  0.0796721   0.00440404]
[ 0.17104252 -0.09286348 -0.08643477  0.07932944  0.00098844 -0.02698547]
[-0.02433348  0.04172625  0.05226522  0.00533783  0.05660186 -0.03382248]
[ 0.02411989  0.06922956  0.00014566 -0.0333314  -0.01545451 -0.03078027]
[-0.07563546 -0.0329041  -0.0369438   0.01354204 -0.04418798  0.0753902 ]
[ 0.05991992 -0.01107482 -0.0754937  -0.05445575 -0.03596645  0.16255423]
[-0.01958104 -0.0958549   0.01032084 -0.00696561  0.00264834  0.00019103]
[-0.05710141 -0.07729267  0.01816922  0.12392948 -0.05271573  0.03375498]
[-0.06439686 -0.0473001   0.01827503  0.01467786 -0.06931522  0.06886266]
[-0.12057212 -0.0466662   0.05454068 -0.00199251 -0.02283625 -0.01716531]
[-0.08040414 -0.02855228  0.0163145  -0.01662368 -0.02278931 -0.01928625]
[-0.12489828 -0.00914163 -0.03296524 -0.08766364 -0.0612607  -0.0850662 ]
[-0.08119689  0.07733602 -0.01320534 -0.05800967  0.06421505 -0.12369088]
[ 0.02596981  0.07830027 -0.08262686 -0.04046425  0.1085101  -0.03363471]
[-0.00607742  0.03464353 -0.00704506  0.06975119  0.17377134 -0.04914958]
[ 0.04593701 -0.08941098 -0.08495174 -0.02143901  0.0391943  -0.02518678]
[-0.036383   -0.0792419  -0.08857468  0.05829026  0.02684898 -0.04104811]
[-0.00682425 -0.08390704 -0.0186637  -0.06851942  0.00654578 -0.0746432 ]
[-0.01915402 -0.0474208   0.05034585 -0.03819183 -0.01545872  0.0060174 ]
[-0.00467668 -0.07371803  0.04443135  0.02383116 -0.01439601 -0.05091343]
[-0.03065809  0.01656961  0.04239885 -0.09936391  0.03832188  0.10983934]
[-0.10524937 -0.09753573 -0.01143076 -0.10657634 -0.03071667  0.01464089]
[-0.05763919 -0.04856157 -0.02525214 -0.17501555 -0.02490426  0.01284004]
[-0.13940191 -0.11334516 -0.09669322 -0.03793517 -0.050407    0.01652944]
[-0.15320273 -0.06436833 -0.02713814 -0.02419726 -0.03192935  0.00675967]
[-0.12892097 -0.24647297 -0.00221256  0.0195897  -0.04113596 -0.06354884]
[-0.00943924 -0.13827263 -0.10736378 -0.11224121 -0.03527085  0.01452932]
[-0.05145054 -0.07337619 -0.09671576 -0.12290616  0.08592106 -0.05064091]
[-0.12557201 -0.06504656 -0.11401263  0.01201284  0.10882793 -0.04560699]
[ 0.00047308  0.05889156 -0.07642809 -0.05545364  0.04504376 -0.06428663]
[  3.79813090e-02   7.34318001e-03  -3.93697992e-05   4.99136522e-02
  -4.93356138e-02   2.73512211e-02]
[-0.03118901 -0.01200502 -0.01040418  0.03281386  0.07756227  0.0802449 ]
[ 0.01769504  0.05020933 -0.04753391  0.05950854 -0.07089911 -0.04519157]
[ 0.04437611  0.00151218 -0.07124614 -0.00134795 -0.02688658  0.06165161]
[ 0.04120164 -0.02048207 -0.00353376  0.02275546  0.04434855 -0.01490621]
[ 0.08151051 -0.02549811 -0.04692166 -0.07468413  0.06345793  0.02102151]
[-0.0312396  -0.08669709  0.0343455   0.0727418   0.01763093  0.0685271 ]
[-0.06190427  0.0123334  -0.05290114 -0.03021465 -0.07366998 -0.02637991]
[ 0.10249367 -0.02711898  0.04624801  0.06023959  0.00280379  0.05387839]
[-0.00551063 -0.01144354  0.00691784  0.07808731  0.00190174  0.03206438]
[ 0.08520672  0.04504012  0.00060268  0.01337087 -0.02961162 -0.00405517]
[ 0.08741168 -0.00704761  0.10708498 -0.05164171 -0.01963125 -0.08817019]
[ 0.05587857  0.04446784  0.04108515  0.0769354   0.04998523 -0.06743233]
[-0.02597478  0.04292865  0.04225266 -0.01232554  0.00249567 -0.04766684]
[-0.04557613 -0.06089811  0.00499027  0.01751165 -0.03621695 -0.03983153]
[ 0.01469613 -0.04527129 -0.06079877 -0.00719674 -0.07625341 -0.01494267]
[-0.08249181  0.0432918   0.07580782 -0.07192215 -0.05699711 -0.08432285]
[ 0.07269386  0.03542059 -0.00866005  0.07044493  0.00493744  0.03871493]
[-0.00480785  0.04063975  0.04584704  0.03682788 -0.07058839 -0.06206353]
[-0.02481641  0.07458691 -0.07981013 -0.00428527  0.05047368 -0.03993575]
[-0.05692979  0.0162534  -0.12072357 -0.03726921 -0.03386047  0.00283744]
[-0.02498298  0.07712869  0.01916336  0.03441774  0.06204137 -0.08501631]
[-0.1055309   0.04614369  0.01200491  0.12080044 -0.04429143 -0.03026233]
[ 0.04406777  0.02364826  0.0803924   0.03211306 -0.06560374 -0.05143326]
[-0.06159845  0.17557679  0.03713775  0.05793579 -0.05753846 -0.04570321]
[-0.06796379  0.21769235  0.0206901   0.00361047 -0.08295633 -0.0517448 ]
[ 0.02155104  0.10263713 -0.00995245  0.03972981 -0.08807782 -0.06252073]
[-0.09874403  0.04289056  0.05442999 -0.05626391 -0.03924072 -0.00148923]
[ 0.05142416  0.10364209 -0.06108317  0.04274806 -0.04291838 -0.02966258]
[ 0.07196661  0.00560527 -0.04168062  0.00132645  0.07660191  0.00333563]
[ 0.00013542  0.03840498 -0.05121633 -0.030692   -0.06030352 -0.03031238]
[-0.04191824 -0.05238189  0.03718313 -0.08851282  0.05312361  0.09282124]
[ 0.02798722 -0.0438569  -0.02080899 -0.01092143 -0.05213049  0.01647403]
[-0.0165485  -0.03651981 -0.09573364  0.04300163 -0.09133688  0.04295417]
[-0.00216792 -0.09183476  0.04201122  0.07137994 -0.02369084  0.06095941]
[-0.01534411  0.01977286 -0.00932656  0.0717373   0.04840126  0.04417225]
[-0.07400402 -0.16776747 -0.07289656  0.0624849  -0.04314395  0.0426187 ]
[-0.03569034 -0.08790235 -0.00229336  0.01375451  0.02520714  0.07956248]
[-0.04862783  0.06932566 -0.01669175 -0.01396047 -0.04241839  0.03965076]
[ 0.05289886  0.11703598  0.03062665 -0.03531889  0.04497953  0.01854476]
[-0.00769493  0.04494338 -0.03419323 -0.04736501 -0.04951314 -0.03950289]
[ 0.02906446 -0.04711517 -0.04543637 -0.0797639   0.04484802  0.03170848]
[-0.04130539 -0.03226222 -0.0335969  -0.08511432 -0.00897318 -0.0983621 ]
[ 0.03924594 -0.02916579 -0.06255648 -0.02740895 -0.03777121  0.05868147]
[-0.0329107  -0.01577795 -0.00565498  0.01373255 -0.00711384 -0.08724234]
[-0.00495188 -0.00154928 -0.03164452  0.05839493 -0.01135822  0.07375233]
[-0.04731026  0.01787225 -0.12093414  0.03104019  0.07289525  0.09238549]
[ 0.01301341 -0.06200435 -0.10512213  0.05057553 -0.06693162  0.10173875]
[ 0.05626861 -0.18613601 -0.23153651 -0.03318106  0.04771829  0.10012612]
[ 0.06938199 -0.1883796  -0.18942197  0.05777369  0.00080361  0.16981645]
[-0.00789124 -0.20842069 -0.17656732  0.01014618 -0.12551154  0.1304343 ]
[-0.04647371 -0.26197454 -0.08452161  0.0248038  -0.1632245   0.02428417]
[ 0.02942501 -0.23362944  0.06261629  0.04924071 -0.06489586 -0.02855128]
[ 0.10123304 -0.09376143  0.11829421 -0.05942306 -0.06383212 -0.0076765 ]
[ 0.03515032 -0.06457791  0.27184331 -0.08996348 -0.16159406 -0.01089756]
[-0.0737218  -0.00909253  0.15810789 -0.1326541  -0.03745583 -0.00502236]
[-0.02260246 -0.06947935  0.15360886 -0.00746727 -0.05963998 -0.11189066]
[-0.09204137  0.02806653 -0.01532011  0.03676529 -0.00136963  0.05402472]
[-0.04058577  0.06207782  0.00441555 -0.06069967  0.06625782 -0.08017678]
[-0.03886466  0.06770533 -0.10361186 -0.07814258  0.06383437 -0.06547376]
[-0.0717856  -0.06216462 -0.08261853 -0.01841482  0.00875616  0.08441664]
[ 0.00514937 -0.13517483 -0.14302835 -0.05045531 -0.16351537  0.03881735]
[ 0.06038359 -0.10357806 -0.26816595  0.02287422 -0.10810836  0.10897715]
[-0.00469721 -0.1611675  -0.23600107 -0.01966641 -0.06966556  0.09714676]
[ 0.00323768 -0.26162845 -0.12383879 -0.01363803 -0.01340334  0.0770845 ]
[ 0.0317406  -0.3141422   0.01348244 -0.01330316 -0.04444205  0.08569092]
[-0.03721578 -0.29225242  0.08628133 -0.01368507 -0.06041095 -0.00511593]
[-0.03769875 -0.13700218  0.16922876  0.02004618 -0.12504949 -0.10593884]
[ 0.00898366 -0.05084657  0.2335133  -0.0690966  -0.18425076 -0.07234943]
[ 0.0106026  -0.07058505  0.2778773  -0.23051544 -0.13470553 -0.03363724]
[ 0.05730316 -0.09995969  0.20089316 -0.17654829 -0.08293736  0.04954605]
[  4.92709242e-02   3.30025144e-02  -4.64241784e-05  -9.06658471e-02
  -1.36768762e-02  -6.39048964e-02]
[ 0.01839902 -0.06888156 -0.03553672  0.06346062  0.01123822  0.00511846]
[ 0.04469841  0.02552878 -0.03906131 -0.07057895 -0.00561385 -0.05002846]
[-0.02664851 -0.04922159 -0.1205886  -0.03268655  0.00513992  0.06110251]
[ 0.01578492 -0.09232704 -0.12197915  0.0343245  -0.07400177  0.13910371]
[ 0.02590838 -0.13964759 -0.27677375  0.05767424 -0.15414587  0.19262934]
[ 0.02410724 -0.20292681 -0.20245959 -0.02236413 -0.1031535   0.16249095]
[ 0.0020604  -0.19934824 -0.19578572  0.02237514 -0.02299275  0.11855895]
[-0.01057901 -0.33508411 -0.06773034 -0.00834151 -0.08541431 -0.00644173]
[-0.04980646 -0.15825672  0.09098528  0.01356582 -0.11530928 -0.05147249]
[-0.0138434  -0.14391932  0.18955818 -0.00921916 -0.12958172  0.00388679]
[-0.11109214 -0.05249698  0.19168106 -0.05689883 -0.09197784  0.07958835]
[-0.11979648 -0.05910861  0.26285815 -0.1363706  -0.13857161  0.03443177]
[-0.0726562  -0.08622663  0.28751299 -0.08210475 -0.12759678  0.02263797]
[-0.08330104 -0.09738421 -0.01186525  0.01900352 -0.03624653 -0.04697209]
[-0.06011249  0.00646946 -0.02051205 -0.08167917 -0.00371891 -0.02599419]
[ 0.00410911 -0.08946646 -0.05230441 -0.07754092 -0.03394082  0.04376243]
[-0.08882751 -0.05604848 -0.06795417 -0.03447222 -0.06124068  0.03394321]
[-0.0195489  -0.15327504 -0.11060447  0.07712907 -0.06319878  0.00760951]
[ 0.00530277 -0.19208112 -0.15943161 -0.00636011 -0.06855784  0.09275512]
[-0.00188405 -0.17166965 -0.20277661 -0.05625353 -0.12082656  0.01291193]
[-0.07836716 -0.20520727 -0.1122826  -0.0160256  -0.17870304  0.10606491]
[-0.10098472 -0.24745737  0.08438074 -0.02799722 -0.20860058  0.06785383]
[-0.05343945 -0.09845679  0.15171385 -0.01145345 -0.17055482  0.04457691]
[-0.03875557 -0.12813041  0.15463637 -0.03472102 -0.14800638 -0.0263137 ]
[-0.02911681 -0.0392401   0.16405782 -0.09091193 -0.05825637  0.02404477]
[-0.12416057 -0.0604413  -0.01125656 -0.04537309 -0.06262229  0.1344754 ]
[-0.09889083 -0.15568791  0.02548648 -0.02218551 -0.05300447  0.01801486]
[ 0.06525732  0.03582807  0.10920661  0.0644175  -0.00228152 -0.0742358 ]
[ 0.0782321  -0.02774064 -0.03544967  0.06075739  0.05539129 -0.05242234]
[ 0.00123041 -0.08780495 -0.03489153 -0.08350884 -0.04109975 -0.05345608]
[-0.11499763  0.01771688 -0.10534904 -0.0495231   0.02255959 -0.0558544 ]
[-0.08715317 -0.12651758 -0.02503573 -0.04426678 -0.10098818 -0.12002894]
[-0.11770146 -0.12337699 -0.13315596 -0.13782218 -0.03842286  0.03779093]
[-0.15434811 -0.1996938  -0.05337648 -0.09697413  0.03262861  0.13533725]
[-0.15810122 -0.03373434 -0.01062031 -0.11541918  0.09179005  0.17744534]
[-0.02556911 -0.02208713 -0.02074617 -0.17632908  0.13939236  0.05378716]
[-0.00859235  0.06651434  0.0844869  -0.15354061 -0.11360282  0.07342692]
[ 0.0317039   0.01226976  0.06161457 -0.10677944 -0.09538127  0.02955552]
[ 0.01637571  0.02291865 -0.00486504 -0.1097886   0.03196979 -0.00119861]
[-0.01123584 -0.10243767 -0.10375879  0.03156912 -0.00312853 -0.10900304]
[ 0.01390369 -0.04178842 -0.08232404 -0.01377538 -0.04055586  0.06383024]
[ 0.08507588 -0.06774805 -0.0445913   0.03536529 -0.06980741 -0.08377844]
[  1.83119383e-02  -2.20401198e-05  -4.70558740e-02  -7.15567544e-02
  -5.27981557e-02  -9.16424692e-02]
[-0.03484254  0.04082989  0.00369354 -0.10849848  0.03957696 -0.05245354]
[-0.09881278  0.01745887 -0.11592712 -0.09311091  0.10624602 -0.08507066]
[-0.11038977 -0.06384721 -0.16289975 -0.10891669 -0.03206482  0.03839757]
[ 0.02752458 -0.00907847 -0.12478394 -0.10536716  0.07663058  0.11762819]
[-0.08858506 -0.06922511 -0.05703902 -0.04144583  0.10630859  0.13778538]
[-0.02427097 -0.01065437 -0.08189182 -0.11311282  0.13016866  0.13574709]
[-0.02505998  0.08577374 -0.00567451 -0.14956896  0.02537527  0.12645845]
[ 0.06954841  0.10040834  0.00845766 -0.1812112  -0.11243244  0.05786857]
[-0.04285837 -0.02493127 -0.02298367 -0.16576542 -0.03796542 -0.05438682]
[ 0.05705956 -0.04449693 -0.11074064 -0.04516112 -0.01780244 -0.12226614]
[ 0.03289557  0.0460568  -0.04799103  0.04821579  0.02509669 -0.08030979]
[ 0.06883783 -0.07500488 -0.11142152  0.17076269  0.00628943 -0.01696146]
[ 0.06842478 -0.11456107  0.02622149 -0.01819565  0.062429   -0.03736234]
[-0.08205154 -0.07980273 -0.02614261  0.00192973 -0.05448023 -0.05101027]
[-0.07054333  0.02778934 -0.05840602 -0.02397775  0.06783632 -0.02285083]
[ 0.03394036  0.02750585 -0.06408806 -0.06291276  0.03478998 -0.02012469]
[ 0.00486958  0.05868156 -0.11000956 -0.11570495  0.14010167  0.01395124]
[-0.01512815  0.03020185 -0.08333266 -0.12020911  0.0928903   0.11576612]
[-0.0471869  -0.1032061  -0.12724543 -0.13121019  0.16500156  0.16109245]
[ 0.01151238 -0.02343782 -0.1126709  -0.15439481  0.16024341  0.12133292]
[-0.00924117 -0.03999    -0.02101702 -0.0527515   0.05602559  0.15410067]
[ 0.049056    0.01651073  0.00811293  0.04126584  0.02335406  0.0533396 ]
[  5.76205254e-02   9.63858981e-03   8.02360177e-02   5.70908114e-02
   1.22992788e-02  -6.91718087e-05]
[ 0.1439694   0.00972824 -0.04323341  0.06040707  0.04499682  0.01710358]
[ 0.08502849  0.08263846 -0.08156404  0.06395514  0.00099858 -0.10946575]
[ 0.10113056 -0.10002855  0.01485241  0.09571407 -0.01877616  0.03666027]
[ 0.01146812 -0.06143153 -0.09492616  0.12954882 -0.00065532 -0.04009743]
[ 0.01266196  0.08199842  0.04709598 -0.02935063  0.02346306 -0.01969442]
[-0.05512473 -0.01332364 -0.06817066  0.02236896 -0.10267594  0.09189568]
[-0.08391906 -0.03605527 -0.02932189 -0.02719379  0.03852295  0.0718871 ]
[ 0.00600484 -0.02655952  0.0632247  -0.15873766  0.04515568  0.09676986]
[-0.01862939  0.03461577  0.03958502 -0.02610169  0.01909081  0.11907217]
[ 0.05270804 -0.01999877  0.08816966 -0.0371059   0.03879415  0.11751092]
[ 0.05399839 -0.02176004  0.02660168  0.07033208 -0.00021016  0.06643408]
[ 0.08539723 -0.04394949 -0.01331999  0.04805927 -0.00060163  0.12453124]
[ 0.1558311  -0.01959832  0.11361283  0.13277112 -0.05170734  0.0814532 ]
[ 0.17910285  0.05089704  0.00528921  0.11413532 -0.05781568  0.10377658]
[ 0.08245543  0.10090739 -0.03479506  0.07159763 -0.05795056  0.01136377]
[ 0.0389607   0.05964076 -0.0729548   0.12819783 -0.02180544  0.04948156]
[ 0.12294865 -0.07319281 -0.05997282  0.08448339 -0.10655857  0.08946683]
[ 0.10541879 -0.05354197  0.00028371  0.08102858  0.04574807  0.05318303]
[ -6.65399153e-03   7.25593865e-02  -2.95793543e-05  -2.36942191e-02
  -1.78858731e-02  -5.77888936e-02]
[-0.05108572 -0.12077842 -0.00262609  0.0424474  -0.05529459  0.04374897]
[ 0.01275765 -0.08263014 -0.00399918  0.06124594  0.02406944  0.07931506]
[-0.02696937 -0.12176219  0.03671929  0.00481848 -0.11737726  0.06500716]
[ 0.00104481 -0.02869923  0.02321413 -0.00014383 -0.08755617  0.08489235]
[ 0.03704663 -0.00397473  0.06798992  0.05955146 -0.12600242 -0.00396218]
[ 0.07883853  0.01444274  0.10939833  0.01515215 -0.15604106  0.00290358]
[ 0.09905062  0.01313802  0.08741437  0.09198368 -0.13316195  0.04869229]
[ 0.13331564  0.03671498  0.07464001  0.01444169 -0.09916785  0.0327615 ]
[ 0.08488058  0.00595173  0.00338761  0.12883997 -0.15842536  0.03127809]
[ 0.07457466 -0.08717182 -0.04588983  0.08658002 -0.05788815  0.08176952]
[ 0.07824975 -0.06394846 -0.04273861  0.10819837 -0.00835586  0.01183545]
[ 0.02201766  0.02059263  0.00864112  0.06972166  0.05695596  0.08902126]
[-0.0154481  -0.04681647 -0.04810362  0.10080349 -0.02184246  0.02373272]
[ 0.01104253  0.02739183  0.08262787  0.02268107  0.04819253 -0.00672996]
[-0.0706003  -0.03342762  0.02591504 -0.00728519  0.04244733  0.02189315]
[ 0.01874633  0.03752929 -0.12131193  0.05733044 -0.12903537  0.10302895]
[-0.0681495   0.04893823  0.01150578 -0.02956779 -0.12430093  0.04321538]
[ 0.01895567 -0.03944236  0.07842116  0.05792805 -0.04463551  0.06940101]
[-0.02470791  0.02999767  0.0454248   0.02464113 -0.03739325  0.08014805]
[-0.09868929 -0.01630697  0.08584633  0.05076698 -0.04622683  0.09092544]
[-0.00414748  0.07093185  0.02632719  0.07258747 -0.07827809  0.0421506 ]
[-0.01547548 -0.00078161  0.0439221   0.00940308 -0.06152461  0.02153519]
[ 0.01396228  0.0888818  -0.01357535  0.02293647  0.00327464 -0.02963008]
[ 0.08573543  0.00517353  0.00172322  0.15778041  0.05273306  0.04189181]
[ 0.02804282  0.02621912  0.00711007  0.03531391  0.10086582  0.05177083]
[-0.03802873 -0.04024642  0.02080544  0.10669857 -0.02659208  0.0873026 ]
[-0.00162489 -0.01129435 -0.02461695  0.00053571  0.003333    0.02515262]
[-0.05390073  0.13838765 -0.03254241 -0.07774678 -0.01354588 -0.06902444]
[ 0.00385146  0.00226922 -0.03537547 -0.05522361  0.02386935  0.01565782]
[-0.01194498  0.06804616 -0.08183085  0.0105359  -0.087484   -0.04261578]
[-0.05986557 -0.01158774  0.00818895 -0.02896481  0.0492019   0.02398695]
[-0.16522002  0.01502652 -0.03463824 -0.14270574  0.03288426  0.03527964]
[-0.0461283  -0.10288359 -0.00793325  0.00420822 -0.02979922  0.03530046]
[-0.15853931 -0.06390238  0.02377472 -0.04934524 -0.00271465  0.01473797]
[-0.11196984 -0.01549586  0.00038989 -0.05385033 -0.06825148 -0.00089672]
[-0.13769382 -0.02528616 -0.04569442 -0.02795362  0.00405588 -0.08145855]
[-0.05022294  0.01584918 -0.01828056 -0.05343382  0.02049297 -0.04450254]
[-0.0434696   0.04685651  0.05776061 -0.0985989   0.06670117 -0.12948477]
[ 0.02107473  0.10285814 -0.07627606 -0.03532747  0.11291385 -0.11796301]
[ 0.01511767  0.01312368 -0.03995836 -0.0690351   0.06164001 -0.08577722]
[-0.04931453  0.09477379  0.02728597 -0.0716171  -0.08045643 -0.09527511]
[ 0.01380205 -0.06715147 -0.00573948  0.02941874 -0.02511293 -0.0612819 ]
[ 0.02050375 -0.05374138 -0.00234577  0.03958444 -0.00243794  0.08625361]
[ 0.04770149  0.08085477 -0.07950227  0.0114945   0.05483038  0.08702312]
[ 0.01026896  0.05670334  0.08763394  0.1001139   0.04838176 -0.04394188]
[ 0.14458971 -0.07542489  0.02961973  0.03574938 -0.11110384  0.03269221]
[ 0.11596362 -0.03247189  0.05235393 -0.06008356 -0.06662522  0.03498073]
[ 0.1032353   0.0115897   0.17456123  0.00085635 -0.13926354  0.02639573]
[ 0.00666893  0.07704432  0.11052974  0.04496749 -0.12271486 -0.01487014]
[ 0.08590376  0.06928588  0.13328448 -0.03483067 -0.16092481 -0.08771003]
[ 0.15286379  0.06087628  0.14771242 -0.09948066 -0.07283709 -0.13333008]
[ 0.2009933   0.09366752  0.08945104 -0.0591739  -0.08368564 -0.00934734]
[ 0.04065053  0.00358804 -0.01808861 -0.02077919  0.02123873 -0.08033947]
[ 0.08313444  0.08640376 -0.00160071 -0.02923647 -0.03433565  0.06350453]
[-0.02020157 -0.05308037  0.0298507  -0.03921992 -0.03118742  0.03228926]
[-0.06683313  0.03690297 -0.00696426  0.03112698 -0.02011654  0.01792668]
[ 0.05010374 -0.0744717  -0.00803838 -0.01391036  0.05990712 -0.04307604]
[ 0.00203963 -0.00067051  0.05554596  0.0751131   0.06928115 -0.04575797]
[ 0.03747521 -0.06519581 -0.04098187 -0.04011103  0.00267219  0.09149061]
[ 0.17611982  0.06965382  0.07026694  0.08044766 -0.04419659  0.10615183]
[ 0.0641612   0.04103186 -0.05785087  0.09637652 -0.06726007  0.07314869]
[ 0.05260745  0.04596101 -0.00825375  0.0070848  -0.11757959  0.06192071]
[ 0.07304837  0.1465482   0.01561691  0.05453062 -0.10173711  0.02541862]
[ 0.02187768  0.07340281  0.08459067  0.025456   -0.16767789  0.00702916]
[ 0.09360137  0.17671131  0.08358614 -0.07923691  0.02500545 -0.04286422]
[-0.04731638  0.1387645  -0.00739349  0.00696314 -0.06374586 -0.07322886]
[ 0.00139425  0.11192159  0.06723894  0.03898716  0.07849869 -0.04315065]
[-0.06237562  0.10417666  0.07577503 -0.08432954  0.00538813 -0.081205  ]
[-0.0532636   0.04191862 -0.05832578 -0.08927854 -0.01206143 -0.02470582]
[ 0.02981655  0.04600076  0.04505557 -0.06547882  0.06372493  0.03433738]
[ 0.02344205  0.07300235  0.03939301 -0.03525152 -0.00249781  0.06868304]
[-0.0270712  -0.01241247  0.03510103 -0.1061256  -0.05960274 -0.05593781]
[ 0.03699507  0.06634321 -0.03831164 -0.09119079 -0.0223647   0.087844  ]
[-0.03526923 -0.00932719  0.03537237 -0.02251678  0.08861984  0.03043849]
[-0.0210678   0.1096113   0.07732414 -0.0214565   0.0029918  -0.02276084]
[-0.01878961  0.07995332 -0.02555213  0.05929606 -0.03645474 -0.03330115]
[-0.00434182  0.05053777  0.01905963  0.03820826  0.00653683 -0.00958955]
[-0.05529725  0.02882814  0.04341599 -0.02230119  0.05950481  0.02378489]
[-0.04353502  0.04051778  0.0049706   0.01333215  0.12444101 -0.06053591]
[-0.03716995  0.05778561 -0.037158   -0.13301025  0.1068723  -0.08828854]
[-0.04016405 -0.00630091  0.0093658   0.0114071  -0.03411769  0.00126088]
[-0.0684558   0.06901878  0.09891828 -0.13741621  0.00302644 -0.05983494]
[-0.10868748 -0.04376633 -0.02390317  0.01988707  0.03176391  0.00045188]
[-0.04874359 -0.00131886  0.06689505 -0.00192092 -0.02318969 -0.04948901]
[-0.04148261  0.03610456 -0.07548529  0.02080827 -0.10622372 -0.00255498]
[-0.13710162 -0.04210556 -0.0222611  -0.07067753  0.01055381  0.01697849]
[ 0.02569919  0.06085951  0.09240144 -0.02902311 -0.00673825 -0.0596997 ]
[-0.00299337  0.0474718   0.11120202 -0.02114304 -0.04272971 -0.00016659]
[-0.02298885  0.0085386   0.06887479 -0.04512481  0.01014833 -0.08736954]
[-0.06256794  0.06749941 -0.01505919  0.0765234  -0.02619012 -0.06052214]
[ -2.54116580e-02   8.55673775e-02  -8.18602974e-04  -1.87300611e-05
   6.77335486e-02  -1.17370896e-01]
[-0.12737267  0.17444798  0.00369025 -0.09669798  0.10768121 -0.10697157]
[-0.14050037  0.18770654 -0.09177219 -0.02691669  0.01427298 -0.09950487]
[-0.1078465   0.11378075 -0.03330223 -0.13316879  0.08811258  0.00634979]
[-0.03255221  0.07455691  0.08990508 -0.02002537 -0.08740294 -0.01427759]
[-0.13758337  0.00388412  0.05839657 -0.06891268 -0.09607251  0.00150396]
[-0.00805337 -0.00641554  0.10732704  0.00825778 -0.09013712 -0.09018692]
[ 0.00634706  0.03748389 -0.04069732 -0.01871662  0.02729676 -0.07527906]
[-0.10548481 -0.05112321  0.00019617  0.002072   -0.06174804 -0.06164183]
[-0.1391706  -0.06504251  0.03217362  0.08001706  0.01362474 -0.00809618]
[-0.15131825  0.03943325  0.09324307  0.02170711  0.05246339 -0.12414394]
[ 0.01536034 -0.02915553  0.06137934 -0.04326549  0.05121922 -0.05635649]
[-0.01775775  0.00028997  0.1517251  -0.04325743  0.08811694 -0.10613347]
[ 0.02413368  0.10830837 -0.02623359 -0.07824457 -0.05339755 -0.05170798]
[-0.00627985  0.19934689 -0.1309616  -0.1464047  -0.0576985  -0.03953463]
[ 0.01103546  0.16765602 -0.09106661 -0.14263004  0.11891817 -0.07948779]
[-0.05621857  0.13540867 -0.10386598  0.02738478  0.04738397  0.00300358]
[ 0.03961071  0.0591017  -0.01274579 -0.05281832  0.01276442 -0.08616412]
[-0.01979079  0.04225455  0.02377734 -0.03850439 -0.17292088 -0.13920158]
[-0.07787349 -0.11750271  0.1036262  -0.05911995 -0.16466565 -0.1171345 ]
[-0.05528363 -0.06021414  0.05757665  0.03915655 -0.02556406  0.00693998]
[ 0.03379916 -0.00753841 -0.00580439  0.05051074  0.06037803 -0.05273503]
[-0.01339273 -0.10471366  0.00201671 -0.04782138  0.02879212 -0.07339028]
[-0.06092498  0.00549108  0.05160919 -0.02539776  0.01820635 -0.12731268]
[-0.07634159 -0.00296082  0.07508551 -0.03017024  0.04381512 -0.20406146]
[-0.03333542  0.11771797  0.10484341 -0.03779281  0.10435019 -0.1573887 ]
[ 0.00725202  0.00533029  0.12898616  0.01564242  0.100384    0.05010988]
[-0.08387307  0.21927005  0.04951848 -0.16150433 -0.08024315 -0.00244307]
[-0.05749778  0.13449146 -0.17180084  0.01945794  0.06970878 -0.01357813]
[ 0.09988806  0.12277345 -0.15781027 -0.0237159   0.15475827  0.05720672]
[ 0.09398759  0.09390747 -0.08190566 -0.01558522  0.16216688  0.05776989]
[ 0.02930514  0.14202897 -0.04986446  0.09410015 -0.09057534 -0.09945957]
[-0.0226805   0.02339505  0.03950386 -0.05179368 -0.11349597 -0.0883333 ]
[ 0.08516677 -0.01251649  0.06132865 -0.03194287 -0.08439504  0.04220619]
[-0.01899102 -0.10458851  0.07794907 -0.01958726  0.0280849   0.05675744]
[-0.0252753  -0.059682   -0.00986177 -0.09452568  0.04833153 -0.03405477]
[-0.00804637  0.04327627 -0.0089149   0.04046862  0.02445389  0.02132383]
[-0.10686646  0.16725929  0.05255189  0.07999361  0.08804688 -0.23960491]
[-0.06965736  0.09843516  0.07647636  0.03474835  0.07674374 -0.15451637]
[ 0.03860415  0.07051501  0.1000653   0.13294105  0.05803846 -0.05538083]
[ 0.06737104  0.03752291  0.04055006  0.06125276 -0.01747488  0.11705405]
[-0.08042435  0.22490503 -0.07153001 -0.00587894 -0.03975412  0.02984527]
[ 0.11747462  0.07065476 -0.18580692  0.01055073 -0.00294105 -0.09013595]
[ 0.16344646  0.09852084 -0.02280458  0.06350006  0.10644893 -0.07841624]
[ 0.04090175  0.05392312  0.03191349  0.08975121  0.07354203 -0.05085463]
[ 0.06949569  0.02994956  0.11174614  0.14790805  0.01851487 -0.03612481]
[ 0.0010244  -0.03996993  0.04026005  0.00085366 -0.09988601  0.07002632]
[ 0.09183718  0.06067348 -0.05980635 -0.01438379 -0.0925165   0.1171508 ]
[-0.00386922 -0.10703076  0.07787521  0.02702083  0.08162409 -0.07175807]
[-0.07778509 -0.06356189  0.05408533 -0.07408234 -0.09237522  0.05079465]
[-0.07788905  0.04865261 -0.13897583  0.0692102   0.05811312  0.0796956 ]
[ 0.07354987 -0.03002374  0.08055469  0.21046473  0.02959447 -0.17809089]
[ 0.08451087  0.06469505  0.09785926  0.11381893 -0.0139894  -0.03917938]
[ 0.13918307 -0.00193001  0.09200753  0.16640076 -0.0611036  -0.10224575]
[ 0.16877937 -0.02561512  0.00987724  0.08890697 -0.10235724 -0.02215776]
[ 0.02761449  0.15078878 -0.18001559  0.00864332 -0.06495472 -0.03670624]
[ 0.11245865  0.04967193 -0.07628254  0.03296973  0.04564538 -0.17311378]
[ 0.07160814  0.09903324 -0.04564313  0.02617879  0.00071424 -0.09162147]
[ 0.03731266  0.07952686  0.08011417  0.17586632  0.07917693 -0.14210422]
[ 0.00843567 -0.015495    0.10385881  0.12704356 -0.00305741 -0.13962163]
[ 0.03056655  0.01458563  0.05228809  0.03149624 -0.14009418  0.07575961]
[ 0.03985078 -0.02655033 -0.12152578  0.07518446  0.03604455  0.06937318]
[-0.04599645 -0.0559832  -0.07937094 -0.00095773  0.03727443  0.01474121]
[ 0.04567473  0.01753199 -0.06741868 -0.06794509 -0.1025335   0.04230489]
[ 0.04462464  0.01107365 -0.08735128  0.06885815  0.03471482  0.01292748]
[ 0.0035458  -0.10288887  0.04419845  0.07010303  0.0900052  -0.0072108 ]
[ 0.03796012  0.00535765 -0.0348375   0.12293375 -0.00022217 -0.04892041]
[ 0.11147734 -0.02669581  0.02275814  0.13235389 -0.06369523 -0.14881867]
[ 0.06753314  0.09824269 -0.04225205 -0.00379103 -0.09517628 -0.12207074]
[-0.03115889  0.20993769  0.03000306 -0.09485429 -0.04994881 -0.14387853]
[-0.04423476 -0.00696087  0.03348722  0.0398335   0.0426583  -0.11249056]
[-0.04539216  0.01402778  0.01623833  0.12802742  0.04629254 -0.07377388]
[-0.0690084  -0.00894165  0.10983025  0.1156292  -0.05746884 -0.01682092]
[ 0.01336489 -0.0619708   0.08069313  0.17345405  0.00053333  0.02890998]
[ 0.09189574  0.01455097 -0.01489015  0.10595145 -0.00745042 -0.03500343]
[ 0.12131634 -0.04129435 -0.02708134  0.20030525 -0.01266865 -0.00490865]
[ 0.06412528 -0.075898   -0.07554442  0.09276786  0.04413822  0.02889541]
[ 0.07487267 -0.05734258 -0.00203311 -0.00259309 -0.01919962  0.11948013]
[ 0.06480353 -0.07415975 -0.11776415  0.01564091  0.06338034  0.09492151]
[ 0.00965496 -0.02282059  0.0674788   0.05969338  0.01784869  0.02390277]
[-0.02003994  0.00335187 -0.0447887   0.03818145 -0.01281119  0.01287018]
[-0.04065464 -0.02603367 -0.02571969  0.03965174 -0.09204203 -0.03935076]
[-0.04766786  0.10827985 -0.01631087  0.00945272 -0.05310405 -0.02537967]
[-0.12904279  0.07982967 -0.02384209 -0.03279427  0.04572339 -0.15440273]
[-0.09009451  0.0191655   0.05756127  0.02075356  0.03775259 -0.06985764]
[-0.00639183  0.01354397  0.11129722  0.16529758 -0.01698151  0.00177093]
[ 0.01051941  0.01672465  0.01024784  0.10512041 -0.04685515 -0.01185063]
[ 0.12266934 -0.0512096   0.09076189  0.11903469 -0.02679646  0.06785125]
[ 0.19854587 -0.11715902 -0.06767674  0.107568   -0.08477834  0.0256557 ]
[ 0.14433283 -0.03654352 -0.03057993  0.13306193  0.02715247  0.01270688]
[-0.04808081  0.03179478  0.0373701   0.04716397  0.00207958 -0.00929966]
[-0.0233955  -0.06695337 -0.0845779  -0.05967408 -0.00260637  0.13282216]
[ 0.06550927  0.00990528 -0.06323584  0.06805042 -0.01212648  0.18428054]
[-0.01365907 -0.04004654 -0.05474993  0.00434952 -0.12250189  0.14121462]
[-0.07735831  0.00387687 -0.02766319  0.02600301 -0.02776339  0.04378674]
[-0.03873187 -0.0284215  -0.00020301 -0.05387523 -0.02083274  0.06436604]
[-0.04522837  0.05986244 -0.04362002 -0.01958703  0.02535262 -0.00996901]
[-0.21301259  0.0099717  -0.02179452 -0.06571199  0.01145528 -0.10527239]
[-0.10750124 -0.08637699  0.02337156  0.04361617  0.0019875   0.02427481]
[-0.0601953   0.02206496  0.14650841  0.0244518  -0.06929468  0.04244595]
[-0.07250795  0.00332874  0.1676188  -0.04659295 -0.01623251 -0.00857764]
[ 0.12495212 -0.06444436  0.15579899  0.12007453  0.02670285 -0.00639918]
[ 0.08592649 -0.081907   -0.00897303  0.0336335   0.04025809 -0.02552568]
[ 0.1018822  -0.00358188 -0.05461306  0.01297986  0.04758387 -0.06159959]
[ 0.01163075 -0.04872379 -0.06203172  0.02760574 -0.05980312 -0.04863125]
[ 0.03646083 -0.07539699  0.01410215 -0.07092889 -0.08435532  0.0474101 ]
[ 0.00470875 -0.06506602 -0.08467244 -0.02716545 -0.01306493  0.01949632]
[-0.00986365 -0.05028996  0.01529244 -0.0721961  -0.08053518  0.00282448]
[ 0.00424297  0.0782968   0.05605287 -0.0130834   0.02899929  0.02352932]
[-0.01316215 -0.00870336 -0.06443617 -0.053986    0.03620742  0.03515425]
[-0.10057551  0.10306711 -0.13465317 -0.0894946   0.00834181 -0.08463647]
[-0.14764327  0.12393788 -0.07032372 -0.22490114  0.0048991  -0.04571828]
[-0.07405817  0.03586428  0.01903505 -0.1459077   0.05224146  0.02445568]
[-0.12631418  0.06733291  0.08068274 -0.05959218  0.066983    0.08723917]
[-0.00939873  0.11931799 -0.0146206  -0.04392193  0.02908198 -0.00908833]
[ 0.07750756  0.0675995  -0.06454054  0.07551303  0.02465761 -0.05272722]
[-0.03650378  0.00216668  0.05520288  0.05594349  0.10305383 -0.01561262]
[ 0.06591909 -0.0040879  -0.00857377  0.08742899 -0.06154361 -0.00725428]
[ 0.00878049 -0.04396348  0.0372714  -0.06167182  0.06584531  0.05273141]
[ 0.02052967 -0.05413837 -0.07269058 -0.07978906  0.00905583  0.08197338]
[-0.01301701 -0.08677135 -0.03951393 -0.05108723  0.03192543  0.00130965]
[ 0.02195971  0.01471328 -0.04156898 -0.12173615  0.05705428  0.04977326]
[ 0.03240332  0.02462505 -0.041328   -0.1322763  -0.0294729   0.06270566]
[-0.13428001 -0.05802379 -0.05476356 -0.0875154  -0.08120321 -0.06807916]
[-0.11075316  0.03772191 -0.1408986  -0.15388365  0.03211353 -0.04277955]
[-0.0094944  -0.06845162 -0.20193669 -0.07418421  0.014244   -0.12506515]
[-0.02389741 -0.02651617 -0.18607937 -0.04616588  0.05341806 -0.04659859]
[-0.05222722 -0.03627942 -0.03076175 -0.07781957 -0.03211352 -0.07249963]
[-0.03002288  0.04977214  0.0381371  -0.03756813  0.09162919  0.01874494]
[-0.08644167 -0.07621748 -0.01266451 -0.10259593 -0.05855574 -0.07815471]
[-0.08951464  0.07594639 -0.02579234 -0.09252953 -0.0476403   0.07599396]
[ 0.01192027  0.07872925 -0.00607419 -0.03133554 -0.04657783 -0.02395954]
[-0.01545586  0.05089725 -0.05282829  0.07024089  0.02201225  0.00413836]
[-0.0243207  -0.08790541  0.04755024 -0.0830674  -0.00158298  0.05789294]
[ 0.00583684  0.0288231   0.01974441  0.06982821 -0.03355337 -0.00238171]
[ 0.01387064  0.06662363  0.05072869  0.00070776  0.06749935 -0.0206594 ]
[ 0.02084346  0.01149367 -0.07983384 -0.05000536 -0.00404059 -0.0685228 ]
[-0.02010029 -0.03622018 -0.03217193 -0.04475829 -0.08523814  0.00879572]
[-0.01764539 -0.07809186 -0.0645482  -0.02917211  0.03038745 -0.09238426]
[-0.00707183 -0.06940061 -0.14832526 -0.01780362 -0.00063081 -0.0732801 ]
[-0.0002371   0.0550889  -0.12647893 -0.03493946  0.1034295  -0.07538685]
[ 0.04803587  0.02707653 -0.00957456  0.05970714  0.0101542   0.0079318 ]
[-0.09571742 -0.07614208 -0.05025436 -0.02070732  0.00741234 -0.07638749]
[-0.05636564 -0.01113754 -0.05606967 -0.01220789  0.0956817   0.09122528]
[ 0.06123242  0.03073759  0.05206808 -0.0299853   0.05541607  0.05194309]
[ 0.01458778 -0.05481993 -0.03217587  0.04852051 -0.02968466  0.01751292]
[-0.08481016 -0.0385882  -0.08736902 -0.07551554 -0.02643728 -0.00050542]
[-0.05092121  0.21145834  0.02917098 -0.01802792 -0.04289548 -0.1156721 ]
layer 8 Activation
relu
layer 9 Dropout
layer 10 Dense
6 10
[-0.23694462 -0.2667022   0.55431122 -0.21170875  0.14601722 -0.4128128
  0.58251607 -0.61968327 -0.19427253 -0.33199766]
[-0.52713776  0.65656978 -0.45421815 -0.71776611  0.57379693 -0.51777285
  0.51330739 -0.64001507 -0.22654074 -0.15891942]
[ 0.3162573  -0.79113078 -0.53154284 -0.37023908 -0.44848794  0.24989475
  0.26083243 -0.65155941  0.05267056 -0.56062615]
[ 0.49898058 -0.55596375  0.37551314 -0.38629231 -0.48913264 -0.5279811
  0.27443352 -0.6359095  -0.41930044 -0.6321972 ]
[-0.16015369 -0.84459496 -0.03653249 -0.20003416  0.74036527 -0.14397319
 -0.30219018 -0.0905366  -0.10922226  0.69687873]
[-0.44375652 -0.60822952  0.24794587  0.37305313 -0.44981799  0.12429859
 -0.70437926 -0.54846984 -0.01923379 -0.58583623]
[-0.6468454   0.31195769 -0.46403259  0.07613796 -0.43853581  0.09954179
 -0.82225633  0.90443385  0.60570222  0.24354698]
layer 11 Activation
softmax
