layers 12
layer 0 Convolution2D
4 1 3 3 same
[ 0.00117346 -0.55784065 -0.15403201]
[-0.0845881   0.21659999  0.56718713]
[ 0.0819403   0.69454235  0.49400309]
[ 0.02141977 -0.35014361 -0.74921566]
[-0.27086595 -0.53873098  0.11187602]
[ 0.25651121  0.66874945  0.23674746]
[ 0.20606078 -0.20666268  0.70706862]
[ 0.08337484  0.06071117  0.51342231]
[-0.25648737  0.39365366 -0.28492424]
[ 0.12709522 -1.04721618  0.73241651]
[ 0.73334104 -0.73981464 -0.12999792]
[-0.38324085 -0.2633867   0.70562178]
[ 0.00533403 -0.00925262 -0.01246602  0.0159053 ]
layer 1 Activation
relu
layer 2 Convolution2D
4 4 3 3 valid
[-0.10970921  0.03718165  0.30464551]
[ 0.43290779  0.29340744 -0.02311059]
[ 0.08992011 -0.14212647 -0.45157847]
[ 0.22738233 -0.08197551 -0.39427269]
[ 0.12440565 -0.05101525  0.03060905]
[ 0.09308505 -0.27420363 -0.05852083]
[-0.14909652 -0.18251869  0.20351569]
[ 0.101272    0.21001934  0.34057376]
[ 0.25103903 -0.36963972 -0.26541033]
[ 0.16710785  0.00594532 -0.24464011]
[-0.29763773 -0.30270034 -0.15347876]
[ 0.03620319  0.05359057 -0.61192387]
[-0.2648485   0.17476583 -0.48185837]
[-0.02283394  0.1389768  -0.34113693]
[ 0.44569322  0.22909044  0.07391072]
[ 0.51529998  0.24250954  0.33263347]
[ 0.36838663  0.74345016  0.54858804]
[ 0.27302805  0.02275727  0.57387364]
[-0.09249899 -0.20279557 -0.58321697]
[ 0.06730974  0.01983283  0.06594584]
[-0.27785063 -0.25153029  0.03220113]
[-0.27136317 -0.16011909 -0.27114981]
[-0.15833847 -0.34263563 -0.5729214 ]
[-0.30929682 -0.07915976 -0.1737203 ]
[-0.20210746 -0.39347839 -0.34623528]
[ 0.22138035  0.05350852 -0.15005453]
[ 0.41216254  0.40090215 -0.28683177]
[-0.29656729  0.09048904  0.34753612]
[-0.34702811 -0.00509554  0.00938317]
[ 0.30135864 -0.12039797  0.19742869]
[ 0.37566912 -0.34978807  0.11729501]
[ 0.29283342 -0.0931023  -0.58208519]
[ 0.04296219  0.07631551 -0.42926311]
[-0.06304044 -0.25801444  0.2776618 ]
[-0.36460003 -0.2933037  -0.44735029]
[ 0.12210546  0.34220302  0.11463373]
[-0.06037194 -0.32475924 -0.21253273]
[ 0.28380078  0.062682   -0.24804248]
[ 0.02964115 -0.21930248 -0.17762716]
[-0.51336282  0.07908855  0.18307258]
[-0.64517534  0.09545752 -0.00401778]
[-0.0988835  -0.19771592 -0.41772121]
[ 0.2169705   0.06449445  0.02700634]
[ 0.05953412  0.27091727  0.02720931]
[ 0.1177894   0.28567713 -0.13832155]
[ 0.8008728   0.10015123  0.15256824]
[ 0.37255877  0.34108064  0.43677384]
[ 0.53920001  0.35638854 -0.11762495]
[-0.19088247 -0.00888123  0.00541539 -0.06099318]
layer 3 Activation
relu
layer 4 MaxPooling2D
2 2
layer 5 Dropout
layer 6 Flatten
layer 7 Dense
676 6
[-0.04171512  0.07144423 -0.08751608 -0.00298521  0.02071276  0.0117586 ]
[-0.01115678  0.03383408  0.02290356 -0.04208806 -0.03558946 -0.04715367]
[-0.05188031 -0.08095685  0.01242496 -0.03368387 -0.05124406 -0.01078384]
[-0.02235158 -0.09988196 -0.00439552 -0.09242532  0.06348179  0.05798458]
[ 0.07879481 -0.03681241  0.10387154 -0.06722166  0.07390263 -0.01072364]
[ 0.02012182 -0.03801586  0.16418822 -0.02602334  0.03091679  0.14877957]
[ 0.03725061 -0.06238548  0.03055555 -0.09926941 -0.0231552   0.1882664 ]
[ 0.05581537 -0.01062434  0.27102986 -0.14611922  0.03090487  0.10484439]
[ 0.03915504  0.00777062  0.14093029 -0.14072901  0.08593846  0.16285039]
[ 0.14107504  0.04181909  0.29130054 -0.10578604  0.18433899  0.21728621]
[ 0.0111225  -0.01297342  0.02691085 -0.15506153  0.04913784  0.11179832]
[-0.00348306  0.03995766 -0.05015023  0.01181026  0.05938548 -0.01469653]
[ 0.03110753 -0.03266858  0.00532757 -0.05542489 -0.02799916 -0.06992173]
[-0.00445938  0.03874438 -0.05728339 -0.03837148 -0.04740865 -0.0034071 ]
[ 0.03300363  0.06796247  0.07749037 -0.07854559  0.04329038  0.08252259]
[ 0.01440082  0.06562953 -0.06403134 -0.08842886 -0.0053205  -0.01110017]
[ 0.10882691  0.11031624 -0.08980236 -0.04375577  0.03040931 -0.02397043]
[ 0.13675818 -0.03650102 -0.11494345 -0.01375862 -0.01597976  0.13521783]
[ 0.21853288 -0.09220833  0.01478755 -0.00054277 -0.00825127  0.07698092]
[ 0.13429582  0.0714665   0.08252455 -0.06737087 -0.00195426  0.02867256]
[ 0.0052355  -0.1297574   0.03000678 -0.01500781  0.02581012  0.18713482]
[ 0.13403563  0.00089538  0.07427638 -0.10272572  0.11887901  0.22152758]
[ 0.01771668  0.0225386   0.1347543  -0.02195981  0.15199228  0.25768995]
[-0.22353505  0.0389423   0.02458392  0.02970253  0.13675091  0.10187541]
[-0.03134067  0.03786403  0.0686371   0.04471338  0.0128293  -0.03272999]
[-0.02421247 -0.04940062 -0.05316098  0.03003756 -0.01455262  0.08763016]
[ 0.06580123  0.05500844 -0.03312294 -0.06970597  0.07776754 -0.03365215]
[-0.0303324   0.14570546 -0.04580665  0.04749052 -0.10960296  0.05791349]
[ 0.1713085   0.03888224 -0.06137858 -0.01439798 -0.06584823  0.08570062]
[ 0.02187334  0.10376568 -0.03779703 -0.02515869  0.03809667  0.09875887]
[ 0.11837051 -0.04504826 -0.05003088 -0.152821   -0.03583759  0.02882515]
[ 0.0409323  -0.04035905  0.02066186 -0.02742226 -0.03612838  0.05615532]
[ 0.05639006  0.01183562 -0.04090505 -0.06089913  0.0045938   0.00947092]
[ 0.08395787 -0.04721319  0.08185696 -0.11459971 -0.06267782  0.03984095]
[ 0.06247155 -0.02802734  0.08589252 -0.0847249   0.05952332  0.07412799]
[-0.08375945 -0.09473225  0.07335538  0.0461405   0.10121845  0.02736723]
[-0.24634062 -0.09736236  0.01737462  0.07479918  0.08273752 -0.05588617]
[-0.10166916 -0.07339077  0.07071395  0.07352241  0.04330771  0.01394232]
[-0.09259219  0.05704359 -0.01414179 -0.08121837  0.05039568 -0.02071464]
[ 0.02174511 -0.03242238 -0.01495475 -0.09283021  0.06900239  0.03451997]
[ 0.03701032  0.05818358  0.02847588  0.0211948  -0.01767038 -0.06237173]
[-0.00674865  0.17930427  0.03060465 -0.0619798  -0.01060347 -0.01752566]
[ 0.03205363  0.04909556  0.01607164 -0.15616687 -0.0181825  -0.04346556]
[-0.02394086 -0.03489581 -0.04516757 -0.06895757 -0.02902101  0.00859183]
[ 0.00834127 -0.01615418  0.01271969 -0.04600691 -0.09499627 -0.0358751 ]
[ 0.03703197  0.00647765 -0.02035627 -0.14374936 -0.12892099  0.02538803]
[ 0.06865235 -0.02299356  0.0444351  -0.05991353 -0.04789248  0.00490017]
[ 0.00382501 -0.08475944  0.08290935 -0.04265491 -0.04835726  0.03422517]
[-0.03286462 -0.00364834  0.02178486 -0.01027611  0.04375874  0.00286445]
[-0.06736638  0.03118004  0.01564898  0.07205363  0.06834575 -0.03540162]
[-0.10044011 -0.09120584  0.06538867 -0.03233136  0.07972941 -0.08593409]
[ 0.02384323 -0.10690927  0.09361473 -0.06554515 -0.054477    0.03595757]
[-0.02088431  0.14075765 -0.08774136 -0.00373087 -0.03708978  0.04528735]
[ 0.00142436  0.06719373  0.01856856 -0.10822229 -0.02900456  0.01185589]
[-0.04809484  0.09318808 -0.03291618 -0.13308163  0.00841847  0.05332792]
[-0.06416351 -0.00432594  0.03381041 -0.16344967 -0.00148432 -0.02493211]
[  3.18048820e-02   2.51271464e-02  -4.15034927e-02   2.46986747e-05
  -2.60771792e-02  -1.72198750e-02]
[ 0.0184977   0.06492043 -0.02619601  0.00935748 -0.06078907  0.03271125]
[-0.01407257  0.08519071  0.03567412 -0.10217769 -0.04111802  0.02050589]
[ 0.06713473  0.11359046 -0.01013222 -0.0797161  -0.0493298  -0.04273179]
[ 0.11436274  0.11977541  0.02380017 -0.00721724 -0.04246904 -0.00542981]
[ 0.12499253  0.09471636 -0.11833788  0.00828658  0.01721876 -0.0176023 ]
[ 0.12918967  0.07116863 -0.08757153  0.07591915 -0.00829419 -0.03962667]
[-0.00261347 -0.08964007 -0.06937484 -0.0461067  -0.09030462 -0.09187313]
[-0.02226637 -0.04600777  0.12004729  0.01198736 -0.09060171  0.00102609]
[-0.00350027  0.12765037 -0.07928022 -0.10759017 -0.04047604  0.03733845]
[-0.03166555  0.11850016 -0.0476881   0.03486817  0.02976207  0.08679409]
[-0.0009079   0.0798416   0.02091392  0.03202745 -0.04388504 -0.02313921]
[-0.10737354  0.04488183  0.05019747 -0.02199744  0.08517826  0.00979511]
[-0.05860855  0.10123951  0.00687662  0.02336639  0.03563634 -0.12698148]
[-0.11649137  0.11323371  0.07553164 -0.05562064  0.09043823 -0.07195485]
[ -4.63330224e-02   8.05885717e-02   1.53944299e-01  -1.69304430e-01
  -4.51430902e-02   3.57306562e-05]
[ 0.05832364  0.0901181  -0.05496993  0.08125809 -0.19372296 -0.05011232]
[ 0.14946386  0.03759306 -0.06783679  0.02343974 -0.02828805 -0.01430087]
[ 0.17025492  0.05939772 -0.17386207  0.14418241  0.03757826 -0.04843952]
[ 0.19284691  0.00054825 -0.12281787  0.12607209  0.02807985  0.00362503]
[ 0.06883655 -0.16828811 -0.02488947  0.01114754  0.13117304 -0.04956555]
[-0.08975305 -0.05222515  0.02833266 -0.03195471  0.00483147  0.04314499]
[ 0.02197298  0.15673076  0.02039681 -0.07655697 -0.0195438   0.0005603 ]
[-0.0190648   0.10996418 -0.06840053 -0.0441101  -0.06740766 -0.00093765]
[-0.18966526  0.01191917  0.03273745  0.07454     0.14737423 -0.00785646]
[-0.18314613 -0.01382422  0.03761861  0.0297906   0.11638325  0.03976309]
[-0.05616869  0.05965186  0.07543422  0.02931978  0.03881748 -0.09460185]
[ 0.06031647  0.0195033   0.03665538 -0.06710552  0.07573273 -0.05158613]
[ 0.05379058  0.01028003 -0.08574174  0.10574521 -0.10842058 -0.01714657]
[ 0.029434    0.00114758 -0.14563313  0.14617221  0.00924836  0.08069485]
[ 0.19997758  0.09516858 -0.15348896  0.01642705  0.08245753  0.09577136]
[ 0.09510459  0.05912296 -0.19900233  0.03080424  0.0007984   0.04170542]
[-0.10579322  0.00315921 -0.01371309  0.13001972  0.11991414 -0.0601113 ]
[-0.02171338 -0.11736529  0.18100803 -0.00784187  0.24804604  0.06327779]
[ 0.04461972 -0.07083829  0.05982145 -0.06737383  0.06572175  0.11956232]
[  6.10005669e-02  -2.14615054e-02  -7.49695953e-03  -5.60364090e-02
  -7.20624533e-03  -4.33715759e-05]
[ 0.04779493  0.03979315  0.02092185  0.07035475  0.05924935 -0.06608913]
[-0.07113715  0.06625503 -0.12313522  0.04594168  0.10910836 -0.08063219]
[ 0.02968567  0.02556619 -0.12941475  0.09379828  0.08885051 -0.00140562]
[ 0.04282557 -0.03831142 -0.06607486 -0.04006519  0.03025972  0.08425266]
[ 0.02916892 -0.09949264 -0.17775406 -0.0060209  -0.03538763  0.0516836 ]
[ 0.05260665 -0.06166594 -0.13777813  0.16574107 -0.12602335 -0.00376329]
[ 0.00874044  0.00892266 -0.11262484  0.05570513  0.03679379  0.14555292]
[ 0.04914608  0.13426827 -0.15826911  0.01819829  0.05463142  0.10935083]
[-0.01727169  0.09607463 -0.12831661  0.03907673  0.09052283  0.12400823]
[-0.18091452  0.01338369  0.01807605  0.00145888  0.20693547  0.03715852]
[ 0.00964026 -0.02732389  0.10128009  0.04563083  0.12457703  0.0695477 ]
[ 0.12139951 -0.10582215 -0.13072272 -0.063558   -0.11303353  0.01606417]
[ 0.11242596  0.09482331  0.02693948 -0.02896081 -0.11240294 -0.00028371]
[ 0.06975669  0.12516059 -0.03556076 -0.00674647 -0.03658359  0.02459861]
[-0.03782215  0.07890704 -0.08049489  0.04167295  0.05453463 -0.03227681]
[ 0.05784017  0.02466398 -0.05276661  0.09331857  0.02016818  0.11176259]
[ 0.02669735 -0.07110402 -0.20107336  0.09654868 -0.05831446  0.06702751]
[ 0.10534883 -0.05491731 -0.25163177  0.19079569 -0.10688312  0.08535626]
[-0.01176516 -0.08558156 -0.13727494  0.2148952  -0.06082112  0.15256068]
[-0.06834507  0.12252694 -0.06582424 -0.0287942   0.08256629  0.07059271]
[-0.06626336  0.06878188 -0.01688232 -0.14871083  0.07398297 -0.01944337]
[-0.07944112  0.0639235   0.06418162 -0.14445388  0.12878211  0.04827106]
[-0.0242606  -0.12064363  0.14246427 -0.04554986  0.14397469  0.10779963]
[-0.01249406 -0.180108   -0.00115454  0.01110648  0.15423165  0.07049505]
[ 0.11994309 -0.07652178 -0.07529359  0.01116663 -0.01932888  0.07258556]
[ 0.11626846  0.02403257 -0.07236692 -0.05072136 -0.06308261 -0.06866775]
[ 0.00413684 -0.00747942  0.0834332  -0.06744527 -0.05265499  0.01376297]
[ 0.05528671 -0.06634811 -0.04364628 -0.02996808  0.05622419  0.05344662]
[ 0.06409634 -0.07298268 -0.1110471  -0.03666325  0.00129248 -0.00235764]
[ 0.10370596 -0.07244684 -0.09369293  0.04245972 -0.0727459   0.05733173]
[ 0.01841968 -0.13802509 -0.13991725  0.11070959 -0.06902267  0.08636294]
[-0.03439709  0.02526828 -0.07200694 -0.01221996 -0.02400092  0.06416528]
[ 0.00583085 -0.03206684  0.04918023 -0.10917936  0.04770256  0.1175885 ]
[ 0.05151164  0.03343447  0.08258365 -0.17132589  0.07016528  0.05543572]
[ 0.02525784  0.01038817  0.09381778 -0.11382806  0.07264696  0.02693714]
[-0.05280933 -0.03649034  0.08157606 -0.08193427 -0.02560642  0.0011796 ]
[ 0.11805441 -0.10097383 -0.06354856 -0.06362496  0.02526702  0.09971408]
[ 0.04881953 -0.0532865  -0.05781603 -0.09405996 -0.1154187   0.21826987]
[ 0.11982106 -0.01631707  0.05156925 -0.09359707 -0.12883985 -0.07972424]
[ 0.03985013  0.01058996 -0.02188265 -0.03982668  0.01578114 -0.05591253]
[ 0.05796634  0.02942924 -0.04758307  0.00799805 -0.06395949 -0.05177056]
[ 0.06045709 -0.19296071 -0.01937772 -0.08528224 -0.07989234 -0.03518865]
[-0.01359233 -0.02270932  0.07472315 -0.11442674 -0.04576044  0.03759515]
[-0.05470981  0.00348603  0.02879381  0.00204178 -0.06009617  0.00464825]
[ 0.0253705   0.02322377  0.00526537 -0.05753769 -0.02798058 -0.022491  ]
[ 0.08776583  0.02456229  0.11793473 -0.15389258 -0.00648696  0.01005686]
[-0.00429988 -0.08017047  0.13133009 -0.04094921  0.04432171 -0.00808312]
[ 0.04809328 -0.14448209  0.07345285 -0.0400428   0.02239215 -0.06598507]
[ 0.09359933 -0.18436918  0.03452402 -0.01027115 -0.02297065  0.04280223]
[ 0.07885841  0.02797621 -0.07378331 -0.02386712 -0.02424212  0.16061215]
[ 0.10966185  0.02837312  0.01326095 -0.08402319 -0.10084277  0.09128011]
[ 0.11232103  0.01934574  0.04862693  0.02161418  0.04894185  0.06491926]
[ 0.10885459  0.08355983 -0.01881193 -0.05466624 -0.09973222 -0.0293478 ]
[ 0.01388095  0.04031352  0.03454342 -0.01293467 -0.01596044 -0.03051186]
[-0.08056504 -0.00939843  0.03101758 -0.00886426 -0.05996799 -0.08150461]
[-0.08500765 -0.04261317  0.05468375  0.04728834  0.01155152 -0.11910445]
[ 0.03272919  0.03005255  0.07391658 -0.03368803  0.02903748 -0.03877682]
[ 0.02381721 -0.09002788  0.03418166  0.0486744  -0.03048681 -0.11215579]
[ 0.02542029 -0.09989868  0.10386211  0.00923157 -0.02829454 -0.03595576]
[ 0.01358254 -0.08424252 -0.00598836 -0.01813229  0.03608903 -0.12141063]
[-0.03759475 -0.09173194 -0.01224901 -0.06688096  0.05739037 -0.06199011]
[-0.03651335 -0.1157304  -0.06539296  0.07196483 -0.03426734  0.05074591]
[ 0.08446189  0.06852041 -0.09900641 -0.03603592  0.01344426 -0.02001983]
[-0.05632322  0.08322102 -0.06711591 -0.04971492 -0.03649251  0.0913985 ]
[ 0.07963613 -0.06126499  0.08159325  0.05273952 -0.05617658 -0.04524953]
[-0.06832871  0.01433648 -0.00267399  0.04488697 -0.03519034  0.04826348]
[-0.03262497  0.08488436  0.03552511  0.0288365  -0.054795    0.02256525]
[-0.03824224  0.14184809 -0.04013401 -0.06139373 -0.11597252  0.05593781]
[-0.04674779  0.08777188 -0.01977863 -0.0021132   0.01157809  0.07208138]
[-0.05051696  0.03564191 -0.02781031 -0.07570332 -0.15774381  0.12008317]
[-0.05334521  0.02791173 -0.05207037 -0.0429204  -0.09847244  0.02576284]
[-0.02751184  0.079355   -0.04223653 -0.06507337 -0.16305374  0.02644685]
[-0.16780855 -0.03979589 -0.19105019  0.11110349 -0.1085414  -0.09025914]
[-0.14641146  0.07427374 -0.0540256   0.1110981  -0.04494326 -0.15209354]
[ 0.03273252 -0.07055014  0.05063576  0.14792606 -0.02454037  0.03376801]
[ 0.03490776 -0.08041095 -0.07902486  0.05246734  0.05245036 -0.08964081]
[ 0.03407072  0.0335288  -0.02650118  0.07458878 -0.07156639  0.04325197]
[ 0.05006549 -0.08049529  0.04605721  0.03228334  0.04100606  0.0090061 ]
[ 0.06192835 -0.0049635   0.06039107 -0.08620235  0.08512131  0.07387359]
[-0.00119548  0.08020067 -0.09574659 -0.01886826 -0.07655136 -0.00950652]
[-0.03203944  0.04662323  0.02800906  0.0516676  -0.00645881 -0.03853433]
[ 0.03867535  0.02214875 -0.04920422  0.06171663 -0.08119219  0.02652402]
[ 0.03591897 -0.00156956 -0.00392403  0.07656772  0.02103316  0.03505729]
[-0.06969211 -0.03246548  0.0087202   0.09249419  0.13194335 -0.04694847]
[ 0.01893711  0.05091918  0.10210609 -0.09272448 -0.01436136  0.03400533]
[ 0.00025739 -0.10366797  0.11789881 -0.08316544 -0.00091024 -0.03425648]
[ 0.05600483 -0.09819656 -0.01744673 -0.0796811   0.04827495 -0.07256432]
[-0.04960554  0.00749952 -0.03324721 -0.0248087  -0.01024389 -0.06613217]
[ 0.06688318  0.04559769  0.07697701 -0.07373624 -0.08101393  0.02781039]
[-0.00975166 -0.04289698 -0.06440037  0.02506334 -0.03059549  0.03143102]
[-0.06886514 -0.06022412 -0.08298173 -0.03409215 -0.04554255 -0.01378057]
[ -1.43332093e-03  -1.54733574e-02  -4.67375629e-02  -4.22840677e-02
   5.22346891e-05   6.10160381e-02]
[-0.03572112 -0.01320516  0.07478161  0.01089802  0.00544087  0.00756986]
[ 0.11481076 -0.06203853 -0.10848112 -0.00796904 -0.13716586  0.10118893]
[ 0.11575115  0.02888784 -0.08415876 -0.03247009  0.04155101 -0.02574327]
[ 0.10088645  0.06660187  0.04621758  0.07078471  0.0195591   0.080917  ]
[ 0.03903244 -0.01383121 -0.07558921  0.13619913  0.04219701  0.08772717]
[ 0.11832964 -0.08199655 -0.04943421 -0.0272662   0.06101372  0.00545203]
[ 0.04300508 -0.03647245 -0.01107177 -0.00240042  0.09307219 -0.07287195]
[-0.0147334  -0.01622116 -0.07389275  0.08866362 -0.04438559 -0.02132502]
[-0.07795662  0.007262    0.08429653 -0.02201573 -0.01028067 -0.01356862]
[ 0.0347852   0.01712492 -0.03894997  0.02195383 -0.06694154  0.03635687]
[ 0.06303835 -0.01971465 -0.01331349  0.05159109  0.05680534  0.01954892]
[-0.02082348 -0.07830887 -0.08051787 -0.01245538 -0.05701153 -0.01423705]
[ 0.02224923  0.13782206 -0.03785301 -0.07442687  0.0532431  -0.0032836 ]
[ 0.11277977  0.09922485  0.01660282  0.00430478 -0.08428068 -0.04993832]
[ 0.15192735  0.12332188 -0.09946475  0.03601633 -0.01449113 -0.04389324]
[ 0.3220723   0.11641181 -0.12184048 -0.04184189 -0.07063321  0.06867388]
[ 0.29583374  0.08504288 -0.0994575  -0.16263054 -0.10742678  0.13356048]
[ 0.28420722  0.0336533  -0.04234288 -0.08408157 -0.21108617  0.03818533]
[ 0.0092985  -0.01136555 -0.0747394  -0.1010404  -0.11084998  0.06619462]
[ 0.05617963 -0.01622959 -0.04546983 -0.12161642 -0.12721835  0.00140786]
[ 0.03073685 -0.07945168 -0.01073616 -0.0345342   0.01387422  0.04175278]
[-0.13009803 -0.09056669  0.07501311  0.00211292  0.02096592  0.0477925 ]
[-0.13156539  0.01632846 -0.04364867 -0.10213838  0.02789081  0.00366116]
[-0.02464248  0.02508955 -0.02864143 -0.08902591 -0.02943135  0.04175447]
[ 0.04740538  0.0219145  -0.05728284 -0.00808706  0.01606484  0.0036928 ]
[ 0.12021279  0.01008521 -0.05589168 -0.04787837  0.02067189  0.00708041]
[ 0.08462874  0.09156584  0.00264499 -0.12828758 -0.07763366  0.12899233]
[ 0.140972    0.16791679  0.01900152 -0.09029371 -0.12219688  0.09600137]
[ 0.1191675   0.21554212 -0.03215974 -0.18274997 -0.17747271  0.17984666]
[ 0.15155624  0.13055345  0.02035921 -0.21752526 -0.18577078  0.0446723 ]
[ 0.03301318  0.08710261 -0.01189473 -0.24901655 -0.15690009  0.0787895 ]
[ 0.02193638  0.05735307  0.00750707 -0.13634996 -0.2128367   0.03397307]
[-0.0364825  -0.08938611  0.03886231 -0.1207114  -0.13474347  0.06100639]
[-0.08182075 -0.09452967  0.12276297 -0.12899512 -0.14618929  0.03731139]
[-0.24273218 -0.10657138  0.21837045 -0.15825786 -0.10076495 -0.01419764]
[-0.18922353 -0.0918201   0.20928502 -0.14698833 -0.17290547  0.03631472]
[ 0.02005025  0.00444711  0.06979664 -0.13587248 -0.006979    0.00768975]
[-0.08805562  0.0488386  -0.06199075 -0.06164502 -0.02209033 -0.04250029]
[-0.00400403  0.13294567 -0.00398564 -0.02238776  0.03363664  0.04979201]
[ 0.05534694  0.10200416 -0.02586999 -0.15246397 -0.11514248  0.11980092]
[ 0.05229544  0.12546887  0.04349351 -0.2457657  -0.23976168  0.0762005 ]
[ 0.08727793  0.22739024 -0.01662935 -0.33336443 -0.14606349  0.10895772]
[ 0.04998178  0.11745082 -0.01453369 -0.22395897 -0.19117531  0.05745086]
[ 0.00620158  0.06056585  0.03074653 -0.15039147 -0.24216926  0.02120912]
[-0.09401353  0.01254159  0.06476237 -0.14651491 -0.13802472  0.00104012]
[-0.07084043 -0.11949042  0.07474572 -0.08381251 -0.13980138 -0.05718273]
[-0.04149836 -0.23190884  0.13844633 -0.10467756 -0.06636672 -0.12287152]
[-0.06801904 -0.18812883  0.15133171 -0.14179346 -0.09250522 -0.05340347]
[-0.07410442 -0.21911727  0.26115465 -0.1297925  -0.11045864  0.04971024]
[ 0.03025908 -0.01357817  0.05824499 -0.14141385 -0.05487625 -0.07391079]
[ 0.02717489  0.17207322 -0.04427317 -0.04401574  0.06789558 -0.01709095]
[ 0.05326956  0.11306198 -0.03262508 -0.0668637  -0.06650405 -0.00933101]
[ 0.11030649  0.14727105  0.00312682 -0.05244371 -0.11883071  0.04933167]
[ 0.07264192  0.04261275 -0.04083117 -0.2178998  -0.19257115  0.20039356]
[ 0.08663546  0.14854079 -0.14851539 -0.17007668 -0.30333716  0.0977818 ]
[ 0.06520832  0.14463134 -0.09695052 -0.24684437 -0.18947649  0.13822189]
[-0.07981803  0.12767725  0.01487718 -0.26245984 -0.20711944  0.11594794]
[-0.10588345  0.03166313  0.10615548 -0.20331959 -0.0983282   0.12831508]
[-0.13372964  0.00769313  0.07848538 -0.18905459 -0.12657908  0.01487369]
[-0.1286073  -0.13084231  0.16026846 -0.11263983  0.06131077 -0.07987215]
[ 0.03817128 -0.14553966  0.15154077 -0.12130883 -0.01295275 -0.2011454 ]
[-0.03183083 -0.07282424  0.14121462 -0.02214367 -0.08758231 -0.0523533 ]
[ 0.02126093 -0.0750846   0.07139183 -0.13135442 -0.19108389 -0.02399406]
[-0.03929908  0.13638118  0.00575895 -0.04675706 -0.09187867  0.06450566]
[-0.01160946  0.08990017 -0.15399282 -0.00374321  0.07077733 -0.01686949]
[ 0.04353916  0.09583494 -0.18164161  0.0166006  -0.00591394  0.1175028 ]
[-0.00113004 -0.03938834 -0.07478625 -0.13091312 -0.19672465  0.12816364]
[-0.01188717  0.04511773 -0.18482456 -0.06286249 -0.14023846 -0.04799148]
[ 0.03988126 -0.00857725  0.04411368 -0.13827769 -0.15463828 -0.16288859]
[-0.03542931  0.06456599  0.06380853 -0.01313149 -0.14253625 -0.1259516 ]
[-0.01371809  0.09239528  0.01138076 -0.03697461 -0.1152674  -0.12488415]
[ 0.05676277 -0.03182834 -0.0278192  -0.15734422 -0.08576693  0.00118617]
[ 0.12522204 -0.09271244  0.04927534  0.00337887  0.03929238 -0.05192025]
[ 0.06726342 -0.09923418 -0.04837959  0.14342196  0.00439996 -0.05363003]
[ 0.00696324 -0.14704682 -0.11769139 -0.02859052 -0.1066064  -0.02754027]
[-0.02211647 -0.0126379  -0.05744834 -0.01933465 -0.12032188 -0.07404776]
[-0.06984996  0.05194351  0.05905524  0.06245158  0.05736964 -0.04354722]
[-0.03785741  0.12598592 -0.00983699  0.02246005  0.03676201 -0.04545631]
[ 0.0033614   0.01332236 -0.05467469  0.00348211 -0.10030708 -0.02061646]
[-0.02263108 -0.03040261 -0.04878097  0.09517814 -0.04765286 -0.01773802]
[ 0.04823032  0.09984517  0.01014155  0.03679813 -0.01966798 -0.10862871]
[ 0.0605155   0.07779317  0.08228628 -0.01810857 -0.04805574 -0.16465324]
[ 0.04395276  0.07790998  0.01811626  0.14229938 -0.0644535  -0.15781479]
[ 0.05810742  0.14743482  0.10400747  0.06627482 -0.09293183 -0.01801515]
[ 0.07668523  0.16758442  0.09714363 -0.10225523 -0.00372964  0.00961557]
[-0.06646802 -0.04419594 -0.03772647 -0.17541082 -0.02748541 -0.02484583]
[-0.11017523 -0.09699329  0.04197322  0.01414713  0.08356658 -0.03243427]
[ 0.06141518  0.01284694 -0.02932012 -0.05786059  0.08862454  0.09359786]
[ 0.0848849   0.01883875 -0.08506188 -0.07180932 -0.05000276 -0.01871526]
[-0.00549171  0.00677594  0.0700682   0.06844167 -0.0195821   0.03946267]
[ 0.0049924  -0.01762477 -0.13477653  0.09143735 -0.03060856 -0.03523865]
[-0.02139382  0.07614353 -0.04459985  0.12472416 -0.00187518 -0.25893399]
[-0.05868654  0.05052149 -0.08368599  0.14902101 -0.02619168 -0.08599156]
[ 0.03293317  0.06828719  0.0061735  -0.0084611  -0.01431284 -0.14922349]
[-0.0053678   0.08940221 -0.04741491  0.04258963 -0.01465866 -0.10615891]
[ 0.09882333 -0.00972914 -0.00256307  0.09546436 -0.02651508 -0.07077049]
[ 0.16066217  0.00336996  0.05313046  0.04283081 -0.04456722 -0.05033274]
[-0.00113939  0.05158314  0.0305816  -0.0273097   0.03332505 -0.01825088]
[ 0.01543988 -0.03772413 -0.02767124 -0.00152208  0.10545536  0.0442301 ]
[ 0.00402318  0.03047404 -0.08035997  0.00941668  0.04681556  0.06876475]
[ 0.091413   -0.05061705 -0.11045571 -0.0174163   0.01684435  0.07254142]
[ 0.13552167 -0.08967388 -0.10283083 -0.05108039 -0.02436182  0.17451563]
[ 0.11685988  0.06489576  0.00654497 -0.06357066 -0.12276708  0.03124912]
[ 0.08619024  0.08374201 -0.02384281 -0.05021121  0.03501547 -0.1284913 ]
[-0.09267025  0.10908689 -0.03604006  0.01208379 -0.03373379 -0.15271193]
[-0.00510299  0.09970702 -0.04091848  0.04619949 -0.04009292 -0.10124575]
[ 0.03272597  0.05099837  0.02398403 -0.05329969 -0.03523081 -0.112424  ]
[-0.03733236  0.1009256   0.02195238  0.05566061 -0.07071681 -0.07477516]
[ 0.0536947   0.01495543 -0.02146775  0.03886347 -0.08929313 -0.07215481]
[ 0.14677228  0.01793497 -0.07867651  0.00618796  0.03282914  0.05465524]
[ 0.12826648 -0.05930902  0.05419572 -0.03830597  0.03027898  0.03027137]
[ 0.04007033 -0.16207208 -0.02702492 -0.08294725  0.04139486  0.10737712]
[ 0.03459694 -0.18701422 -0.02064214  0.00607242 -0.06344269  0.15613836]
[ 0.13743921 -0.11907198 -0.07588972 -0.00995027  0.05031756  0.18475163]
[ 0.11863784 -0.00437394 -0.11243895 -0.07374567 -0.12930186  0.13083412]
[ 0.07819156  0.09968337  0.0911748  -0.08595996  0.01778227 -0.08872766]
[ 0.06912091  0.0675811   0.01925554 -0.13040787  0.03081369 -0.06646524]
[ 0.03103855 -0.07290904  0.12480985 -0.09631603 -0.05283286  0.02895709]
[ 0.04172868 -0.05328162  0.10145402 -0.21875888 -0.05997675 -0.03403965]
[ 0.08851836 -0.20453133  0.0668856  -0.21255147 -0.03071476  0.02581282]
[ 0.07500973 -0.09951177  0.09690914 -0.12269255  0.03694106  0.06133483]
[ 0.16202062 -0.1259253   0.14563362 -0.19367133  0.08979005  0.09343152]
[ 0.1382284  -0.10687243  0.10781743 -0.23649454  0.09003966  0.07159705]
[ 0.14658433 -0.19023263  0.04574172 -0.16742218  0.0428265   0.09138188]
[ 0.07086767 -0.14813702 -0.05883018 -0.1449496  -0.07738439  0.07645441]
[ 0.06854317 -0.14026965 -0.05192324 -0.11116373 -0.01636767  0.12780337]
[ 0.18519817  0.00752184 -0.02505682 -0.00289721 -0.1041001   0.18429978]
[ 0.19988056 -0.01351207 -0.08462656 -0.01557405 -0.03386484  0.09747903]
[ 0.11345776  0.07989551  0.04567721 -0.07142362 -0.04041269  0.09125737]
[ 0.073313    0.04932916  0.02988802 -0.06100751  0.03405285 -0.02391343]
[ 0.11166056 -0.00864162  0.04562244 -0.05734068 -0.04439293 -0.00268   ]
[ 0.01613094 -0.01023045  0.05177581 -0.00305063 -0.04229403 -0.0689228 ]
[ 0.03244134 -0.02523305  0.0413913   0.03455146  0.02116541 -0.07291165]
[ 0.0281896  -0.10766716  0.04006085 -0.06594019  0.01535179 -0.043102  ]
[ 0.03504893 -0.08429967  0.12442415  0.01720705  0.03623581 -0.04401928]
[ 0.01988853 -0.05961479  0.07359977  0.03341105  0.04780984 -0.02872455]
[-0.04279357 -0.08208198 -0.05007527  0.06070126  0.03775297  0.02365833]
[ 0.01853528 -0.06215935 -0.00971905 -0.10336667 -0.0228218   0.06084098]
[ 0.02823072 -0.06866955 -0.08532495 -0.02781853 -0.04112767  0.13360886]
[ 0.13509335 -0.07623903 -0.17324547  0.06884523  0.00393434  0.13975075]
[ 0.10798964 -0.02037364 -0.05793542  0.08809965 -0.03458307  0.05705174]
[ 0.00785739  0.08009171 -0.07093255  0.00714395  0.02923759 -0.04582248]
[-0.07461628  0.06740344  0.1085951   0.02768354 -0.09761049 -0.01004915]
[ 0.03275458  0.03616369  0.10677534 -0.0823682   0.07206216 -0.05394958]
[ 0.04934219  0.04971512  0.12353171  0.01935029 -0.05095647 -0.03794095]
[ 0.09501304 -0.04989181  0.07437406 -0.03740922  0.0074781  -0.08110002]
[ 0.07209051 -0.08039062  0.07769427 -0.01687119 -0.03934351 -0.1086226 ]
[ 0.07146838 -0.07717881  0.04937323 -0.00454208  0.00389708 -0.07151693]
[ 0.01171615 -0.14212401  0.05886918 -0.00749487 -0.0541191  -0.14006318]
[-0.04102269 -0.03891901  0.04989886  0.04507866 -0.00074864 -0.14573301]
[-0.02495047 -0.03879555  0.0292495   0.00030541 -0.01283699 -0.11856448]
[-0.03747293 -0.08207721  0.01706875  0.11102074  0.03817288  0.00395604]
[-0.1035988  -0.00015822  0.01564642  0.07620493 -0.01787598 -0.03491804]
[ 0.01891109  0.00880057 -0.04683602  0.03986483 -0.00929731  0.08718188]
[-0.07408915 -0.00094517 -0.07466979  0.09358579 -0.05691618  0.03766868]
[-0.00814457  0.08038001 -0.06123474  0.08337724 -0.06996386 -0.06823467]
[ 0.0828869  -0.00889669  0.05976313 -0.09509757  0.05873675 -0.06437781]
[ 0.0638321  -0.03837748  0.04888248  0.05718543 -0.0264459  -0.04038198]
[ 0.16430224 -0.08531711  0.05907843 -0.02454429 -0.12428169  0.08631138]
[ 0.01528593  0.03127543 -0.05333221  0.045608   -0.00850352  0.05766335]
[ 0.09095831  0.03308462 -0.0589867   0.07455443  0.04255171  0.13572407]
[ 0.04513589 -0.07221073 -0.05361987  0.10004541  0.07419975  0.1899768 ]
[-0.0100082  -0.06788866  0.00804856  0.08735629  0.087435    0.06328081]
[-0.16120571  0.00216701 -0.06760924  0.14944513  0.06279357  0.04291067]
[-0.03144179  0.02050043 -0.07406278 -0.00056193 -0.02876222  0.05015947]
[-0.10068222 -0.00825991  0.00824938  0.00200302  0.09959812  0.03913186]
[-0.08245595 -0.00725932 -0.0350024   0.05057879 -0.01321714 -0.08600155]
[-0.04252106 -0.03584875  0.06737138  0.03681748  0.0726593  -0.0719967 ]
[-0.05383459  0.06549416  0.06961541 -0.0394782   0.07816549 -0.11495272]
[ 0.07984575 -0.0392509  -0.08707816 -0.0372467   0.04048903  0.07545438]
[ 0.0334329   0.08925053  0.05785283  0.01702292 -0.01992361 -0.05041702]
[ 0.01768471 -0.00581375  0.07579613  0.09310913 -0.01627579 -0.01992715]
[ 0.08227468 -0.00986989  0.00031174  0.02057725 -0.06798647  0.00725481]
[ 0.13294032 -0.04563723 -0.00787198  0.0878963   0.03993328  0.04310846]
[-0.01421752 -0.03247217  0.12096704  0.18129857  0.1699263  -0.08830822]
[-0.07301936 -0.16932398  0.00150066  0.16150454  0.15917248 -0.0973848 ]
[-0.13743587 -0.12396919 -0.05723793  0.10778438  0.17656088 -0.1574907 ]
[ 0.0389891  -0.08392996 -0.09751546  0.03256521  0.15815058 -0.18784785]
[-0.05211144  0.01896743  0.08044955 -0.04456888  0.15076421 -0.03860487]
[-0.00702341  0.06446877  0.01073696 -0.05425713  0.0291262  -0.04698547]
[-0.06170438 -0.00590128 -0.04196737  0.00915313 -0.04899695  0.08193773]
[ 0.06233024  0.03097511 -0.07066911 -0.09806088 -0.03843983  0.07860212]
[-0.0616104  -0.03879796 -0.0173141  -0.0898101   0.05976563 -0.00827066]
[-0.11601137  0.03723199 -0.03830189  0.03056191  0.0270802   0.12132185]
[ 0.0392231  -0.03811121  0.00639089  0.03650127 -0.05907027  0.04337654]
[ 0.00882589 -0.00960524 -0.0031229   0.03713771 -0.10215981 -0.07669339]
[-0.07644565  0.00705589 -0.06315376  0.09235069 -0.01724215  0.00567419]
[-0.14853311  0.01369    -0.05494113  0.13888967 -0.07872416 -0.01555528]
[-0.22137424  0.16608901 -0.00082898  0.11325753  0.01446148 -0.07864421]
[-0.07071378  0.19223274 -0.04337526 -0.06195283  0.02240824  0.03358965]
[-0.09542388  0.13022317  0.01009877 -0.00340411  0.08806271  0.04765279]
[-0.05487285 -0.05917155 -0.0291676  -0.0987445  -0.0290589   0.0337774 ]
[-0.07653699 -0.10691483 -0.05429232 -0.0299362  -0.0293838  -0.0387833 ]
[ 0.01651495 -0.0411044  -0.03674679 -0.10342599 -0.01190756 -0.08322022]
[ 0.02648868 -0.02681147  0.03250346 -0.08916657 -0.03610602  0.02936093]
[-0.03331983 -0.11934848  0.02827537 -0.01195931  0.04325229 -0.04740006]
[-0.02201008  0.08450197  0.00175933 -0.13828875  0.08098367  0.13461098]
[-0.03371957  0.10331919 -0.05253704 -0.09140549 -0.07893755 -0.00878482]
[ 0.06309261  0.11817613 -0.0357659  -0.04103785 -0.02004793  0.01187422]
[ 0.06645757  0.06593585 -0.0673183   0.07835449 -0.13533868  0.04019732]
[ 0.01111556  0.03140538 -0.02680543  0.01852961 -0.15080284 -0.02371677]
[ 0.02802127 -0.03296419  0.0085252   0.01137387 -0.03899691 -0.04795525]
[ 0.06929243  0.01032729 -0.12893118  0.04401587 -0.0490192   0.08080272]
[-0.1464041  -0.13916779 -0.0655937  -0.05986358 -0.11267103  0.04649527]
[-0.19869883 -0.13379063 -0.02085569 -0.03108441 -0.00607947 -0.02663366]
[-0.00860202  0.01364785  0.00733772 -0.07810397  0.00115791 -0.04785688]
[ 0.06711596  0.06293192 -0.03499987  0.03343391 -0.09095877  0.03323377]
[-0.0907256   0.04745815 -0.01199086 -0.01420299  0.06580127  0.01170517]
[-0.08184236  0.04927692  0.0269155  -0.02113065  0.01989916 -0.06092704]
[-0.0230317   0.11036998 -0.03778571 -0.08975481  0.0202784   0.11012019]
[ 0.01018138  0.11689059  0.02322678 -0.11972518  0.00879765  0.03218644]
[ 0.08409847  0.00097619 -0.03765646 -0.17545113 -0.01343402  0.01407231]
[-0.05584757 -0.08222844 -0.0298354   0.08397533 -0.21574178  0.03361724]
[-0.05083903  0.00267463 -0.04396036 -0.0566898  -0.10489113 -0.03184352]
[-0.02787592 -0.03296262  0.00873173  0.12030269  0.05053242 -0.014633  ]
[-0.02817417 -0.16673484  0.02440817  0.08230893 -0.01624169  0.03037586]
[-0.02553349 -0.12290632  0.14721893 -0.04603233 -0.02068252 -0.03079698]
[-0.08811937 -0.1235624   0.26773217 -0.16405232 -0.09970567 -0.07760692]
[-0.06226093 -0.02594835  0.1188996   0.02829027 -0.0253951  -0.05802441]
[-0.05205755  0.09413175  0.02492682 -0.02918571 -0.01830208 -0.0483322 ]
[-0.09377979 -0.01820512 -0.00796354  0.00789171 -0.02881793 -0.11972427]
[-0.05860416  0.03523142 -0.05164337 -0.02083713  0.12292413 -0.05272882]
[-0.09941591  0.07721774  0.08297601 -0.05110683  0.02461226 -0.00632149]
[ 0.0190771   0.07389857  0.02810025 -0.06736443  0.02476995  0.05355367]
[ 0.03041994  0.10080343 -0.01361852 -0.02068432 -0.15462707 -0.01864807]
[-0.14804399  0.03108845 -0.15238319  0.12609066 -0.20305036 -0.0175746 ]
[-0.12606096  0.14021213 -0.09178475 -0.23091651  0.03282707  0.14340454]
[-0.19564264  0.05439462 -0.03580071  0.04733168  0.12443288 -0.02876663]
[-0.1776495  -0.13981089  0.0998762  -0.04562385  0.12486523 -0.07858382]
[-0.04647508 -0.18960856  0.28395897 -0.10437397  0.12521791 -0.15537427]
[-0.0919257  -0.09931791  0.18241188 -0.04166905 -0.1630042  -0.05002965]
[-0.06527821 -0.01327215  0.08968911 -0.04220277 -0.18875487 -0.06523882]
[ 0.07533771  0.10325627  0.01728042  0.02074029 -0.11639428 -0.09428561]
[-0.11439925  0.09044494  0.02902171 -0.07520753  0.02486214 -0.06676768]
[-0.03712126  0.05173478 -0.01479335  0.07519703  0.12020748  0.03202619]
[ 0.01022495 -0.01050757 -0.08905918 -0.07963113  0.0533592   0.11141094]
[ 0.01511996 -0.00708729 -0.09014513 -0.11566938 -0.07049432  0.04151664]
[-0.00624129 -0.13250507 -0.05863356  0.11416568 -0.06243188 -0.08480739]
[-0.12405013 -0.02984841 -0.06662022  0.20382898 -0.24808101 -0.12368704]
[ -2.10564122e-01   3.21191579e-01  -9.62821916e-02  -1.56577840e-01
  -2.01750770e-02   1.40183954e-04]
[-0.1721537   0.01007319  0.0739718   0.01110698  0.07335818 -0.02830667]
[-0.11905963  0.03571207  0.11845528 -0.01491781  0.29121763 -0.05997351]
[-0.09887175 -0.17054509  0.19623025 -0.06193937  0.26942617 -0.07663485]
[-0.01161597 -0.07229067  0.02216181 -0.0833557   0.04479913 -0.00621788]
[-0.02679131  0.0159262  -0.10044878 -0.0520037  -0.10448302  0.04089328]
[ 0.05344976  0.10625406 -0.03671609 -0.06131339  0.02301307  0.03862225]
[-0.07420557  0.07410835 -0.09277634 -0.00770094 -0.03449626 -0.06851574]
[-0.09426757 -0.04712562 -0.03538803 -0.08683537  0.18146634 -0.0224605 ]
[-0.0603572   0.02050917 -0.07394502 -0.07671958  0.03020391 -0.01810532]
[ 0.05947386 -0.04922527  0.00954204 -0.0138156   0.04659507  0.01540849]
[ 0.08943193 -0.14916058  0.04287594  0.10229752 -0.11961314 -0.22414665]
[-0.00396777  0.00354986 -0.04991959  0.2013275  -0.10492116 -0.04385035]
[-0.02529403  0.20409632  0.05050445 -0.03824724  0.02891051 -0.0657023 ]
[-0.04028178  0.04387983  0.1747272  -0.0475264  -0.02420561 -0.06645274]
[-0.0736919  -0.02334424  0.11204717 -0.13745266  0.16472007 -0.07522861]
[-0.10125202 -0.11408773  0.17434068  0.00790025  0.30396837 -0.05859348]
[-0.04837199 -0.04188457 -0.06087624 -0.05374553 -0.03252118  0.12210629]
[-0.00106218  0.012083   -0.16708557  0.00388606 -0.16150531  0.07656483]
[ 0.04502868 -0.0403597   0.00411556  0.02721983  0.01354563  0.0454719 ]
[ 0.05460148 -0.03526968 -0.08664823 -0.08115629  0.04347564  0.03447597]
[-0.14063494 -0.0075886   0.03273344 -0.01619425  0.04559477  0.01923886]
[-0.03360524 -0.00876505 -0.08306519  0.05530494  0.01527989  0.08216822]
[-0.00215058 -0.06331436  0.0661104   0.00379843  0.03084472 -0.05334915]
[-0.02189257  0.00581006 -0.02037447  0.06985556 -0.06244105 -0.03922696]
[-0.0611192  -0.00842939 -0.02042598  0.15800703  0.00857575 -0.08771189]
[ 0.03428248  0.13727422  0.08426158 -0.05701508  0.07728001 -0.04107241]
[-0.05395892  0.15720946  0.11081316 -0.07504908  0.07671577 -0.02142818]
[-0.00457615 -0.02077687  0.11130264 -0.1176059   0.0123098  -0.15340759]
[-0.01399832 -0.00112195  0.0621133  -0.00875011  0.07454772  0.11394052]
[  4.56724390e-02  -5.24536818e-02  -4.62960899e-02   5.19887395e-02
   1.69574787e-06   7.26449639e-02]
[ 0.13273056  0.02014171 -0.06630753 -0.02571015 -0.03487736  0.0276694 ]
[ 0.14120695  0.08652817  0.05840296  0.02674012 -0.08895147  0.02433165]
[ 0.08719386 -0.08054528  0.01858142  0.01636853 -0.1035951  -0.09522682]
[-0.10949662 -0.0350925  -0.0080054   0.06398871 -0.02874853 -0.05719598]
[-0.04611331  0.01407013 -0.02371264  0.07610934  0.03125956 -0.05024228]
[ 0.01796095  0.0539863  -0.03817244 -0.00250382  0.00449726 -0.06410905]
[-0.00577109 -0.02505096 -0.07971369  0.08358387 -0.09107719 -0.03645942]
[-0.02888993  0.04433145 -0.25580481  0.15631557 -0.0786993  -0.08726414]
[ 0.09500636  0.06732728 -0.05900938  0.02703178  0.01456143 -0.00513339]
[ 0.16851987 -0.00643038  0.01578698 -0.09803338  0.04956124 -0.06938227]
[ 0.11645199 -0.08218218  0.05343834 -0.02968105  0.1194234   0.01381121]
[ 0.1507574  -0.15422212  0.02107581 -0.03739542  0.04134298  0.06852338]
[ 0.16320983 -0.06287985 -0.13649644 -0.03093429  0.00898697  0.15944012]
[ 0.1121918  -0.03720159 -0.04730649  0.02274705 -0.09054749  0.15638979]
[ 0.12137965  0.06831875  0.06044825 -0.1101023   0.01029461  0.03861061]
[ 0.08836396 -0.05371161  0.0038882  -0.09972019 -0.06657863 -0.03662433]
[-0.01612805 -0.00659416  0.04584787 -0.16002636 -0.01598404 -0.03654784]
[ 0.11547484 -0.07414845 -0.02207823 -0.08748855 -0.07687928 -0.01191434]
[ 0.14653736 -0.11945365  0.03852249 -0.15590854  0.0835551   0.14198013]
[ 0.01532505 -0.17083234  0.10243285  0.02597491  0.00335484  0.10368551]
[-0.01963471 -0.14070554  0.04615641  0.09671436  0.03284311  0.08637366]
[ 0.02176992 -0.12504287  0.06093105  0.01570417  0.10433768  0.05805828]
[ 0.10145767 -0.07050395  0.04519602 -0.11362074  0.02980077  0.06598816]
[ 0.13113652 -0.19075954 -0.08390978 -0.07239112 -0.02507035  0.05929441]
[ 0.13240787 -0.03321109 -0.12721705 -0.08523173 -0.05903931  0.02611305]
[ 0.08584275 -0.15060079 -0.22578378  0.03182516 -0.0604327   0.10686885]
[ 0.02545971 -0.01502724 -0.09884563 -0.00942159 -0.04822973  0.11377416]
[ 0.10345069  0.0879292  -0.04231568  0.01745014 -0.03752762  0.04063676]
[ 0.17747952 -0.01814333 -0.08284266 -0.02761181 -0.11535174  0.09332184]
[ 0.07901312  0.07632679  0.06474034 -0.10709858 -0.11078676  0.05049581]
[ 0.01561893  0.05577433  0.04659928 -0.05066039 -0.05832003 -0.06244171]
[-0.00237616 -0.08110414  0.04481178 -0.01848754  0.0020629  -0.03938082]
[-0.01093149 -0.05155426  0.10489495 -0.02522927  0.07942142 -0.04267019]
[-0.07021941 -0.02367085  0.05975499  0.11213144  0.13465612  0.0625693 ]
[-0.01968764 -0.01595845  0.0086323   0.11440541  0.08005223  0.03620204]
[ 0.02364132  0.03209368 -0.00422589  0.15757114  0.02090158 -0.08902491]
[ 0.09091186 -0.05839492 -0.07294104  0.03415732  0.02000222  0.00878131]
[ 0.07345141 -0.1277196  -0.02122604 -0.08319876 -0.10782441  0.00988339]
[ 0.02273024  0.08883785 -0.14096265 -0.05977626  0.01289509  0.05888338]
[-0.03523944 -0.00945784  0.03467749  0.02165188 -0.03640873 -0.01413644]
[-0.07040436  0.05169097  0.05382577  0.04325993 -0.05973427  0.0315528 ]
[ 0.05248213 -0.01720478 -0.00799966  0.04406171 -0.03259698  0.06569213]
[ 0.01988848  0.14701079  0.04154459 -0.00796277 -0.00847264 -0.02019618]
[-0.00451461  0.00469777  0.04827894  0.03373354  0.03293122 -0.11490105]
[-0.01975787  0.02208439  0.13881654 -0.01852707  0.01400494 -0.06662749]
[-0.06823381 -0.10130255  0.14513123  0.09342862  0.01109179 -0.12367685]
[ 0.02768227 -0.03523723  0.08027203  0.12505849 -0.02836117 -0.10729001]
[-0.08632804 -0.02856329 -0.04445611  0.14145494 -0.03690575 -0.20538571]
[-0.1004613  -0.02164704 -0.03461236  0.15904184 -0.02020233 -0.04088942]
[-0.06672345 -0.05141395 -0.06073757  0.12125975  0.01556728 -0.15343417]
[-0.06432334 -0.05734117 -0.07137591 -0.00052239 -0.02049791 -0.14589258]
[ 0.00161186  0.04204185  0.05407988 -0.04061563  0.02721244 -0.0286028 ]
[-0.0327541  -0.01805236 -0.04149726 -0.02275093  0.08578806 -0.01215769]
[-0.06634386 -0.04398621 -0.07305086 -0.03509119 -0.00089768  0.05371193]
[ 0.06198693 -0.01242844 -0.04858874  0.04998484  0.07279274  0.07359523]
[ 0.02156461 -0.10468716 -0.11569817  0.07511574  0.01153465  0.08820486]
[ 0.08379905 -0.04045843 -0.10032415  0.04660629 -0.10767125  0.14994466]
[ 0.13464341 -0.1429175  -0.06666534 -0.12888871 -0.03145093  0.10185131]
[ 0.08191528 -0.05516037 -0.03473116 -0.01238697 -0.12634698  0.16388917]
[ 0.07019234 -0.12718588  0.04627999  0.03315634 -0.07644159  0.15362942]
[ 0.10717947 -0.09671889 -0.038469   -0.11854087 -0.02073129  0.17603593]
[ 0.05408206  0.01362484  0.01840685 -0.10856537  0.08374581  0.21151517]
[ 0.0074736  -0.07999141 -0.01039426  0.01073664  0.12372136  0.21833359]
[ 0.02130474 -0.06735978  0.0760182  -0.08485246  0.12624595  0.1184261 ]
[-0.1191982  -0.05564767 -0.0527864   0.04526226 -0.05095116 -0.02521283]
[-0.08788718  0.07846992  0.03109564  0.02343639  0.06145772 -0.08023233]
[ 0.04924842  0.07074375  0.08570596 -0.01582322  0.01091298 -0.06245575]
[ 0.11394366  0.11710403  0.06013376  0.02996057  0.06281029 -0.05918205]
[ 0.13468528  0.06432029  0.03776801 -0.02962794 -0.0011488   0.03914614]
[ 0.01878414 -0.10200384 -0.05285468 -0.01813709  0.04750599  0.1209824 ]
[ 0.09689046 -0.01233587 -0.05263605 -0.08006117  0.05694378  0.07592487]
[ 0.04358866 -0.10926893 -0.05070833  0.08109658  0.03756109  0.04674378]
[ 0.06459074 -0.04266697  0.06476459  0.11577211  0.04591698  0.02999912]
[ 0.06987265 -0.11245257  0.05005455  0.08930568  0.04165225 -0.05273286]
[ 0.11216394 -0.11730205 -0.02031083  0.0859732   0.07835171  0.00107998]
[ 0.01512974 -0.03109357 -0.03342256  0.04610241  0.04462927 -0.08121206]
[-0.05372974 -0.13071419  0.01981623  0.15923066  0.04526417  0.01957162]
[-0.12312385 -0.05215674 -0.0603212   0.20282727  0.04281571 -0.09071758]
[-0.05121608  0.06246586  0.09364469 -0.01768703  0.00243907 -0.04725239]
[-0.01821952  0.03523991  0.04373287  0.05796858 -0.09307282 -0.04934305]
[-0.09443231  0.04040791 -0.05874766  0.00358264  0.07332873  0.00958477]
[-0.00246412  0.1206987  -0.03644212 -0.14824578  0.04681021 -0.02665394]
[-0.01066411  0.140191    0.0079065  -0.0458329  -0.02925599  0.0135547 ]
[-0.10150868  0.06661195  0.00296581 -0.04868474 -0.00469769  0.0280601 ]
[ 0.00374846 -0.03148676  0.03551656  0.05187528  0.00704537  0.00270153]
[-0.03336669 -0.0769768  -0.03518585  0.02794906 -0.00559904  0.01500144]
[-0.0491493  -0.02240164 -0.03950983  0.13134694 -0.05800413 -0.05648196]
[ 0.00457084 -0.0099993  -0.06909437  0.06582922 -0.00384701 -0.06046613]
[-0.05160487  0.0734736  -0.06035444  0.01382405  0.05641067 -0.07055502]
[-0.08561447  0.07995424 -0.06280247  0.09930588  0.08303656 -0.03694687]
[-0.00459216 -0.08557428  0.06457074 -0.0159035   0.00572491  0.04619107]
[ 0.00311596 -0.07946586  0.09670959  0.01689563 -0.00710943  0.01726783]
[ 0.02096409  0.11501487 -0.01772651 -0.06463818 -0.05649388 -0.07157628]
[-0.10156418 -0.01988602 -0.00464986 -0.05556133 -0.07082009 -0.06589748]
[-0.01226252  0.08774556  0.0298134   0.02728136  0.10845244  0.00773653]
[-0.1332884   0.01049375 -0.00167274  0.00507973  0.09965631  0.00339452]
[-0.1577902   0.09495465 -0.04779107 -0.02106321  0.08381058  0.02744917]
[-0.06082539  0.02093999 -0.01026295  0.00528408  0.09624523 -0.02470643]
[-0.13651089  0.01321791 -0.01025972  0.01328071  0.00026369  0.02672637]
[-0.12148988  0.03677519 -0.05809674  0.1242042  -0.02901783 -0.04418611]
[-0.04871955  0.14906886 -0.04901075  0.05472701  0.00880655 -0.08257781]
[-0.00937567  0.07605831 -0.12446373  0.058221   -0.00213112 -0.0420351 ]
[-0.02413898 -0.01734243 -0.09340264  0.05568026  0.04291417  0.01641327]
[-0.13952048 -0.06739525 -0.02752395 -0.07353451  0.06142458 -0.05562699]
[-0.09638334 -0.02907564  0.05141082 -0.06997777 -0.063559    0.00102121]
[-0.00440416  0.03589435 -0.0864315   0.05100676 -0.09212373 -0.01738349]
[-0.0742847   0.05306776  0.06846628 -0.01148404  0.05897869 -0.00701751]
[-0.19059192 -0.05758273  0.06789184 -0.09674984  0.08221041 -0.12949523]
[-0.2149969   0.01672729  0.00733873  0.0970943   0.06110539 -0.0367119 ]
[-0.12627956  0.03940392  0.12699121 -0.02280651  0.19010048 -0.02709371]
[-0.09354709  0.03163357  0.11785379  0.04501772  0.11676368 -0.14046448]
[-0.07296762  0.01300699  0.08860414  0.15506847  0.05875222 -0.15649134]
[-0.08143824  0.04881031 -0.09765043  0.26248148  0.0066972  -0.10965014]
[-0.02901555  0.21956164 -0.19320843  0.09483346  0.06615347 -0.01163692]
[ 0.00519312  0.02843904 -0.13220724  0.01521908  0.04584883 -0.05686532]
[ 0.01863951 -0.00098713 -0.08430577  0.06565116  0.07085054 -0.07390022]
[-0.05967119 -0.10197298  0.14834371  0.00421211  0.18082155 -0.05045285]
[-0.03810761 -0.01752833  0.12132297 -0.09357837  0.05321347  0.03706627]
[-0.08430292  0.0334823  -0.00454123  0.03318975 -0.08528362  0.03909034]
[-0.17774615  0.03371836  0.0623748  -0.01526107  0.0629971  -0.10842144]
[-0.29419982  0.02422667  0.03340776  0.07499185  0.13333215 -0.19977918]
[-0.18561043  0.02931656  0.19814216  0.03416799  0.1875488  -0.12026034]
[-0.06061719  0.07234281  0.20594327  0.03388631  0.12226238 -0.14245383]
[-0.05720463  0.00405014  0.18005234  0.01939076  0.14625217 -0.09440789]
[ 0.08599512 -0.01330058 -0.02615514  0.09724347  0.0265168  -0.08098929]
[-0.0624942  -0.0331117  -0.12652595  0.27507079 -0.06496837 -0.01968133]
[-0.03454469  0.10190104 -0.0691281  -0.01310672  0.04309301  0.01908189]
[-0.01602039  0.06243444 -0.11619605  0.14151382  0.022589    0.07152466]
[-0.0743971   0.00308782 -0.05826483  0.08199245  0.14909868  0.00677671]
[-0.09557802 -0.09488066  0.23696153 -0.00657735  0.26703855 -0.00436756]
[-0.00908691 -0.11552996  0.14779581 -0.07325691  0.00020154 -0.03843166]
[ 0.02911191  0.07424806 -0.09030097  0.00154284  0.03050891 -0.10552051]
[ -9.03607979e-02  -1.02446822e-04  -3.63830547e-03  -3.66979167e-02
   1.74820662e-01  -1.46837071e-01]
[-0.1956533   0.01681999  0.15495542  0.00482293  0.10947081 -0.17916061]
[-0.07530621  0.05667379  0.13866122  0.01331767  0.16891624 -0.07089956]
[-0.01800454 -0.02677905  0.15287286 -0.00817426  0.14297067  0.04085089]
[ 0.07687169 -0.01214394 -0.01757145  0.01120613  0.09605446  0.11421241]
[ 0.05721086 -0.06334164 -0.09385599  0.23507339 -0.04261206  0.06192242]
[-0.00194429 -0.03067383 -0.18920477  0.1303046  -0.06834358  0.09046271]
[-0.03242177  0.15978245 -0.09463026 -0.09872678  0.0608729   0.09776453]
[-0.02942164  0.04386196  0.08939089 -0.01386779 -0.02964375  0.06707962]
[-0.11104362  0.03830343  0.09273085 -0.00902348  0.12045231  0.00403251]
[-0.1328097  -0.00342544  0.14583661 -0.04679325  0.14540201 -0.11667911]
[ 0.00536503 -0.10808141 -0.00870286 -0.08405562 -0.00271008 -0.07292866]
[ 0.07975511  0.03777315  0.02630372 -0.08883744 -0.06194013  0.0138961 ]
[-0.03694233 -0.06867357 -0.01087849 -0.06241994  0.05537078 -0.06277518]
[-0.01106904  0.06312659  0.02543447 -0.05316557  0.11355684  0.05297286]
[-0.00455656 -0.08464906 -0.0211119  -0.01102746  0.13395442  0.1095174 ]
[-0.04182045 -0.07909631 -0.01069949  0.06468496  0.13183044  0.08183423]
[ 0.06572625 -0.15534183 -0.13313776  0.1403999   0.04404369  0.10878449]
[ 0.01015775 -0.11048735 -0.13998273  0.28879884 -0.0236978   0.05580293]
[-0.04745345  0.04035375 -0.15780424 -0.0352343   0.02201035  0.16067994]
[ 0.00491615  0.07412349  0.05186272 -0.06209403  0.01307057  0.13488343]
[-0.0789341  -0.00368926  0.08760286 -0.12021245  0.0329102   0.02269452]
[ 0.00096981 -0.02317787  0.13251221 -0.13788235  0.08136624 -0.0577502 ]
[ 0.03532219 -0.06602852  0.07600272 -0.05187241  0.05961421 -0.04842624]
[ 0.08632266 -0.08166531 -0.07331643 -0.05435809 -0.20932558  0.0746493 ]
[ 0.15909672  0.07090709  0.06854812 -0.12607819  0.02608769  0.04782893]
[ 0.03340722 -0.00118972 -0.00294915 -0.06147635 -0.1053085   0.01201095]
[ 0.06284966 -0.10889414  0.02115463  0.00452294  0.04104274  0.09050003]
[-0.00576981 -0.06125552 -0.01664298 -0.0749151   0.08262532  0.06535576]
[ 0.01811964 -0.27416739 -0.0994972  -0.02179952  0.06606503  0.05278802]
[-0.01654589 -0.12005259 -0.00254579  0.13659965  0.06364153  0.09299275]
[-0.03370936 -0.04101504 -0.00513706  0.06076002  0.05403935  0.13270478]
[-0.02120405  0.01168006 -0.01081736 -0.07998849 -0.03229081  0.04440062]
[ 0.0680373  -0.02678892  0.09849466 -0.14275564  0.03439268  0.06628507]
[ 0.03960964 -0.06787567  0.04982127 -0.126873    0.05229527  0.0552125 ]
[ 0.05520921 -0.04309709  0.04653393 -0.05198465  0.00607256 -0.00061744]
[ 0.03584111 -0.07278004 -0.08018405  0.03816589 -0.05899009  0.04701958]
[ 0.12262245 -0.07685807 -0.02791095  0.01122492 -0.07702368  0.0956952 ]
[ 0.11893902 -0.03633686  0.04349459 -0.00671247 -0.07214145  0.12201297]
[ 0.17932948 -0.08288762  0.07211936  0.00680183 -0.08139098  0.02458284]
[ 0.17004909 -0.12792879 -0.01907158 -0.09356304 -0.04033209  0.01586588]
[ 0.08581416 -0.19358979 -0.07350583  0.01620195 -0.11457431  0.00545544]
[ 0.01876022 -0.08692966  0.0652307  -0.06922483 -0.01865081 -0.07052105]
[-0.07259988 -0.09132715  0.01806109 -0.00144869  0.01223701  0.04757264]
[-0.06163995 -0.01127179  0.05111901 -0.00163194  0.0373276   0.01541957]
[ 0.02193484  0.04735337  0.06005247 -0.03829332 -0.02099084  0.01686176]
[ 0.06050988 -0.06108873  0.07063818 -0.11059383  0.03469368  0.00658442]
[ 0.09762297 -0.03951547  0.01379904 -0.17291944 -0.05082736  0.05303648]
[ 0.08905908 -0.09266823  0.04946608 -0.05305941 -0.12669317  0.13631473]
[ 0.19074455 -0.01351614 -0.00886619 -0.05958198 -0.1018393   0.07592904]
[ 0.06070872 -0.03030983 -0.14058553  0.07739432 -0.09674614  0.14185858]
[ 0.08522281  0.097072    0.10289284 -0.06991145  0.04080891  0.02047512]
[ 0.09769266 -0.01947503  0.05759138 -0.03380547 -0.05727765  0.1064975 ]
[ 0.04177281  0.08606165 -0.00773668  0.02264825 -0.21654688 -0.01409208]
[-0.00657388  0.03502183  0.00075689 -0.05583973 -0.07918993 -0.05531057]
[ 0.06053501  0.01912163  0.05692373  0.00523267 -0.10787719  0.00856022]
[-0.05508319  0.03373836  0.01406971 -0.00197832 -0.06204665 -0.05044135]
[-0.04445142  0.09725838  0.04685949  0.01598971 -0.02245944 -0.0773611 ]
[ 0.09541318  0.04900421  0.00706937 -0.02287657  0.00749366 -0.04367835]
[ 0.06605671 -0.03350968  0.07523739  0.00700095 -0.03861087 -0.11441121]
[ 0.02895067 -0.1561285   0.04565486  0.02297314 -0.01360196 -0.00520882]
[-0.0463968  -0.08898868 -0.01615571  0.04485612 -0.10693295 -0.08225165]
[ 0.13334019 -0.05621596 -0.09070595 -0.04385232 -0.07621212  0.1217921 ]
[ 0.08726299 -0.07486786  0.00978199  0.02798423 -0.02647974  0.05974615]
[ 0.08013496  0.1234831  -0.07578265 -0.09787567 -0.10762898  0.00956072]
[ 0.03475593  0.16682722 -0.02221532 -0.08642238 -0.06722534  0.03373328]
[ 0.01313209  0.05881266  0.05464772 -0.19215213 -0.02962633  0.06310719]
[-0.14766081  0.19078162 -0.0223801  -0.10952539 -0.09655861  0.05537841]
[-0.12010972  0.128479   -0.01296547 -0.13436463 -0.04128822  0.03057704]
[-0.126976    0.20583723 -0.17013119 -0.04365836 -0.10428803  0.0007341 ]
[-0.13694218  0.05555012 -0.18682869 -0.01572905 -0.12142748  0.06945885]
[-0.06609344  0.05953603 -0.11534228  0.02790458 -0.06299543  0.02195862]
[ 0.00579216  0.01040848 -0.04752954  0.06248032 -0.04506047 -0.07171202]
[ 0.06612796 -0.05075603  0.00460402  0.05021375 -0.07082293 -0.14113237]
[ 0.06059156 -0.00884854 -0.13337673 -0.0151632  -0.12029801 -0.09032074]
[-0.00338097 -0.06098821 -0.09469622  0.01604508 -0.12780313 -0.07895476]
[ 0.04299645  0.04742811  0.00608179  0.01630717  0.01778822 -0.02333896]
[-0.03637968  0.03133697 -0.06554878  0.0576667   0.03498271  0.01884978]
[-0.04866013  0.05339623  0.06635017 -0.09736025 -0.04822575 -0.03216243]
[-0.04256557  0.15856798 -0.03554481  0.01067734 -0.01596121  0.09327661]
[-0.01145444  0.34335843 -0.14101933 -0.01846303 -0.11685316  0.17221287]
[-0.08899485  0.3283194  -0.05261054 -0.07593491 -0.06005736  0.20173469]
[-0.15931182  0.33383924 -0.17612533  0.02124997 -0.18755397  0.08094072]
[-0.20052804  0.21875407 -0.23165324 -0.08619246 -0.18417048  0.1477787 ]
[-0.06287347  0.24643153 -0.12163941  0.05086336 -0.12944624  0.14534563]
[-0.0699948   0.05484516 -0.01785609  0.00846085 -0.09365746  0.06657533]
[ -3.00880093e-02   1.56760652e-05  -3.92829776e-02  -4.53218818e-02
  -3.72712463e-02  -9.31449682e-02]
[ 0.04892987  0.06433292  0.0137437   0.05894129 -0.0549096   0.0173337 ]
[-0.0630699   0.04362354 -0.03924803  0.01090073  0.01806177 -0.07962207]
[-0.04256609 -0.05411338 -0.06673733 -0.01721395  0.02368512 -0.03431891]
[-0.19800183  0.0109467  -0.01682163  0.25291711  0.0388793   0.01139064]
layer 8 Activation
relu
layer 9 Dropout
layer 10 Dense
6 10
[-0.48115057 -0.36688125  0.5161944   0.49790284 -0.53813547 -0.04910949
  0.28879878 -0.55476457  0.33699176 -0.66155529]
[-0.46968699 -0.90431881 -0.03427842  0.36628184  0.44660869 -0.19520544
 -0.79160017  0.54870796 -0.42861155  0.48851705]
[ 0.63678533 -0.43908498 -0.35588896  0.50783134 -0.58077025  0.5876559
  0.46997851 -0.16004412  0.14765917 -0.27894816]
[-0.94036037  0.76555705 -0.09618151 -0.33746976  0.64361501 -0.48679942
 -0.21277791 -0.16443019  0.41153374  0.42997238]
[ 0.66504264 -1.02455723 -0.28330475 -0.60471678  0.55682427 -0.41182199
  0.63954097 -0.42733645 -0.1225667  -0.35507622]
[-0.06912429 -0.41491145  0.67470354 -0.1405129  -0.6224184  -0.26377192
  0.58306926  0.54028243 -0.55358136 -0.63937527]
[-0.26209995  0.38734165 -0.3597208  -0.16978005 -0.3514185   0.28218356
 -0.59953791 -0.07447742  0.49542567  0.30167779]
layer 11 Activation
softmax
